{"activation":["sigmoid","sigmoidDerivative"],"cost":["defaultCost","defaultCostDerivative"],"layersizes":[784,100,10],"weights":[[[0.00860736900688008,0.021623861509357807,0.00575125404360097,-0.033627649057135243,-0.02501911287212501,0.015826300498646282,-0.0038185151484077186,-0.013008770326328144,0.022123998924195042,-0.006660927842888206,0.03486808865462383,-0.02980567694408661,0.011733090447184541,0.012605088685856287,0.02287212843656497,-0.007659554601057067,0.027666501789902462,-0.032125606520089035,0.01377010461637875,-0.011748404544267108,-0.004468702185894292,0.01583501744186052,0.010182286362859653,-0.015677623203482222,0.03235382135708881,-0.016232622420870115,0.009274016389745753,-0.030103760709734882,0.024134743881055954,0.019015152076486477,0.017888608924764137,0.02449109213110052,-0.014677854473592234,0.03221423064041354,-0.03505205353743614,0.018077932618976597,-0.016579946343723215,-0.013236535373941082,0.003931747570444391,0.03558356812522237,0.005564037206547377,0.007617643751892132,-0.009610487077761774,0.016134407324106273,0.03128756329941443,-0.00020614114589113667,-0.02644702816444115,-0.011805894215167489,-0.007539107575955052,-0.012352135272082105,-0.008815362931849742,0.013987528983849175,0.034357054367964546,-0.033917836601928805,0.015418702793772832,-0.0007271209271654735,0.0074528702695727716,-0.015220400895016563,0.016400109157861963,0.023929109684387415,0.014909122256904246,-0.03279290329837984,-0.023296448747755848,-0.003708144238474055,-0.02888457717687415,0.03406037411672669,0.021937779409494217,0.024046694218496173,-0.00555407366176877,0.02110710574281878,0.0010009532534343585,0.034537568154478504,-0.00928120813577194,0.03429942058962427,-0.008782412507738722,0.01944837536616737,-0.01275046283377072,-0.03386422565724834,-0.02856703309088414,0.02957322307460331,-0.001629541341458136,-0.017690488640570504,0.012397111246295398,-0.029909621367661433,-0.015485207357046208,-0.01652337006930379,0.034014908437518275,-0.021826162831558166,0.02890422665856433,0.016142818025179494,-0.026820232786328946,-0.00015434884753160653,0.022049998612039164,0.03288600296560673,-0.010971248154593818,0.019948902839217207,0.025863171635521813,0.010938387517540152,0.009763601756505803,0.019455206312652604],[0.015512805658120866,-0.02128657033308487,0.004707686577534153,-0.009076181844605161,0.028948921654580167,-0.0030980119105286953,0.0019249523911242434,-0.007263167419805657,-0.0008283124893429778,0.01594510497955823,-0.0198746116424689,-0.006104698032841734,0.010554793638623763,0.013021029494766698,-0.019809320721679683,0.006423940619073363,-0.0180973621861772,0.021645840500083998,0.013007007782712217,0.031175803663196024,0.01799266524590819,-0.03529669864165915,0.023786007686799376,0.03251066387406913,-0.022339004499160004,-0.013507612006510137,-0.017044643941864734,0.027296481273372992,-0.0024110216297206968,0.0012266134867170357,-0.002538991720414708,-0.02686554379770423,-0.019163562862453676,0.01746378091461154,-0.016873766462526692,-0.015822398579544077,-0.008944757650213887,0.008463640054348869,0.008909637614021202,0.0036481834920799295,-0.0265392066483752,0.009915848272462799,0.014980126912429923,-0.00556869094569574,-0.0239720588127931,-0.014698118955869068,0.03242053660971791,0.010592423954284322,0.020984531485827938,-0.02382544722575987,0.02303755497941902,0.02535321061861444,-0.015976281484441406,0.007606874856972634,0.007043555115515264,0.017449998903038312,0.014596704430523827,0.032847707450485986,0.01743398745186873,0.01941291017762509,0.03363679142542756,0.007604138841560653,-0.02713374450079159,0.025816195535259486,0.0318981437879075,-0.013882534444688045,-0.026298819292994005,-0.010843795804333834,0.014665477375372424,0.03313550316949555,0.035564052136300775,0.01006334786838539,-0.02481760309175755,-0.000949011940570503,0.015012935060283266,0.021505460153526994,-0.026465096363135612,-0.005212286597147334,0.01032239496005474,-0.024731852524031917,-0.016025672185982,0.01832667169369469,-0.02460008503755403,-0.027780093135566855,-0.026600248346555458,-0.020101416102911676,0.02642201134092551,0.02267660488767541,0.017869019547294935,0.019892258380268847,-0.005337851152058063,0.006351825778826675,-0.0035690082498499726,0.016956662907861207,-0.0019403207452468882,0.022794965215516702,0.0040642629793668575,0.0025508879660152985,0.0030083009075920343,-0.0033717541768610816],[0.008254371541069868,-0.012307581742715097,-0.015273082996731633,-0.016832905877154237,-0.018163497202493127,-0.00922920001016354,-0.003576154987458723,0.00964402036544199,0.017931109818017814,0.027232567830923888,-0.024258899396005923,0.028792718415446093,0.020096087307924507,-0.001045814782779988,-0.016786332419509817,-0.008162744105431035,-0.006014640342494188,0.029427430812719608,0.005632248157948287,0.01075569145482641,0.03156385381964426,0.004957262197563718,-0.00002623720290503535,0.028811923327305162,0.0075190421638635,-0.01995268542057513,0.02851753264546798,0.019784157706358135,-0.019453845401308317,-0.010654999423275004,-0.024409771270623687,-0.0033510362605874864,-0.024905273843801964,-0.028723321739724483,0.019892761832108922,-0.032914096256649476,-0.02904404154071531,0.023220555242632467,0.002152763423712811,-0.015740267057584103,-0.00818024530676187,-0.015995401843160967,0.006123194344259409,0.02136397721631712,-0.02248305593541657,0.01328041443570107,0.013635055333561394,-0.030672930242431815,0.02610919325979488,0.007654526827741864,-0.03156360653763827,0.02377965817966386,-0.003895895470674434,-0.030095045062358092,-0.03565630193698192,-0.00957474829720186,-0.019830251001343516,0.012436396405677435,-0.02267316592017717,-0.03506364217105988,0.02169482207824685,0.00023306490954769395,-0.03564051896490621,0.012918271319796745,-0.016995446893853752,0.028165221509079904,0.03377087593252059,-0.000029299788451881534,0.01496980006258896,0.03042726992813601,-0.014001639130343083,-0.0012687841696700348,0.009271636915554571,0.0062766446204744275,0.016787954319136135,0.026449476923476687,-0.024195293717228387,0.015402501524188471,0.01298304118621586,-0.0274964950875779,-0.02062902870219578,-0.010661181823748441,-0.032607371421417876,-0.01562807767652173,-0.006273933588575947,0.0193454958130842,-0.03378020629296812,0.0305339513294471,0.020042403204093458,-0.02961326826582416,0.022626212435131385,0.028788810385457903,-0.018600285986865,-0.004060654861620266,0.011075616259064815,0.027891696595850664,-0.01268191206358308,0.02108129348711529,-0.016266455298384688,0.015770440926482363],[0.017426940624572857,-0.0013216042999167343,-0.029537681573456365,0.010607013253953052,0.029403997463531884,0.015814444494089915,0.013249763684856364,0.006952455917742127,-0.01982265387513403,-0.013491723021379102,0.02584957072628921,0.0326704963638621,-0.027136709497216357,-0.024534020059654684,-0.025978448379226013,-0.0354319689453862,-0.01245489128253684,0.023840182128248656,-0.009786317970902151,0.010061496205009263,0.02898329438765653,0.02699059458280304,-0.002830294644792163,0.005049047086821022,0.006966647191993414,0.009639721943376266,0.005142265433224285,0.009512871879109293,0.01896292185700928,-0.008694407697732437,-0.022000857202378987,-0.010636258191369884,-0.01199683919708854,0.006910136134264819,0.03478374517225545,0.0036629062049525238,0.0010552499297704087,-0.027882508261178676,-0.0033823066393980496,0.0016573158357856108,-0.02234436966337051,0.03342803359868505,-0.015890429893900656,0.0018195237856741507,0.023066635616565703,-0.0240254160803919,0.0038991231270014454,0.021427795935578656,-0.001569592728174692,-0.002864498736430983,0.00017564429173037307,-0.02801768490579933,-0.01475066556648146,0.005225833632006107,0.03323768138057136,-0.008974436382784954,0.026375636190905282,-0.0054835788733062635,0.032267769740081116,-0.010990961777783487,-0.01121403607142644,-0.029071129053834292,-0.004379084868290189,0.012418149542898186,-0.010978679198780126,-0.032531605724306155,-0.03426718286805625,-0.007773852501734434,-0.005268597988860122,-0.007637808594326133,0.0029075021796346884,0.013615459068442616,0.01573195447013047,0.03467568286605343,-0.024859625983399716,-0.008509073739262487,-0.011537688537464156,0.016042446309553333,0.004165463501091268,-0.03369936729526362,0.02777105526420436,0.009500959124681529,-0.028998703577161316,0.004340241705560686,0.01944502286614394,0.02274747035776837,-0.0029740180980770614,0.010045710913700892,0.010168426629173243,0.01070614180211163,0.025160405631716707,-0.0035307192197242955,0.014708498202252122,0.012225267270826859,0.031720314142135504,0.023695148457769953,-0.011011745385322179,0.01950147257475084,0.006449387414017649,-0.01147900624949884],[-0.026711290252061013,-0.016375542847028357,-0.021708075528824124,0.011934879677187803,-0.03333017289791043,-0.0031223172700611873,-0.03294770171002039,0.0348951453897356,0.015388199150778974,-0.020215483064450077,0.015414658334984671,0.015085965241891616,-0.025701865241615298,-0.0015879160444290598,-0.003951960385018597,0.010755102479524879,0.018880521970265258,-0.008588807645902722,0.0057126751040994395,0.024912498817357933,-0.010514218390681018,-0.003413210052683749,0.026218977174652724,-0.016778279085581823,-0.01325995589655755,-0.015920109993834673,-0.024329720418978566,0.0132096380941897,-0.018076383896962988,0.028967406842169804,0.03212368858873024,0.027519932259982373,-0.016938548608311853,-0.03435635791188141,0.0011693276597324455,0.0021169626717886117,-0.021064873748101013,-0.015507775968171657,-0.012464947778584371,0.0288188527881038,0.027858027329600035,-0.022264826145880993,-0.01568840777167349,-0.030517140991270585,-0.01737877750591972,0.027131158024447658,0.0024744490661221205,0.020219723778497924,0.00940746280124188,-0.002307586379983723,0.02706400038502548,0.004372421332464399,-0.008704342372912836,-0.02193268804918421,-0.006080313066148967,0.010129312239323923,-0.022897679401317914,-0.03473644711796194,-0.013914740570786486,-0.03025792583568093,0.03483746835039575,0.025780795625824308,-0.02226399302867886,-0.014462046570844371,-0.024398856831721986,0.0012644996733124471,0.005136600521142371,-0.010989654738483456,-0.024424732784525297,-0.022606977478008404,-0.031734352983832516,-0.03530161980858205,-0.02481512849678795,0.015610128504360568,-0.028485200499996338,0.028447382640809288,0.017096051049348034,-0.02974714918673496,0.03455809923297175,-0.009730275696696024,-0.025192114928439754,0.01611407106739355,0.0036023092777036163,-0.005057489167640358,-0.004768458116068749,-0.01724694635911627,0.030508007432385964,0.022317572518840933,0.03323608605292358,-0.009067102451648936,-0.011993538089450698,0.0215842834953414,-0.024039699809408288,-0.012870648408573765,-0.008833030282322686,-0.014135133991127403,0.01916391389939953,-0.014517058909468764,-0.024703301005216474,0.0125503279183491],[0.026540888270869745,0.010993844491373124,-0.03193270258076738,0.015718022855285344,-0.004313509864289221,-0.020827480107688808,-0.0025840472656995877,0.009763023098879052,-0.023430990842377673,-0.026158875869127008,-0.00011699559070452138,-0.022556134898060926,-0.03194688690177734,0.02126856582542135,0.024964361666125524,0.023314653356183518,0.0070813826797591186,0.03282428501473864,0.004600962054564314,-0.026460695643028533,0.021101836275206363,-0.019664392162805862,0.03532648892752485,-0.0063880679138059015,-0.003882706259268966,-0.025625763192336514,-0.023045355943913146,0.014379767794793302,0.02460461334988864,-0.009581142493194394,-0.016540638106244666,-0.028041249278711496,-0.025591665100871706,0.02204616122664263,0.022114006067009424,-0.014397219991247174,-0.01407856837938496,0.0063558300534503395,0.013325434518885602,-0.030515244431310522,0.017719168739053694,0.027292721556587875,0.03517231654306829,0.008676661627330417,0.015107756310400474,-0.022438781552343523,-0.008443706010425935,0.007114127401743227,0.012593623395209197,0.002081339910149334,-0.004703171485328988,0.0038831940297204904,-0.008206135629795056,0.0284256713514677,0.02058873343657514,-0.026768226330568187,-0.0346542047108706,0.021799835033848625,0.01890369516126907,-0.020914008120425893,0.006612693945976525,-0.011210077603235979,0.017847520593394242,-0.0036720536873944823,0.0011483551332639493,-0.033743604895937654,0.014144530051794535,-0.015584413338301331,-0.022976198708880884,0.016671945254703103,0.02948244101428427,-0.027925958731805426,0.009052031993988399,0.015447884627214522,-0.005450082506132556,-0.021357872850374014,-0.010870840448592071,0.024282176738446223,0.034163147624215726,-0.0174910831026101,-0.0015188059551705763,-0.02574062699247913,0.03350248534192212,-0.0343176882104986,0.008979779297007573,0.02411106867141186,0.0050686011699267045,-0.022707783977899285,0.007526032843926452,-0.01681649531458104,0.033516502628649456,0.03079229963905428,-0.007336298544419199,0.030863923213615686,-0.009500736793576645,0.004708615031731525,-0.004415015154724841,0.01133773778001074,-0.030524714549874484,0.018271622950323793],[-0.02813868682039135,0.026407821502533704,0.015132756798077109,-0.02918915511262132,0.023832681217029927,0.027881369219577345,-0.028715209444994245,-0.010803277007629623,-0.00913831982714346,0.025674077471604686,0.013704456466858882,-0.001283825361312971,0.0013550601615944628,0.033289594717221295,0.018335057964943294,0.00523418425850566,0.02412307314702217,-0.0010153207429140147,-0.004637792995700259,-0.0043393682576720535,0.01854066602333688,0.019471941199452444,0.007693809929391946,-0.0008422870500936892,-0.013303579222879442,-0.022122764204962453,0.008780103397272887,0.03220495042204124,0.02276473982969757,-0.018115567614002487,-0.01572646187786146,-0.028579768446010782,0.00617356023019985,-0.008025060967194624,0.0288516640831763,-0.024253147393725676,0.028167802158327728,0.01575669391032363,-0.00004874643510834954,-0.02555083998213712,-0.018995497414174584,-0.030598900140171786,-0.0312669163988718,-0.01932466297104492,-0.029232874421070087,0.026861123058226,0.004879055089164765,-0.00944100399049806,0.020637035954092154,0.034995789840594406,-0.029605419931684602,0.013947659476431184,-0.017509723382149005,-0.024681224248241068,-0.006002757738378053,0.0132618176922268,-0.008765301659909778,-0.027406953025934093,0.002780128747156151,-0.0062563547824151635,0.027487666971133924,-0.021182030377431674,-0.03103321030374295,0.001742498341529308,-0.02291786596750375,0.0008518500875400076,-0.028152308860355944,-0.016747937999343793,0.013586271282888331,0.023328558698389994,0.0007461455960642829,0.02942616945560521,0.033546192579225434,0.032786469827597524,0.00018345099938445642,-0.009326311857395754,-0.017621719220030488,0.022501276859358942,0.026606985962338778,0.023627469649786535,0.032116007826058175,0.004667100182737759,0.02698249582307587,0.028469255977181356,0.003202482585209338,-0.022840806840683202,-0.02383682710095926,0.028250805186043632,-0.006434653360040455,0.01268457008628592,-0.0118599412353691,0.033103832973895464,-0.014657988106838786,-0.024025517494290213,0.02567491937087431,0.03477405564171782,0.032321230103803916,0.00730025320537977,-0.017634356988321727,0.00984876641615044],[-0.005213205596903268,0.021886552931921516,0.0018360732409842847,0.009544314710654693,0.025868702678755434,0.03255078031610343,0.00605833980924907,-0.02200726997293588,0.0062618560379929305,0.0017378882932638237,-0.02510112649183395,0.03478714347397921,0.03437766499722315,-0.015766256879452295,-0.019696200737168868,-0.007762932503656757,0.03067220441686243,0.011872436356441371,0.01006932604744697,0.027505425119823308,0.020617187300348415,-0.019824458572677048,0.025267268343763735,0.0016574391945676518,-0.024371195692466825,0.028362027402113767,-0.02897912721016175,-0.013680739078968204,0.03232658347607608,-0.011337548799008348,0.0016053690370850333,-0.014216776143877612,0.03005631632437307,0.022302417966622943,0.027825927106925566,0.014211304113151177,0.0011604913612970453,-0.01011356739254711,0.011691521300483041,0.024104195765240668,0.03565788458045288,-0.015675536796168555,-0.02716197349235536,0.020555882501649456,-0.026338650443820277,-0.017924555264243202,0.024900695928211418,0.006246287120976301,-0.007685851798308142,-0.00007733082521022613,-0.021175522403991637,-0.011082060904561288,-0.030823153595975598,0.016697630780354602,0.02066557578153199,0.022186885723704655,-0.016888762761013327,-0.026326810768624743,-0.0018965501059627792,0.022540427544287974,-0.007429585205643011,0.005914816040724097,0.0150186589603652,0.033972817352414565,-0.029625083958159652,0.017341773273230488,-0.00014673804721842239,0.027818600112926754,0.03055662275777782,-0.00581714850118451,-0.008523170430112366,0.03186237721756562,-0.005109943091293989,-0.014685103880715427,0.022884099249605487,0.03499259711079049,0.0320124586915093,-0.010322852595293109,-0.012353543418224979,0.00822975244688202,0.03302160363135683,-0.015383666611670416,-0.016786204528105485,0.023672071388115404,0.033513832013379846,-0.006646784500273044,-0.005955228144380774,0.025341144680627658,0.02018138664365348,-0.0009159763475881305,-0.01836945850228663,-0.001032747431775056,0.0072234308069998015,-0.030466438963475274,0.017756816554326725,-0.02235192393752643,0.011233601579738826,0.007798630915640453,-0.007566833293810778,0.02936640014689794],[0.018245851403423805,0.017804699104681167,0.003821510782807329,0.008871891930651125,-0.0148103227918143,0.0016941141562004816,0.014683676197170585,-0.004488948529015072,0.028669632441417264,0.02046831121185619,-0.03350912758486495,-0.026683783094008543,0.01576744769484603,0.03221463914392391,0.01583808599534346,-0.026700158676973246,0.013181837332268012,0.0020906137952093197,-0.02019244898883145,0.01701432935275048,0.020027710188934993,-0.0030460951358148385,-0.015522665901460184,0.00965370913950198,-0.003211743660383948,-0.02459091345696445,-0.002149269235605379,-0.030642577908473332,-0.002820660276165152,-0.02300221177002048,-0.014018325340793105,-0.00813454228273578,0.015080032900369788,0.034545153258168454,0.005144514813298052,0.014059529617631432,0.009365504703929542,0.011464182296700008,-0.00996479690830319,0.012592780682383115,0.005401214566608322,-0.031285347488782984,0.025939000200526134,-0.024641865922107407,0.03318634461125066,0.030068389065087308,0.009637730586361767,-0.010416774369863241,-0.022075492171938795,-0.02991147281087185,0.034168769976903705,0.016671668278506146,-0.016372173101710717,-0.030760074199262664,0.03538504067844368,-0.00046398285197755555,0.010585213485755736,0.01446128917568169,0.013667699578239637,-0.012843442922555943,0.032088110322023404,-0.009584243184935125,-0.001974466867102885,0.0009505583704694415,0.010821129595817176,-0.014693748346478472,0.009015049727060805,0.03262958724420431,-0.011127403401111981,-0.01608094829836866,-0.03321456525575028,0.004407442461171966,0.013429832043596521,-0.01823161443719642,-0.02450664199647371,-0.023221712758985373,-0.009762987084186483,0.02173076433347803,0.00544152226290464,0.010465360751594053,-0.034042907568280725,-0.014881370591817994,-0.03139420758650613,-0.02028832390766026,0.029343675636348755,0.020344448663299562,-0.022311310355667614,0.016685212454887927,-0.031197494395284377,-0.005261959858162457,0.01795263733890729,0.024164481920580887,-0.008994535981483236,-0.008668434159367038,-0.017303175176074347,0.007729201059346611,0.02266952315467128,0.030400589329787446,0.01035482824789584,0.020614275212733187],[0.021515936847252316,-0.03358724758733892,-0.00029458246648550186,-0.023737656754959757,0.028935006912296658,0.009283315828141767,-0.0022919447825960173,-0.014827602698704742,-0.012566178221875232,-0.03261824572048079,0.02929880905596089,0.024605285484345492,0.016825677167870073,-0.03054297000291456,0.017077056189495964,0.019437802093298633,0.009747477446690377,-0.011122446926501902,-0.015131001752036766,0.02323959926686313,-0.03513529848194375,-0.005679984201283249,0.03180727554397645,0.028444583348211972,-0.009923728672179295,-0.035432090815129644,-0.021424962294802338,0.012951885831970503,0.015981938189123072,0.009969351879125917,0.0019182653416986095,0.006293819552881491,-0.016921513321686336,-0.031969996403647886,-0.031564364472178176,-0.017175612730602738,-0.005655130049822486,0.012637843465803713,-0.018756183562017244,-0.000025319375202503753,0.03132048982270484,-0.022115513896768326,-0.024809264917719766,0.026545387188963807,0.035344000749131285,-0.027150015637203113,0.0006676309886231347,-0.016589980881466074,0.015547434908806355,-0.03448506044774692,0.004096061224969842,0.010834877066909256,0.022357870364112555,-0.0038026283834310583,0.010383504987914714,-0.027629671783078975,0.009439065308283307,0.02042449456617997,-0.02154565718684469,0.028929170213337164,0.003345502435974996,0.004288971124082791,0.028689865714343458,0.021126875427300035,0.012792863459337906,0.022573656798884234,-0.012785544619412115,0.017911130545686795,0.018232230213031737,0.01043064026929873,-0.027537278809420192,-0.0034682502807322994,-0.021467572350255832,0.008243972194761489,-0.014509250962873326,-0.000494255662053214,0.02904331552715311,0.0015595495714107483,-0.01446168471255108,0.0027026595044284006,-0.0003540311657510754,-0.02522327977231009,-0.01496398313928255,-0.03349947129576101,-0.025804585139565486,0.03548268227110689,0.01609866732343604,-0.002363184746815137,0.017782648175648296,0.019624931632182933,-0.01716664835013077,-0.012641152140765275,0.008335105263509203,-0.006587894185665263,-0.01379167666443782,-0.02718578908429314,0.0308081635387585,-0.03480564037350736,-0.029267499669220914,-0.007572527891768691],[0.009787047315404208,-0.017616884413237707,-0.014726497386604975,-0.014337260416972144,0.014529134798484274,0.00032952290186906473,0.02207131007802607,0.03120608645017341,0.0341922242019274,-0.017175135272378184,-0.029049321284275804,-0.004124722514612859,0.015560548700055606,0.03322801880900617,-0.012091645502809738,0.0035248300272489484,-0.006140319939907413,-0.0150221242646338,0.03039405630224375,0.03163497100131848,0.017137165338867624,0.022811264390771246,0.01778213210298687,-0.03211481291328001,-0.02929679276289653,0.011075712904705,0.02737307104734861,-0.025473772707715083,0.035142065148238685,0.0034709926823862894,-0.025469882485205545,-0.035600775469176164,0.010860956412257788,-0.016638949488608213,-0.012690003184075762,0.021625854998992666,0.024864467201131515,0.02809238869908285,0.018587797214697846,-0.0013576084619123991,-0.007103275280448254,-0.027165401309373945,-0.006830708784293664,0.005057304140976473,0.015330640176568619,-0.000787348373698471,-0.006706144857193475,-0.01789645002270233,-0.028199391671064163,-0.007816020453800034,0.017303637223832026,0.021911719112931542,0.004202059253391876,-0.030200265142948934,0.016903468796861495,-0.012826597794653255,-0.0049353208484474095,0.007530498125418339,-0.034770071339392965,-0.030568415797423924,-0.03071552309893736,-0.022258262360072577,-0.007157638245845743,0.01983699575548588,-0.026844755677239054,0.029127617763968904,0.010319197450296002,0.029178071883649986,0.010037145878732725,-0.03076591931022539,-0.01655422367140816,-0.006357738536404963,-0.0053115972942480464,-0.03417656932578901,-0.018720160420796255,-0.017148359497991827,0.025390401398030255,-0.0063745294318830826,-0.032404103148214645,-0.015301988958378162,-0.013177714395770935,0.002934158083743522,0.024650004401794736,0.02061585109357589,-0.022985151427724972,-0.027805999410355525,0.012409234527806436,0.026324240653416656,-0.028207564867605985,0.012689552534285713,0.028869774116736236,-0.015542510330270725,-0.026652278258272127,-0.007710626761196466,0.002042298073930617,0.013539442749074456,0.022332755345558584,-0.0038573348932005665,0.005569003147972424,0.03224493528922947],[-0.025461250463349405,-0.000012730400308971045,-0.01996404980615677,0.027127582013933827,0.030671110577702495,-0.015143707358419519,0.003284820853427045,-0.0223954407663562,0.02823138082924164,-0.027936476753213535,0.02145341087215289,0.021934484093336416,-0.0009542945150257876,0.005736827020837654,0.021140850192493985,0.03182159563380204,-0.01368250334665002,0.0018775681384254966,0.026267334297457715,-0.009296984512977051,0.025520125829971308,-0.021482569953636125,-0.024889827845883183,-0.015699758257206493,-0.021392059063607857,0.023469110330705163,-0.01705108421526496,0.014341367494788414,-0.028120211658824584,-0.029113469036787257,-0.007236777451979673,-0.027445522048526943,0.007578243085460974,-0.0038407262919002076,0.002050919294093073,-0.006999857260330581,0.02470292540085518,-0.02308912242717899,-0.0344592650933455,-0.01482493989788721,-0.022245728166926142,0.01123746328888992,0.022216611031635806,-0.0030723161792282996,-0.02658152314252727,0.01530923432616916,-0.006173672780317675,0.018472203543564387,-0.007525471319371985,-0.01685478913229877,0.01998945600237109,0.03262496716623329,0.0013957191782197917,-0.0225665157734626,0.011965460910251354,-0.017860986842382923,0.012160359747826355,-0.016517847274034003,-0.03462295200452243,0.011026783153869773,0.015607766109619649,0.008251469847434368,-0.020215103147649155,0.030804779670804527,-0.0011460146456551995,-0.01524710583005706,-0.026381505823030307,0.034855354538396215,-0.011604667723247794,-0.008204507191501459,0.01716115525916561,-0.03476672649991295,-0.02733729822035385,0.014888416039325537,0.03202083146486949,-0.016154060440578398,-0.02239764847097516,0.01980862163183402,-0.032331703950469526,-0.009168095743068122,0.017145264133871116,0.01042697642914767,0.002830703459461349,-0.0004511893745887683,-0.0018621522896762532,0.006342123326366981,-0.022330910870817972,0.018985044196129792,-0.010993754830568669,-0.03455334089641637,-0.005522210345584714,-0.018811662250964305,0.018765459357175787,0.006267476690251208,0.006790703782548482,0.016876707592752505,0.02426986448419728,0.021709080063652117,0.021027619471957495,0.031876339045874974],[-0.022796701128456297,-0.02196068181839022,0.012708941748289033,-0.02390138847238882,-0.00602025115041111,-0.014891740397945547,-0.02725004068695391,-0.015825585225884155,0.030736998654455686,-0.010734537493010671,0.012173956589244243,0.018318152160412684,0.03078776609304117,-0.02648400134372345,0.03164649352594341,0.02513120547676404,0.004562424146808519,-0.020609778958397888,0.024601147732303107,0.024998448003506032,-0.017090293248644636,-0.013108424590364572,-0.0013701419155494375,0.005267460031491796,-0.006641089223259858,0.028155604534328953,-0.02005975482102449,0.019623094511894576,0.019804082888166197,0.010590415254255702,-0.005643111099607703,0.02961913489350177,-0.012574423400023377,-0.005439391072621714,0.0215314322370343,0.031228639185785313,-0.008910346000476051,0.012384845880538398,0.0073922600422698225,0.03254537969113576,0.029576487211587458,0.021937068479039267,0.014348988507612933,0.023715179353379884,-0.018848024877796864,0.015240901680725108,0.023370653406244737,-0.029476379259570022,-0.024419973560134506,0.012385252281044423,0.008924728393897201,-0.012350691913092862,0.015084794050841899,-0.0034626838172939606,0.02307351466942155,0.029119118797312434,-0.013058451158820528,0.006086921449914243,-0.021930833093146054,-0.015254082681164093,-0.035606770558091604,-0.0060444269521257,0.009584617512834516,-0.014962472524286096,0.02365327304186494,-0.03173949936116878,-0.03029179698859193,0.011047104456755837,-0.00694981618764358,-0.01571636331595153,-0.0247123444149574,-0.019224980533682944,0.034329641350619895,-0.024120273016289787,-0.03218530207199701,0.025608810724405764,-0.008983435463557447,0.007803447017138169,-0.031057887612602107,0.017030430625105238,-0.00047098883309363746,-0.024412462534029646,0.012724406247823025,-0.010974034651205795,-0.013696340167439206,-0.015594485043167518,-0.023396646844341555,-0.0012995724649383284,-0.0284952320034256,-0.017821075739825647,0.02952318480683957,-0.0027989645415725743,-0.015697721966154633,-0.0036124469747465453,-0.012777381018000423,-0.026756513309067125,0.0022995863947863826,-0.010016261716867198,0.00912133043941297,0.001229424017124267],[0.0013019780054607942,0.001508737735816679,0.0023152085079229086,-0.00013789017087872013,0.022495482807196213,0.016566396074951265,0.01933974916296447,-0.004949583592512498,0.02158818843507497,-0.03607971298293426,0.01572237777719292,-0.024724166687220023,0.029715154212062823,-0.03382379432648953,0.03149758038116416,0.006031127593277848,0.025362860033914997,0.013330937397084245,-0.030475864350706754,0.02565070920709586,0.014367113798091805,-0.0057062711175992755,-0.023242110839477952,0.032071276084933514,0.019223639956889527,0.021498743077282695,-0.019574388965123125,0.024019220362130916,-0.0325377702632818,0.015093984835036715,-0.0020805658875322143,0.028941129716313286,-0.002982880121767651,-0.00685678105635717,0.0020150861295811892,-0.012210363048608768,0.014337719940880652,0.014456228882044541,0.03538105045309724,0.03461241456541071,-0.007974405407403426,-0.007976070567397695,0.02561615848121869,-0.020406224112790448,-0.034139065744667255,-0.012394691188114386,0.02291629040351535,-0.0021374888278163843,0.03275290674443616,-0.0003742343409104269,-0.017627127632584654,0.006535656323701711,-0.014808228926751998,0.02279772238001331,0.014059771464430068,0.0034738734478174764,0.02290038765037539,0.026967728920314595,-0.00584888036201015,0.018569794267149792,-0.031565566844583226,-0.005571361104768897,0.0008178368962840138,-0.006698931083897194,0.03486224290862514,0.0012668145739929862,-0.032423804492987214,-0.024915346719754296,-0.012706658234345077,0.014252431125301985,-0.016897965791313863,-0.01093261022542775,-0.013116376183075958,-0.008010885631244401,-0.001848303935021643,0.01771249306750474,-0.030506306357055504,-0.014639624003010946,0.010536158735273578,0.025736962487265636,-0.029040268937294448,0.008377069536616828,0.028283006242678894,-0.0005433297571726191,0.0044923149420193495,0.03184680484320307,0.00028361660223321197,-0.008367801227470339,-0.008756215308002744,0.025145980633546384,-0.03161070191889258,-0.032370964939385016,0.007427087030461488,0.02255245674267741,-0.031940241749372086,0.03339840589634728,-0.016101780409219738,0.018015532171728837,-0.015213337634802095,0.031510396776152756],[0.006606492553315423,0.009812335667613161,-0.022080525384160294,0.011081234896973248,0.021156565086192347,0.009823460306061798,-0.0075880442958024645,-0.01768252076447731,0.005426181719254861,0.014791835949019767,-0.01070231064562098,0.030219428976687744,-0.02314648271045858,0.0033867579071941854,0.004817615946262065,0.014289160918672564,0.03392575378481546,0.00864908646511475,-0.013054020424340819,-0.01605395691873354,0.03524477662989903,0.027983077933153,-0.01923483054872991,-0.012819477835798563,-0.012284526856983093,0.027790526821772188,0.007139308046073946,0.02448052389341557,-0.0022786001032224098,0.0037487416376736204,-0.026389029420172724,-0.02848896278639869,0.006170869365602299,0.015255132942896177,-0.006621044771382485,0.00034403581703037063,0.0001615511455717546,-0.001999216483051487,0.01970068356541216,-0.023178463136897497,0.006311594953118405,0.020574126232349374,-0.00481355129007769,-0.004763978713788983,-0.017753951596081327,0.00011937317475465452,0.009319317321010328,0.01356954931385535,-0.022926334481681417,-0.012026985941192399,-0.02477512849323194,-0.02312714719515427,0.01702583739166956,0.020589614486321507,-0.02295901222563286,0.02532022960658928,0.02246258075925756,-0.012375192753206685,0.019323286874048332,-0.020143294729393593,-0.005004516788927771,-0.010380111881399205,-0.03477956762037548,0.0061516386252247,0.025788410295866503,-0.026775001844141087,0.013303870847811892,0.003525286698306673,-0.0006122381251319064,-0.0289505553476799,-0.031933589000817816,0.011902317879957372,-0.0279239564071687,0.014982874523827664,-0.018260151809836176,0.023431825418052273,-0.0291959606569827,0.026604397764326344,-0.03257135272726502,-0.029794118456014623,-0.022312216564428045,0.033844788532999534,-0.031061112863629045,-0.006430054868626026,-0.014889525520501302,0.009552944567851019,-0.006038020713110997,-0.006766744271951656,0.01157078047655189,-0.0038354250896357575,-0.021414387029284592,-0.0056365255981698816,0.034387878793588234,0.005817515381859808,-0.027586568529071695,-0.03062288330514848,0.0223210889409139,0.01628262207706459,-0.027306770246683897,0.02661668893029497],[0.005114026289896437,-0.003210625888481066,0.01022680314483471,-0.030817868195988158,0.024671659869284494,-0.01889662105922215,0.03311167066445584,0.013027174908370293,0.005880381602555913,0.0051722141470414386,-0.013401040922093599,-0.028043888421669293,-0.020416820324639658,-0.0027200050794741657,-0.030507230134151603,0.0015201122309218933,-0.03211437337909649,-0.0044838314977404155,-0.016129040064770797,0.027937591155997588,-0.005022085987893814,0.030438269449598584,-0.007165140753440192,0.0010469504006063975,0.034638017557691456,-0.02957806129827056,0.03489587456907123,0.024870271887563748,0.005182614536284676,-0.02596249070442477,-0.022181128071553532,-0.006830891852287344,-0.03552066477909492,0.03267951767555019,0.00022477393930571643,-0.02172556434565336,0.001837779311818818,-0.02495725408144895,-0.033856209674323935,0.022821977673432314,0.017181052544017406,-0.01224215338432091,-0.01961699698751197,0.018041702329176793,-0.02896504281282,-0.010304482727126228,0.010974092952733125,-0.019359956202544572,0.009741025129264263,-0.0233230394501734,-0.019587421391767054,0.0017111617580807359,-0.0008222241683651746,-0.021841944425797757,-0.010368855222582898,-0.007751884674229108,0.02863989479519774,-0.016315691467395144,0.0193493319881558,-0.035265465899134665,0.02717169548077462,0.006963645803265,0.034539518664606125,0.010566986048320341,0.002350987566923934,0.014739503019716407,0.023465565511178555,0.012156243489247777,0.021866239137125647,-0.021953865361560684,-0.006224714343630477,-0.03456255175052607,0.034106994953958254,-0.010222553891202524,0.020633266139809665,0.002036786520269067,0.006438840590382459,-0.000027817242204242615,0.0060317388445445905,-0.017340584871007488,-0.017562018589556264,0.023199312923987553,-0.03444212912176249,0.000164163989570072,-0.01726641138668581,0.031653608117126496,0.01775931620559869,0.007882830355831419,0.01802552140047386,-0.030070609925360682,-0.025423888152691435,-0.02849057056054098,-0.028251120848756642,0.012783738631341489,0.027761360036153322,-0.028308385027061414,-0.028821427555804528,0.014220314231852379,0.021343330052134835,0.0010128255262747416],[0.030864357400074337,0.012018762255427206,-0.028045715731982692,-0.018631329962724427,0.004124346231913555,0.003495672247984334,-0.017057804629699514,0.007464235764659768,0.032169890682278705,0.015399322771343836,-0.028011304613224538,0.02107529941243382,0.0050167492836407784,0.02426820097315403,0.023268492137850566,0.03483252499777884,0.017200844921159916,0.007285433743281677,0.028554374201968533,-0.014414656325721037,0.0021353613532836277,-0.026201389653283537,0.035618909057955145,-0.005168739087158953,-0.0047480734844972975,-0.032110516423612456,0.03504893211997193,0.00996737352878934,-0.028594369747301975,-0.027163335711099433,-0.017957754218199846,-0.013666004722041157,-0.004635491374130411,0.009796732968449741,-0.030031627670873393,0.03183166350557146,0.0031040498162730034,-0.009802116304031841,0.0020052355201504238,-0.023502929160697916,0.0323884817139732,-0.012464289132835723,-0.022969254329672232,-0.014808323362140325,-0.029532823685096014,0.00540456396099278,0.022749565508474515,0.010179897926459893,-0.006806207716571449,0.013137509933424404,-0.02288321510698998,-0.00264754214170376,-0.029321258886893888,0.00021659635130508203,-0.019306363265963546,0.009055546166011858,-0.023109910894919126,0.004548690982057485,-0.024409470842958282,-0.00996715884760736,0.000028894039153474135,0.03505497243657816,0.02963343509769943,-0.00466382945088051,-0.03507774683492757,0.02075631157493506,0.020102276333649714,0.0017831061333861966,0.005154926556366007,-0.03314269509132971,0.02672796072900038,0.023124492041868155,-0.03072935640518067,-0.00040970858065332463,0.002132685867578764,-0.032476218096202464,-0.025021105376342237,-0.02398939138155936,0.012063864082759185,-0.01951962294013663,-0.02909431584308888,0.024157990444446976,0.013082607245232048,-0.007150105281493904,-0.03428547417255184,0.03320805820618932,0.008872596419013081,-0.026906113970949937,-0.011808867178869786,-0.0009532753082014493,0.023069435733783457,-0.022506373700302576,0.010546292003368773,-0.02685931493144969,0.0177765319845175,-0.008198420306111166,0.011826049744482824,-0.007417735614870066,-0.0110006175387393,-0.006418489184462592],[0.0068033619360151655,-0.03390347747325582,-0.020064658697243665,-0.020871902462777942,0.026705694451386184,-0.0193533218975317,0.003469316216496373,-0.022358776456123775,-0.024649701970913103,0.024869094595954908,0.007871507782421298,-0.017214171769550042,0.012175574995804208,0.01087903712788559,0.029265080805233743,0.01143935875190562,0.008521218980808027,0.02008612643239429,-0.003903468300988866,-0.004776943660241453,0.012169660380312176,-0.031880964014245575,0.02511958943223577,0.0355288954630575,0.014076426393531698,-0.019361991455079247,-0.023501816473698568,0.009190803249775293,0.008871118933026924,-0.016713189421078942,0.0229483418947373,-0.026251994848461746,0.004820670230430448,0.02877179385516639,0.02088349582348934,0.029147433345956084,0.01806071591141496,0.008413829868398873,0.03474066273657028,0.021749561448780777,-0.0196314691343009,0.027656385803779087,-0.018879509018418887,0.03326162930973853,0.027448728042320885,0.009602765855270297,-0.02150113139070614,-0.013127828712154262,-0.0006352247397445681,-0.03331108944387266,-0.010402794480464364,-0.004888133465756596,-0.024548609026830814,0.02650237603125442,-0.002852897142085415,-0.0035468112849287056,-0.022437809881807717,-0.02497798670059465,-0.03489491089626508,-0.0060709306889975305,0.012137267366233285,0.02758878145491531,-0.02589930514649205,-0.03269407679180505,0.018394219227336694,-0.03235827518944795,-0.032057914861186275,0.021119870260713054,0.005325777096410794,0.020161014950333747,-0.024446760602681916,0.013931841371267396,0.028884384580830886,0.018230436146995422,-0.009036352095194832,0.017902728770707716,-0.0151436259319817,-0.020779611552128537,0.007993227751722533,-0.015414214791909327,0.017827343231864565,-0.034572458934699776,-0.030286647527212128,-0.005011073142923084,-0.020585042019939354,-0.02332496108972309,-0.030075214368297958,-0.023059798037493827,-0.021784877343589623,0.013849622187404195,-0.030988985084129776,0.01285985998342916,0.03502741452826863,0.025613500757723624,0.028679367590567977,-0.015303033696365787,0.005674484246322081,-0.0031704534026601667,-0.03458602973819914,0.023194400699998015],[0.00356113256566488,-0.035704275039614444,-0.0014685412087756965,-0.03373219231485029,0.0008750476369981382,0.0197056316900446,-0.018100615036502475,-0.03006673613583991,0.017742670516926774,-0.006039614644699466,0.02055902858382386,0.03381314472583055,0.00928865497100004,-0.035057913937772245,-0.008204575513750244,-0.009701291552875751,-0.00895628459454118,0.01700969548137344,-0.033605995072045224,0.026377099943271243,-0.027522326825339102,0.016644869322579258,-0.017442927328388487,0.01420603145527047,0.032976464005915584,0.01593441523239927,0.006476117749441651,0.028199009035114832,-0.01885250965212613,-0.03418189140870014,0.017498736226700368,0.008379856658560246,0.010716441952857465,0.022227453888965694,0.030430950815766696,0.016507907179549936,0.024703839174739013,-0.02466136742409582,-0.008846170450008349,-0.029744458800079067,0.0025782427198726586,0.01690810860626172,-0.01395609777599652,-0.006854142177942704,0.025391357429611912,-0.028387951196826935,-0.02615210591376081,-0.015819012220131955,0.03265221953336664,0.01418910447494481,0.02177582397774919,-0.022599469074538792,0.002653419494971541,0.01850671066808532,-0.02515140465705475,-0.010183519182872528,-0.020059055055759008,-0.0173379770253639,0.0028921477575692034,-0.0029193676354514844,0.0060103045544665,0.014800172105086598,0.03467557990365241,0.023563932229919093,-0.013917183724510602,0.013539807472798116,-0.00026077752567544573,-0.027799377212836297,0.03410052443683781,0.013297730562466964,0.022089789451071165,0.007849488790309583,-0.012232201837120349,0.027718082924627543,0.025249486101508685,0.015018184549352461,-0.010982087093306541,-0.003254940733034766,0.019462776061419725,0.03348985708868743,-0.013925032604221552,-0.005112838811137527,-0.035260806655167856,-0.0219359870029782,-0.003040968228222265,-0.03550545447543945,0.0076917353923171145,-0.03443101191758029,-0.015006637172932042,-0.01239600703374544,0.016269209397480763,0.012211695540666884,0.018261052179114307,0.018455045211582654,-0.008771178070907779,-0.027699788421986907,0.021711515243065055,0.0013190488080633358,-0.028258882596909986,-0.0014807670122023752],[-0.008993242255790464,-0.032538712835822534,-0.0303900372315355,-0.002799961652469237,0.02814487853777283,-0.007526908845578049,-0.02884326417302931,-0.018969892388014175,0.022170030757049913,-0.02382049583897844,0.002011289132093838,0.025475354865866662,0.013760225323657057,-0.0006034530679371236,-0.00942979707101636,0.007137751057329307,0.02544462707338109,0.011404964804838234,0.010232322810148974,-0.015668812386425642,-0.026303329681918727,0.032625972175582774,-0.02784125486738375,-0.01901800532854005,-0.02901253068306506,-0.010798306732262316,0.020848852998226957,0.029275395472178146,0.028412575545071667,0.02939427129268443,-0.02021328882954796,-0.01265219645642909,-0.011734610464200445,-0.03519064881381111,0.01873236795823229,0.005564900737649815,-0.03427031582417144,-0.0044029588248813535,-0.000699697332867316,-0.0022338214986240435,0.0065461128194194695,-0.012797109926953154,-0.01280250831936232,-0.01514091483607156,-0.03045715877950779,-0.03294161581375682,0.003286433124053165,0.03436025804564252,-0.019650060209021644,0.021817416181685003,0.02417080434234339,0.009660018430121878,0.004292999030539534,0.023397209433382356,-0.03232665192629382,0.024838286452707973,-0.022906430443736237,0.019078007745471023,-0.007384696305278933,0.025860091712032806,0.011294777435185123,-0.025053365480120916,0.025491120519983354,-0.01187912110356437,-0.01770734520464041,-0.02643766748788119,0.03405690195495211,0.021722381674194918,-0.0008841715296495273,-0.01973916766017175,0.002561946538451186,-0.023415729421060176,0.006435282064323358,0.019396478829729776,0.030991226702075513,0.015309121316818745,-0.012592445346589827,-0.00912940964228946,-0.03358561279759374,0.014811227550638824,-0.029740148196454465,-0.017540873959179797,-0.034404623065948305,0.027338603066934697,0.015954322678770737,-0.0004843138554002227,-0.024175435112936242,0.012838899303080485,0.0319537725162301,-0.013993159941286916,-0.021281596014546385,-0.025956736859477133,0.03438561464607661,-0.024671594320567525,0.023474417628677344,0.02307571985702108,0.0234241614379208,0.01947385926262317,-0.012044054168882629,0.02995191964151356],[0.0005203142713786329,-0.01354074125607716,-0.02899525149875318,-0.029223363982588058,-0.014755693116501241,0.01621971480701533,-0.03491882574783658,0.014920370128516729,-0.02214345666611568,-0.0026548892156687425,-0.03523145980052312,0.03056801693807851,-0.03568137789538178,-0.011524069990376373,-0.008309150037223226,0.018382990524023892,-0.007028605293331997,0.027767895547339775,0.013812372151315611,-0.025939360371453786,-0.013859365419170676,-0.004106155115562915,-0.002060073642983885,-0.0071664397475280465,-0.01126049955327952,0.004064634153448594,0.012612209129543462,0.01945851927879516,0.02179361790611742,-0.0010719155907524358,0.015594612480727622,-0.02391734392674188,-0.01806126485826099,0.024644613677754713,0.018991724197034536,-0.033260750409276556,-0.029497489663010506,-0.03496099117703501,0.019085743214250484,-0.026975937439765636,-0.025538017916195584,-0.01185559203579631,0.013863857194921884,-0.019675212326036796,0.0063625771350670724,0.002859687916622385,-0.01107566573217929,0.011427368318391137,-0.021600639964169357,-0.020133382810984448,0.020358042109527186,-0.0030528676625111726,-0.03166992656222666,-0.0017603624136535532,-0.0101899686098089,0.03319580106541774,0.009319528578838705,-0.008288334783641087,0.005556285188768297,-0.02527966381195938,-0.03073485995916343,-0.0027962257539602187,-0.02011490739572915,0.019079091802452767,0.024322180857166573,0.023827363084605153,-0.02879488686147194,0.03048405395278329,0.02539884271755422,0.014069427763505721,0.009493446223721284,-0.02448857175980023,0.018930880369718316,-0.018939579917106403,0.0016127190271095443,0.006907229188604614,0.035288798832948456,0.03139826708293327,0.017672538260853982,0.0033558358818948112,-0.03542535270955499,-0.018454735755557308,0.011429506013230251,-0.007577154879857063,0.029030488205470294,0.029926191585459002,0.028465095572404325,-0.020630435892005344,0.03512077274096203,0.011166185590374888,-0.006967722467404202,-0.028478055187572026,-0.0030701370542448193,0.022972968630114787,0.016329726495135203,-0.0019490694775163876,0.033556737734938356,0.008434290994376316,-0.005481807122777553,-0.013209302738206398],[0.01700278055253815,-0.02784774076526202,0.021342023757404023,-0.018561295695049135,-0.02309933604122185,0.003892271153935787,-0.02615534420665131,-0.024159901637040963,-0.0221229334119683,0.031282087782259084,-0.012493711148824926,0.01534163795189878,-0.028552385053384872,-0.01272944516227289,0.028151937624652786,-0.0024734111733647752,0.0006091584202604356,-0.004898014335130629,-0.01619973764022129,-0.003862466097624716,0.03393543474846126,0.0006496988639709942,-0.003340530296107567,0.028177447042799383,-0.03548972770925167,-0.03422705473582237,-0.019412562782688773,0.012408399872960127,0.020974824177271565,-0.008059241395153047,-0.03016665080354279,0.005390372822160422,0.00800732789151057,0.010497947252769852,-0.03315137810457094,0.02188291248160308,0.0242341774190342,-0.008086710101311553,0.029442997348733846,0.0077134286459688214,0.015371772630657954,-0.02755941598669925,-0.014229033040819681,0.028211497420291873,0.013056450662153017,0.003523447407848842,0.0029741205971337884,0.027193307456632006,0.03174133936995781,-0.011848910413817991,0.03247393873434875,-0.0235184524415944,-0.021733406342336416,-0.00890744249229347,0.004089255816778911,-0.001974749936452235,-0.03027523758278196,0.014019865719253677,0.028552616370283147,-0.022862139550869704,-0.025714994702086193,0.022339761522788736,-0.022036884203018216,0.03269827279507403,-0.003689913827198446,-0.025509560743331165,-0.012953889485776667,0.0124398165759079,0.016909693187153334,-0.0320093855295517,0.025839820828795382,0.018724624904071726,0.013969609773234727,0.010136870731541573,0.029390109136859483,-0.022461985971596328,0.004629546481489339,0.01897497153338358,0.018254086275122535,0.01029778038843375,0.02121468266489639,0.027563432030609906,0.010180899447525484,0.0012761109242334506,-0.01860828795914627,-0.012188188516891343,0.006274105082241753,-0.012619104801747332,0.023414194462965627,0.03206974170177103,-0.013811719675021483,-0.03438834204684974,0.011996925321580629,0.0019469175573235918,-0.03239555211777157,0.007658585627764862,-0.0003545317614629542,0.009771846342030396,-0.029862986634924777,0.0022404766563110397],[-0.02456977653734708,-0.02589513244434406,0.021197623106417384,0.022098435226093418,0.03483779474220294,-0.01131082123355154,0.017011179778678553,0.0286854061303727,-0.011393012310896084,0.024161024806059205,0.02533473846314417,-0.01828089676361603,-0.02904911469075394,0.019239189319276935,-0.015371871564916244,-0.0003109430978155989,0.01567858447580014,-0.033007913855033155,-0.015106719293076951,-0.03401405511269268,0.019886270896490973,-0.015935449424740015,-0.02104227507016084,-0.02154382765615754,-0.02230263400597459,-0.013713161456682593,0.027811708349170138,-0.034284394208326636,0.026925051898510848,0.0018436436748746668,0.031548647441969106,-0.00010035544230889707,-0.022882791637977188,0.02554898770903932,-0.021778205017502224,0.022815500791074323,0.014751194625063772,0.003861966025597044,-0.03311983602595653,0.03250490295724609,-0.005833881771032463,0.024689052524110102,-0.018786247861204586,-0.02538511969229491,0.009469693262666619,0.003425426534613459,0.030710940921355522,-0.006943128831086644,0.01794119150052442,-0.03324771126803175,-0.0023167139944731494,-0.0009538814451629465,-0.030158806894494353,-0.0033301776435163853,-0.027417623233632515,-0.010809001812299851,-0.0014206851218319474,-0.020098282876080866,0.032771442238648724,-0.02846250960575338,0.02641024080536634,-0.013396964024837994,-0.026575835472952853,-0.0076953793385959104,-0.034038599358822,0.0243407533970707,0.002314688680354891,-0.005056954092697835,-0.017732009813180717,-0.017095619515784716,0.002339923924911842,-0.02840753055051663,-0.013671619871065854,-0.012713105618159321,0.01780129413309786,0.010843093521634995,0.02963641782781221,0.025869431521169352,-0.03101196623087308,-0.027043746710608135,-0.01058327685047566,-0.027209693488310205,0.026788289722151113,-0.0195981158779974,-0.020030850089016696,-0.0327921572726552,-0.0004185662683010704,0.02187044328880946,-0.005601464204883156,-0.015010322583568273,0.0029851029441736324,-0.007365412667389246,-0.013720795102629526,-0.020690183740344228,-0.0171233834220219,-0.023416565885282747,-0.00798796706947097,0.016596917572160936,0.009876758459724591,-0.02730734478777888],[-0.03339861072798822,0.019425588914861965,-0.03505589235835558,-0.03522343597495992,0.0001704263130794152,0.030694060292094736,0.031206298198901482,-0.02139988391015702,-0.015353610613017894,-0.0020717988398278103,0.029675169893470608,-0.0018986119445989996,-0.0327555024603072,0.028209274424212793,-9.572079229958683e-7,0.027623587027024554,0.0308734841668814,-0.018620963739554755,0.01831059370781618,0.021741750480098663,0.03018026889572875,0.010196563884574269,-0.00320427219274228,-0.01353017211243703,0.02634307620940134,-0.026212484408231037,-0.01361903410501897,0.0004469092028056158,-0.03072673633017714,-0.032878767657568836,-0.015363079662650119,0.0029588401306424508,0.0056582756536422965,0.03417575114536362,0.01592815663643074,-0.005980656064417502,-0.02939809667664849,-0.00018486792111936984,0.010386346517300587,-0.013714563749544387,-0.004590367117236631,0.016581088207280728,0.016095713423768043,-0.015575505773117742,0.01665788474114962,0.023130460897125567,-0.009342086745764958,0.01914254848603,0.01735628705644359,-0.027192019421181424,0.008309494366508132,0.025245688443344627,-0.01397821068082752,-0.00989682215382001,0.03262696318230294,0.011621120288304908,-0.002990323124863605,0.0003993401896803554,0.022256273943197773,-0.02061114253148261,0.016070733671555457,0.027799166502718884,-0.02333478546187331,0.023363216512622683,0.02111827326068933,-0.021419422359768597,0.027219700583145247,-0.027650946628189284,0.01608537961639885,0.014352594088751912,-0.013230316168639848,0.025015953877113594,0.03011515439482596,0.005737316545745846,-0.0036802312307304998,-0.033421926971667494,0.018612236768134453,0.024441768043450458,-0.010217780696888062,-0.022472966061456472,0.008378237132932759,0.022077912343992243,0.012710074967268918,-0.004512167170538721,0.001035697343768241,-0.020217667871233018,-0.01937589303779709,0.03321340799062983,-0.020026788537079263,0.010867834410175423,-0.019991043488387716,0.033135284380189686,0.03242523297718896,-0.023686084086396813,-0.00008813367736166255,0.00158664544080134,0.03454559034657809,-0.03499326218028891,-0.032546070394825384,-0.02167597249934846],[-0.007620944119310601,-0.001781133571885144,-0.017327584165627692,0.023793191679752038,-0.012869413431533385,0.020293216930675206,0.029040110892306487,0.03503632584890441,0.028600884425668185,0.0012603004297820004,-0.014571575141183513,-0.018427567373113497,-0.020064363651386228,-0.033539615270614054,0.002766777693413049,-0.025670590967619703,0.021195857201490125,0.03515360805114385,0.028480325427921435,0.022813913515722355,-0.005804086856383282,0.01617146193949861,0.03082939157903062,0.017306413728149464,-0.005550048694583611,0.0027293243326355814,0.003227144795870732,-0.030950917419809126,-0.01748947887507085,0.01982273603896988,0.010827333829115,0.0009258971206963717,0.023623700395107815,-0.007157670193928214,0.027411764269088344,-0.02578793959417028,0.024246121876981046,-0.0030401575075034394,-0.014534637773304025,0.007506881924347718,0.030409264818775414,0.02948159068961514,-0.03379946913466091,-0.012930658901358291,0.020833606394863,-0.012501499145179274,0.02002980506668025,0.030853435430067418,-0.024646921991196388,-0.011421774191102324,0.013872311007057296,-0.02585826761014869,0.02926135687771358,0.016794602608772243,-0.020533126655898036,-0.025422877148572578,-0.01979868776993576,0.03398159501074686,-0.0239239414828178,0.021138159579487177,-0.018567970760486094,-0.030474816757656654,0.0014307812145419785,0.011406653272231447,-0.005790091588863696,0.03332766800407386,0.024694591186752598,0.01966984699259301,0.006137282592340081,-0.011062165504877017,0.004094639607204962,0.014773874707197607,0.014808363912904002,-0.033158820110682594,0.034609885460397484,-0.0174594790392045,0.003310795410935706,0.03215246428297396,-0.025877570977212317,-0.028904873947680265,-0.020849401507631718,-0.005888582847322918,-0.0051538108314630815,-0.035638418481713875,0.0038008226433852337,-0.02611263960703804,0.019867148792034932,0.00714375945251432,0.03417807316421073,-0.010638154992143503,-0.010341525482655597,-0.020759720222809235,0.023783322977794192,-0.035304746350085195,0.03232872468364885,0.022938858757146213,-0.008746182646420287,0.014757591308768627,0.0241653888269797,0.0033875155807628313],[0.02881387889550832,-0.009291364099109342,-0.0033275751295321985,0.003381281405155652,0.010133725271319508,-0.008563963313428569,0.035307139580834375,0.03344466057685284,0.009794137681870908,0.028715557484373957,-0.0145951836537533,-0.0003281581935706922,-0.03192500850817285,0.019224876546277865,0.02925417716112254,-0.030816472724263095,0.03547692865111728,-0.003973401625793969,0.007695346371085464,0.023742939931513128,-0.013894660696262358,-0.0018076127367091235,0.004249851001627045,-0.019663515410228215,-0.014026533130863439,-0.03535065408783486,0.008598017734289797,-0.02246084257008134,0.0002339322799821506,-0.03356311519195211,-0.01139057950313582,0.027183957986079834,-0.0211537850004861,-0.031451940204610986,0.035439731499207594,0.014321396086647446,0.006178813598083289,-0.032437361035762,0.0025247539723334935,0.008026840630728166,0.023325261010428158,-0.02279144528080454,-0.019083362966426154,-0.016847855463671593,-0.004855341184799827,-0.0013750781528858854,0.015987604131933744,0.007288136643945861,0.01715251486501768,-0.006809424231694521,0.010864693581389693,-0.001860218319149579,-0.009776402792025175,-0.0038112752070030243,0.0007165768573952591,-0.021575007850594154,0.001615781580423378,-0.029504021327173887,0.034678428258651944,-0.02115194305348746,-0.0030530908575835177,-0.02096651099354841,-0.026250661155834246,0.004701313818708091,0.0008419237968987234,0.01728119512765201,-0.023289889223442904,-0.023987589086054,0.023073129232185123,-0.002980708134529721,-0.0006960210839757039,0.012417688533580083,0.008848289685196077,0.02172244898219753,0.006142247900954841,-0.019224049933246008,-0.0015090148434899182,-0.003402557635630149,-0.022621639327010206,0.0024066117116782774,-0.019450537903941335,0.02038326453258596,0.01592912245543586,-0.018867918933306,-0.01092627638490987,0.032351612358733295,-0.020410412836359578,0.03217596109379812,-0.0023172337429513703,-0.0032009119271410834,-0.010609361677747191,0.030510552883877533,-0.019723698660465958,-0.008227945104199585,0.012745379746461746,0.010575621215687864,0.0141860117871612,0.005452883411715437,0.004039382927626618,0.02302799965179521],[-0.004361998636514548,0.01726419766805343,-0.028776406613222564,0.005114814551823147,0.005744258916933178,-0.034568252808021595,-0.031201641316542447,0.029886439145082856,0.03284596271829219,-0.014440629496649881,0.021741097190737683,0.03319762833637457,-0.025859541834943284,-0.0034862061923947663,0.015933622824192993,0.010125323180075071,-0.006169505841381284,-0.013225503882559253,0.005330811320822571,-0.0074318850747615225,-0.016273863293716256,0.00629920860756206,-0.004498446283056597,-0.0068867311254739464,-0.00202609529031016,-0.02694862809439613,0.023082944134040943,-0.022139579145093225,0.035204858799375224,0.006488841051547266,-0.010145341272006985,0.019900186121252317,-0.022330374963714133,0.035685541055287096,0.03197501913931143,-0.02055385804941397,-0.014398852547082475,0.025107518659332476,-0.024573429094537254,-0.0267099878487593,0.029600380511214948,0.024993511329096364,-0.005845053382922938,0.03499886228264949,-0.029457726676707166,0.021750297575197634,0.019566615493936287,-0.02089319271113591,-0.012308757545798325,-0.03410717349470278,-0.026483807793125026,0.03260817344691223,0.02283310461258403,0.033142141227832864,0.021230094060075436,0.01074986619545347,-0.010071811260441432,-0.012780721785021688,-0.008659652623775452,0.02793621843561481,0.02924899498439854,0.010804607686319776,0.025993343854495154,0.020733804712003177,0.027321383236560377,0.005252395083767615,-0.02740825038452734,0.013552237693012498,0.008485891244427363,0.019564715253339603,0.0005799216289759947,-0.025942995911767595,0.03441265687336149,-0.02721531728182887,0.007557688512970084,-0.009885873456091444,-0.0062722178527645734,0.016398705737498614,-0.0012047567336787679,0.02693060354508101,-0.03224452952024841,0.03178856743960112,0.00527849464374532,0.012554499927206949,0.02625449437831166,-0.02313933611064708,-0.0020481781849989483,-0.00915090329397092,-0.023855900804400452,0.02941388204706617,0.0036710483481532242,0.015005927595406535,-0.008016739703094203,0.03046769213041009,0.005587493430124259,0.022639779734887084,-0.024904925647458224,-0.027260973347947318,-0.03093080806816613,-0.015263737473023642],[-0.022686346886084043,-0.007266611809117822,0.023996428926769238,-0.020556954439721508,0.0285734804936263,0.010439884244757017,0.001815569825445846,0.0005315041680868244,-0.0040005180886419104,-0.02806112879293162,0.025681482926611342,-0.014616088301880043,-0.03127208873831543,0.003064789340877256,0.024816980362667745,-0.014277429738561704,0.014032153072297163,0.0029089915222934035,-0.03350626631503743,-0.006742818426724278,0.027802198046229604,0.005099174369790423,0.017671866669808075,-0.02143316338706116,0.010685773681086287,-0.018230774457405213,0.01254387862283881,0.015568051795102645,-0.031398423167590825,0.010775614968852272,-0.0027574335266176194,0.009926186869993497,-0.0036832739130563726,0.007844647358080735,-0.03466763870916627,-0.03036638477140159,-0.0009194669009715765,0.031937521808233574,-0.010889200861833315,0.003928261694437412,0.02772276562117825,0.0018511825653151708,0.03436884079290808,0.013683033430180966,-0.011583711498208983,-0.025928758440343196,-0.013682726677698553,-0.011233989394868634,0.0328725318405892,0.03399796170344046,0.019559427420961895,0.021746898984934215,0.00839579025140281,0.009159991039059553,-0.001442470660565716,-0.007864117221510026,0.012893561518740443,-0.019377975331865985,-0.02570180069671517,-0.000532074255505056,0.00617921324334158,-0.02169874903332564,-0.003946191056739303,-0.017110981302063278,-0.006664627791662182,-0.02345359356193563,0.01914784588146894,-0.013915657861828747,-0.014840422646901028,0.006828450485737546,0.009243720350527259,0.0277642738439266,0.021338389691037275,-0.028505482127735255,0.01308745174025094,0.00829394830512093,-0.028834149986550203,-0.031113484583203052,-0.009328447298399526,-0.03562465848848648,-0.011100109699121747,-0.0021797475189297174,-0.013342981500944826,0.0015912074366048019,-0.02145640676364909,0.028313007726605683,0.003517620653483646,0.013720943913281807,-0.009959058451890986,0.025513109544811466,0.019517758444474117,-0.019260242314772445,-0.0030833880666443114,0.02025243978794348,-0.008147798819962946,0.0016390995184964014,0.01545010885782124,-0.008436653898940187,0.03014111886649958,-0.031045360254724593],[0.019849192572135063,-0.02705134100368106,-0.005148809103416283,0.009705804118067174,-0.014388585595128544,-0.02624342960384372,0.006982034768410991,-0.015573176104574883,0.025793215394341953,-0.01961208719434231,0.0015113493783349271,0.002694469280399231,-0.015452300366807906,-0.014427525448720627,0.0080465872008449,0.011442547627119973,0.02982123111877691,-0.00946882655742738,-0.010816334064821428,-0.0038813393480805355,-0.02143722447384146,0.0010088929943567857,0.016571684703964005,0.017457599537312275,-0.0220084116674962,-0.02076873152284495,0.004776138428066278,0.02085253005102409,-0.008938273342258742,-0.00000405307645159299,0.014000316616907973,0.0003648434152522622,-0.010773592771472575,0.0030532496004164163,-0.013012883115740887,-0.02203118742550537,0.021308151145292564,0.032992605556233554,-0.026937692819838228,0.014099895804667998,0.0011817776154042434,0.031305157860840295,-0.02588415196566812,0.009929753890618525,-0.013907296219686014,0.014488429492131867,-0.027652078279166954,-0.009138542745100927,0.0037740134203876814,-0.009403542001597499,-0.02081290596283321,0.00856285014341428,-0.007425243312891525,-0.013134001617695268,-0.004521912436049231,0.02220130906517504,-0.031131557596493855,-0.013553984527541757,0.019890681350671673,0.02498544270438759,0.013122979886486183,0.01852203740586623,-0.00450707652725056,0.01737557783560033,0.024601325151561375,0.021518048478176257,-0.026626323949757384,-0.0074287616588120916,-0.015687093056398118,0.0059067929483871545,0.019112026340250814,-0.024011573509646784,0.020923231279942677,0.011889575023835497,-0.03389330025347591,-0.020409067828430067,0.027936533345971355,0.016750077348451867,-0.00393474628165209,-0.012823595673675635,-0.009436475246538813,0.012136882777309064,0.014521554096936132,-0.02499047798237698,-0.03295073121480779,0.008871721749444943,-0.02782245942298293,-0.011087221878859018,-0.032316955470242055,0.01706914584335763,-0.011030760691903455,-0.0020155032405088373,0.015013894116913338,0.029708400186391586,-0.02495940204439837,-0.02813852456515157,-0.017957917784048094,-0.03558715844242455,-0.01575040312782412,0.010945250526218621],[-0.01701818011367344,0.035249273079436455,0.020492763411751887,0.029557251238726413,0.008184922356248297,-0.011161881834811234,0.01645634878347121,-0.03334797154475972,0.033115438490881964,0.03113450114988052,-0.0022348264724369083,-0.021969050442893878,0.012298665323189729,0.016295766993952552,0.00024415169847546937,0.02276109761788451,-0.022270256194533742,0.002994116471773711,0.033001444629517714,0.007853157131172194,-0.03369532141169618,-0.005324557099528869,-0.0017601831119784417,0.03354742148238948,-0.023872275890860727,0.005830764716517345,0.02641678061242875,0.02736304511045555,0.025816812978717695,0.010796987609523337,0.007735136178064446,-0.02961574641116296,-0.024848479651653297,-0.008773323979400524,-0.011987722718541326,-0.010253876352326143,-0.010057720409795332,0.027404277357665575,0.012604220415835742,-0.008353360265229247,-0.02971028158391747,0.013368226091285067,0.021924509419265235,0.009301392528398024,0.03370523795743119,0.001546323067902951,0.030670279326608978,-0.02309211322087586,-0.035552503822414885,0.022893515401531832,0.02649897450095423,0.03454989776432558,-0.010951785660666737,-0.013870321596212154,0.004980365403555524,-0.03094687585197919,-0.009646357920938074,0.00565207372275197,0.010963490891842788,0.007871910456429878,0.01667689693130014,0.0037876932248177625,-0.020259194894205516,0.024088107888693717,-0.0045652608224054265,0.03529328870902343,0.016758580027090773,0.035401982912358354,-0.005255903350673243,-0.01814139244031384,0.011920739877062879,0.0008379641790591693,0.0347637186648431,-0.011459347616287344,-0.022695557901666753,0.0356436674762267,0.010506850468454253,0.014918513198953645,-0.0035814561347954593,-0.017024523566190768,0.03298764853466827,-0.03403557338314753,-0.03381410408047423,-0.009840467160265133,-0.02285080843199317,0.023246596177232307,0.012212011217043737,0.026020025401347742,0.0027304790738976632,-0.019900284295648187,-0.01724073417900385,-0.03244165808439729,0.02754804094198945,-0.020591200786391043,-0.019434036228379355,-0.013767042945120586,0.025768361491853412,0.0006481922228948149,0.003309302349217675,-0.01625995588032426],[0.035631865081275,-0.012616437192555702,0.017585092048043382,0.009024516598219212,0.023373957747971845,-0.024129782784620774,-0.027059853447588246,-0.008075984547922006,0.021670685368837008,-0.0090580830652218,-0.024202517870585596,-0.009588072750138146,0.022563159201848367,-0.008867817376104436,-0.030695298492661317,0.018891509467599554,0.005607824839182563,0.029874739554909033,0.03198749480314308,-0.013379224235996048,-0.03152769377449694,0.01873884686570652,0.01313758621703222,0.009466952669672105,0.0151666423403768,0.012471553438882597,0.029392041294527962,-0.003459409844295813,-0.01030704815646384,0.026071729815165777,0.03383625124521094,-0.02230377593453507,-0.009308838806322871,0.02000997989355461,-0.02865792022881649,-0.031042634350872362,-0.0096131858435861,-0.020223724116075727,-0.030944852442947635,0.027795295877049802,-0.025813623056906074,-0.011865960037483577,0.009623403260693204,-0.031472950225313615,-0.03375188227597105,-0.01312349033382289,-0.031568118066980184,-0.024321102995748547,-0.02328020126104045,0.01641545310940213,-0.030708733449087137,-0.00008103178937515086,0.02265261017338665,-0.02417439988368171,-0.03289631931659661,0.009934615570503666,0.011234868270266997,0.0251276544509106,0.009615919857057266,0.02307281286250835,-0.024681407284683432,-0.032922931797118755,-0.020322380391732116,-0.025889381086244976,-0.024489405945960094,-0.017771344640828954,0.03482743916337055,-0.004121907474544388,-0.009631860069601622,0.01992045539449095,0.006494874494138063,-0.032405800436584385,0.01562038824316724,-0.0185164607569019,-0.0068415820485421205,0.001871741860394608,-0.03192473863029849,0.003281133012561845,-0.020832794930780097,-0.028528404899818918,0.015642632700766636,-0.03202708859204319,-0.014971245650263249,0.022670546490042985,-0.03330222336843498,-0.03008241883068904,-0.025575917565993662,-0.013184479918848734,0.021240529791950527,-0.007016948709064002,-0.031453491380152236,-0.0005734094773850189,0.009072689711217921,-0.013109875724019091,0.027643973135661953,0.001025889391722996,-0.0327013759686251,0.034885184342507244,0.03540898346042988,0.016858208458077353],[0.02553919783004172,-0.0010158665694630893,0.02858918114439984,-0.005264205786357987,-0.012260433527253523,-0.00663353727488642,0.028310977465946508,0.021785909987239376,0.007522283075756515,0.007184779587420705,0.017421513146299836,-0.0013787131440239548,-0.004651645164532508,0.019993950626155308,0.0038915009368817965,-0.02558207097042578,0.01448348095771398,-0.00882373474878886,0.013987672633172533,0.015324298814359776,-0.01708886124192666,-0.009358394580275401,0.011322127832418684,-0.001209133528562498,0.016845512342985307,-0.015124107147566927,0.03506231010664817,0.023489974479538156,0.014547863501660019,0.03107186389877374,0.02029486238612906,-0.012699548623317274,0.03465210458527114,0.016660922281153127,-0.03205791028440526,-0.0016727019468023776,0.019484731582271597,-0.029091035218865257,-0.03402876150920126,0.004483830889990845,-0.0009750550632509736,-0.032958160941842014,-0.006841155148127279,0.018097738881536304,0.02700958341197868,-0.03129973516200922,-0.02290089002963124,0.03447342109782385,-0.0011410424473991742,-0.011623607524250363,-0.03278940652666592,0.006554636222000178,-0.02878867704107139,-0.029415652721260493,0.004058791890680102,0.02237570003578539,-0.03236646033391746,-0.03341996977404486,-0.02585631503268995,-0.019829966729939988,-0.02526788628061105,0.034099054225518996,0.031208892094457166,0.025133792537207295,-0.019447963022429505,-0.03375548142823827,0.013482779604324568,-0.02578272150424715,-0.01057109885836038,0.015010303296219663,0.0072163783532426876,0.02407466997503779,0.013085011798501599,0.012454084817397616,0.00901178339194537,-0.013043285621791115,-0.0061460843440288414,-0.033068270446149836,-0.022622514917984518,0.027078716276452256,0.035615715152657226,0.025615470669482724,-0.02941578382327,-0.015494218090717606,-0.002737313984689391,-0.019206523925172695,0.028972261166222264,0.017442878708985133,-0.0219118001353279,-0.015373027944990023,0.014723198130151728,0.00015189985800082627,-0.030169950414936406,-0.028627424977354883,0.009119767359438247,-0.020518831197630167,-0.02519745121682567,-0.012672350124075357,0.024591753100521013,0.02593704284857023],[0.01631714172074531,0.02503319416400669,0.013905581859359528,-0.012705007687449655,0.019567850194413927,0.006135234913485235,0.028219559657842043,-0.01598057304009101,-0.02959996640915293,0.006620401862061783,-0.035530234860588976,-0.009968504798783326,-0.015720600879951765,-0.022004861917921326,-0.0028098577344972636,0.014559819046984777,0.02557151892100173,-0.027552381770803335,0.0028415386817781866,0.01105957935133746,0.01337165411613584,-0.0064558455085187505,-0.009015731648966838,0.02057736541388503,0.016326508994507858,-0.033444635981338074,0.029540935235309086,-0.004771957140199015,0.02765411528120839,-0.018539826999341515,-0.01012640478051731,-0.012157980761525784,0.03312680987667131,0.001758431186011958,0.017454417926370744,-0.02043167552817493,-0.00995736900784214,-0.0174418523665035,-0.03262333662205754,-0.003362638160000376,0.01859273268512127,-0.022182729084132814,-0.0350990030050331,0.0031589891680763016,0.03429939571568919,0.011452766844542885,-0.018394352581941092,0.01891122333811491,0.00024070293149607315,0.00014248641905623182,0.033083161694458046,-0.008318669072245276,-0.004408220171023718,0.0037088249121560632,0.026320636988690874,0.027920118572455542,0.01780069720349001,0.010045932227517037,-0.017808998765650133,0.006160753254345403,0.005643819263474686,-0.025659706867326375,-0.030440731368552743,-0.03191305563904226,-0.0354178667361932,-0.02284039754606071,0.021898036447822924,0.01254525009078645,-0.031223189147246085,0.004489872573115701,0.027319241434409638,-0.0098954397166068,-0.009356553795815568,-0.028852965138938643,0.035687879100286146,-0.02167134462649214,-0.012495873185062444,0.006104654417696175,-0.03441229835513826,0.03472196559603096,0.025382564725518888,0.013705830499039479,-0.011109651701387736,0.003820160936858968,0.03415656450300457,-0.01578617021539172,-0.017309666691486748,0.034724405134594745,-0.016502351570916025,0.02907409520893471,0.010627524100372964,-0.01138614161305774,-0.02508910025117542,0.008426286808264597,0.03537275257209903,0.026960480133016943,0.0041619915959729345,-0.03173480978914696,-0.014545646538169466,-0.02855294295004021],[0.00012987597719851777,-0.030476098022059365,-0.035175262549251095,-0.032659696218218515,0.027703512820944253,-0.03327208188134253,-0.005855042008187066,0.0013965494638201385,-0.014265223585483086,-0.011548813329789308,0.023356555381279592,-0.02014353240004221,-0.023400346550637923,0.012457017702813888,0.023116510515115846,0.019859610683573073,-0.0015288289339989867,-0.03222912926090148,0.004187067679055255,-0.02865891046261602,-0.035384005845549224,-0.015037883732211037,0.03142416224461376,0.028132052938226793,0.015677740476600525,0.0027701969153258485,-0.0026117444678771117,-0.023180735172004755,-0.025839015646627765,-0.007273708256792807,0.030324934145273923,0.01727093043746367,-0.020709304829523885,0.02422535944066277,0.001226381332843783,-0.030108865467499323,0.024007010533255244,0.023441465595855714,0.027439358577639364,0.01681847380926309,-0.01276297502280277,-0.010228468884197156,0.028840514209781915,0.018677110686996252,-0.006143024754769595,0.014805277149957637,0.01965897912040305,0.008572252248241303,0.029523887970864318,-0.022746520374529365,-0.012759557409224069,0.01184918373625543,-0.008445141390501072,0.030337597937589684,-0.014470195032991873,0.01932913328535836,0.025958300224229368,0.01665218986497878,0.034791197325598246,0.03544800748038612,0.02579182455232134,-0.007859715262660114,0.0333170753475286,0.014925950779544556,0.001986167246530273,0.0006223651623281352,0.01260094902383855,-0.018531864896935354,0.010667707153029433,0.029991869768493877,-0.0058139126442302985,-0.019240967903972145,0.023498203451547985,0.0067096753281214346,0.026094608102703885,-0.006030504967044298,-0.000018608393994335867,0.021363405275369663,0.03184510305509256,0.009910571385695262,-0.011235101836523896,-0.0074621398000644145,-0.0134666073800627,-0.021582565310164396,-0.03245684279510357,-0.02058327971856906,-0.0301394541754664,0.022053468828399966,-0.03340152933503795,-0.026238167675056337,0.0342894116708634,-0.0022123670938132035,-0.008483958970701937,-0.00001234025764336316,0.007969124901691221,-0.02793799411148898,-0.009668455455437722,-0.025495618790821156,-0.001985930465482695,-0.035011093903258426],[-0.02468210425581648,0.0064748754566068085,0.01558024800992043,0.025607038836070184,-0.0025713749731066417,-0.010590689553726674,0.006661478637278435,-0.010084319728391885,-0.01904712525272172,0.018800342701644147,-0.01736771005276339,0.018084563611297167,-0.01628313746216566,-0.022767433648361365,0.020202716683062522,0.014425527524723323,-0.01449503894100024,-0.021439100892130396,-0.0336815496855654,0.025248277139150715,0.03567910547374526,-0.0351305546422845,-0.0007213462149494499,-0.010408871812009222,0.013246164095058372,0.022446544726931996,-0.02633995906096767,0.014057056531741807,0.00870843269421155,0.012460669656995079,0.03488452202762779,-0.0004636872803130651,-0.02749801871472123,0.03753305833019627,0.016575600164330278,0.02588716153437638,-0.025811149724822246,-0.003913572398916555,-0.009759331120127909,-0.00591452507947666,0.014529617652056816,0.028382564898831005,-0.01936873076489881,-0.01069874743323872,0.015521950247777066,-0.006986444193656079,0.013530337184499917,-0.01709747264313886,-0.028757563938385217,0.007235106403802224,0.0037509793936040163,-0.003644236929839645,0.007890526517178538,0.01901553291532185,0.02469040212126106,0.018040195527862884,0.01937604478665772,-0.03299972484071334,-0.015961940550817042,0.008802330310104106,0.036152320504081285,-0.019170178766310997,0.0027592448177607065,0.008298641611706136,0.015782066276396122,-0.0013844616635302041,-0.00720240018331413,-0.004213165685045753,-0.02962160633195054,0.027358625100176632,0.027715713845978616,0.017559266969276337,-0.02401505744025687,0.015241885363722861,0.02330098710264556,-0.01775551169596482,-0.03089706362880605,0.022709591804627872,0.02148674770509911,0.015523955816691994,0.01400730399294341,-0.027748457309234403,-0.026573048044079485,0.028136369017306904,0.03369719438594287,-0.002323968179667384,-0.0352172254799443,0.0013594675235277128,0.020200378608774223,0.019737092600497108,-0.011282104805759044,-0.021688537438068662,0.02786602536917195,0.014804789211811484,0.005983845874677584,-0.03128759045415117,-0.017243778743655496,0.020589042074333142,0.030599666859683922,-0.02834956228773277],[-0.00472398043067845,0.03626039143691593,-0.016214735339272236,-0.007559561137269815,0.027857983622698246,0.019845646990974138,0.011892209271168153,-0.03153811952818345,0.03356991582058951,0.02109074100713092,-0.004612602164996084,-0.030244086773812285,0.0009069623682938809,0.030348129497102104,0.005390425495968811,0.029572756945120772,-0.0027155741547235427,-0.00883649936837269,-0.0009598774057212722,-0.023355544026679286,0.011802710390348952,0.006831032489687552,-0.018795625312310094,0.017483506536704888,0.017014543015201524,-0.018453065170918714,-0.02784853591811535,0.027589069664737172,-0.011283183051456773,-0.026759307363136666,0.01468876401015628,0.02464774590791333,0.018955859260458677,0.035853561605172383,0.022192407460786885,-0.03260592566808654,0.024109418089435883,0.0276926017312908,-0.02410817260453448,0.033624454287695636,0.028222478827268107,-0.010367571904169658,0.020087881764326413,-0.011419293204414269,-0.03698985169535758,-0.012504559487180437,-0.010244091618354777,-0.021716436866423036,-0.0051303337788858325,-0.009038295255117632,-0.017127182350405373,-0.0023204581426709667,-0.004251361082636023,0.03417766342328651,-0.01900220925871468,-0.019749703772439235,-0.017216423126421958,0.00485802095687508,-0.005257266384626578,0.012988928040292547,-0.007404165976932907,-0.00807401859372732,-0.031950519664179805,-0.031090219341039938,-0.029647459992124772,-0.013965826123259731,-0.024008147048203768,0.006072151719528795,-0.007300102209445634,0.0038176861236378632,-0.0026044015498489686,-0.018279321295980838,0.0052593203967200896,0.0250719521819759,-0.006269474914148275,0.03097151667576755,0.029999879831716487,-0.02714751693850633,0.029269812290650777,0.03646836338279369,-0.0030409622558270795,0.009329096994300045,0.02125263070516232,-0.009442225602343595,0.032700949146687024,0.02449784674258061,-0.010494748617826299,-0.028927759508721604,-0.009367408577361116,0.009453282074368163,-0.025477806667209002,0.030821731650316854,0.00798620263824849,-0.0301660810105175,-0.019326663294105484,-0.013052364059773251,0.029886391275226538,-0.015447468778096224,-0.0036923199460913874,-0.022689756246820965],[0.019258619738607544,-0.0093274093409151,-0.03460371749554154,-0.033430462226151314,0.03308925521434312,-0.020795801012247525,0.008907225599250538,0.00866074078095658,-0.012350892321913639,0.008883716677437632,0.04407693503680697,0.03271428761192966,-0.03926008239872001,-0.005255354459073717,0.01951247350297145,-0.010342682715451954,-0.013553753897166327,0.031203418257557448,0.010227602689335548,0.014105749731785943,0.015266585544741392,0.023933445124577585,-0.010875426266484661,0.03179652700072964,0.027750603739035686,0.020481653790881568,0.023430433514650118,-0.014447483890433169,-0.020224687525931928,-0.012017657496760332,0.03356253664019374,0.006180967561247872,-0.03238552648800201,0.024373170789897335,-0.019409308429426734,-0.005956850198007801,0.01045957834773489,0.003326040839401096,0.03436856314101463,-0.003924067140772485,-0.01673500152414594,-0.0012629816952352383,-0.035816536647643005,0.008655745490798096,0.007428194840330143,-0.007350016541417759,0.03874117323870863,0.007291496354672988,0.016648006430766926,-0.020580567044327744,-0.03717003558089462,-0.018544225700223977,-0.014216084843118749,-0.02789151513641605,-0.031934929290766655,0.013382769894763023,-0.02548396350977564,0.008584412854792445,-0.017108094079568058,-0.007621554690304626,-0.02324220692688786,-0.01756927347513116,0.00734219203801623,-0.01860103446569125,-0.018934089769222395,-0.01571908950311674,-0.03459405259510694,0.032971007776170014,0.005581812478101532,-0.0004068308546064943,-0.013694881686865652,0.030510607228030194,-0.019706550694729725,0.0013806795509072696,0.028032034588036513,-0.006280401828653551,-0.023453856924293557,-0.023693077737563514,-0.007011063067937356,0.01693664100685669,-0.015349747924206087,-0.03779961534928452,-0.005199573874067541,-0.00735528136347495,-0.01910509960916255,-0.02826711126616293,0.01922497961273088,-0.03434450635158266,0.010570419083321568,-0.002530517807449496,0.016516920783740383,0.004774482220616409,0.011433061306461887,-0.012914198683481317,-0.015719546250614436,0.008472127351962448,0.045785801167194926,-0.0061235339745359055,-0.03512580506948726,0.03705690073516397],[0.034718109551826484,0.023611496383243728,0.02587832868152989,0.01576754768800683,0.029476507395044853,-0.01874332037892588,0.01911993355656728,-0.0072226245662911906,-0.016436206851797072,-0.024625481588752114,-0.023499528991788064,-0.001817112351050356,0.024414735279474152,0.03024472067069538,0.01711225297968475,0.013516386356715038,0.02103273140782216,0.014343237115049985,-0.02037105094068839,0.004698929583018446,0.019722746950049976,0.007752426213809513,0.022965543757334214,0.018766817100053703,0.02379589204034619,-0.01429346422566943,0.02577222288417017,-0.025879512760290352,-0.005925354833654082,-0.023718485533228334,0.01636557852633236,-0.0026712718608176826,0.019389753726283956,0.017336589808891596,-0.0029223842912252523,0.01309257030504123,0.014408633988485488,0.018569816677467908,-0.013567094844667622,-0.03511694875844763,0.008004433874628536,-0.013022864823312634,-0.03628395916931666,0.029921551374962597,-0.006905128404217207,0.012272223457460327,0.02472206589832618,-0.011161379336338973,-0.0016706883327933498,0.02194901412049922,-0.0056670110236447455,0.0029949404320631107,-0.011384605121850374,0.028126075168085386,-0.022571108828027233,0.014041637162065315,0.021791893311961616,0.012509978675508383,0.008586263577970056,-0.02882690210251222,-0.030336296685508978,-0.02717184165871848,0.028588064822711787,-0.010751999541628853,-0.027041523583476487,0.004051229334956446,-0.022460934707258785,0.010479276978142943,-0.006738287693304406,-0.03203767022595678,-0.012429753844435508,0.015489669413451408,-0.028030778566419945,-0.027516505744224144,-0.0015396707347506812,0.03344061809788906,-0.03014516935292363,-0.026831182401705424,-0.0066417640686668175,-0.02124623139684073,-0.0069593989168270755,-0.017720078761825967,0.034757411640405,-0.009315114583111971,0.03068773534170721,0.0320378771534224,0.025488503466444278,-0.012303214334502616,0.002412923284510052,0.020568179201287076,0.027507974696065758,-0.005215684641398041,-0.03395864686771449,0.0018709544790593948,0.0038522750981965,-0.004099055529260476,-0.007199342184919082,-0.028681585272366122,0.0026676155975994334,-0.00499771724903001],[-0.0022681688841258785,0.026424068928265897,-0.03581867051717382,0.026508937051013478,-0.0245131186651268,0.034946278991705874,-0.0042353409137847265,-0.02372636493361787,0.002534353870048262,-0.03315868504162701,-0.01240081080538236,0.0015924449369895221,0.016553996143024417,-0.031213571101314418,-0.00005240015168718305,0.010228430818165107,0.011463583116268569,-0.03274840222419084,0.004894602222628712,0.03288651228197674,-0.019083663405732317,0.023354483654722615,-0.009590327948210263,-0.028187427173865996,0.001119351723413647,0.008355418507571847,0.00924758691902716,0.023648872496163906,0.01593625699233832,-0.030102922992247694,-0.017826343852316802,-0.02409454292355174,-0.00903369225703211,0.00173263428354301,-0.02684678064489882,-0.03044348358252033,-0.003805432399076249,-0.01797322032232423,-0.01085360200483323,0.018569803784321017,0.0335112527724477,-0.010629131669976092,0.03255147230456518,-0.006707215503825449,-0.028577221736875883,0.007134961984480954,-0.012119868283022802,0.014928651260948526,-0.017421550520817113,0.029796580403709624,0.003171568525908088,0.015443510853905697,-0.034476091195374606,-0.030158100220264546,0.020998760356653066,-0.001962209494317606,-0.015589299164306153,-0.01843079337907204,-0.008987221515882953,-0.02004685926889251,-0.018710348105470873,-0.03233842507431726,0.02380893275257424,-0.009262056053967438,-0.0032643502962051434,-0.014387096080623999,0.00875902560447061,0.03472995759540456,-0.02808075821646629,-0.02257703868862807,0.034071350721348585,0.005046760778504648,0.004230880753696161,-0.015397539339307853,-0.007414379506938452,0.0025608378806963182,0.017658007090511286,0.0032714433953737574,-0.01969364022483976,-0.010063204722313932,-0.03421472929785415,-0.0036494669259456575,0.0035848750013114617,-0.006674363750594995,-0.018534528555246635,0.0029394980851270933,-0.022857581101135074,-0.01939135119311987,-0.033804040607979306,0.0008125742798260751,0.024727955857723565,-0.03336469811458909,-0.008859720257494702,0.0260924956993052,-0.014251543053627615,0.00478242789883266,0.0007644230997244604,0.014204707314917067,0.033897746946144725,-0.03270830207319285],[-0.034909446176245605,-0.02295736474614294,0.016182988466269907,-0.011091825153219282,0.007240764308412384,0.01082122543491544,-0.016063425734384355,0.0031917550269077123,0.036739871373014314,0.03154302283952601,0.03341974743938881,0.03409847399176707,0.020499300562108795,0.016747501797069037,-0.03398126037577164,0.005044977813393249,-0.031339555011315676,0.02572641744614922,-0.013222123980699696,-0.03376123064990627,-0.014000912640201603,-0.03369008186662453,-0.02514424470146207,0.010879997270467049,-0.0066012530875138725,-0.006743545305660847,-0.03515744550167307,-0.020008224668910505,0.008127353897588716,-0.013905728731511547,-0.019903714471521308,-0.005105205064979134,-0.0061274343055123855,0.04079324512574548,0.028418852767103188,0.03353390324412699,-0.011015811436737213,0.007912230515730551,0.00266300271480604,-0.017107061188651684,0.0021251940245111084,0.000883854491829413,-0.015280863998075142,0.023604585003257947,-0.024428068185118713,-0.01463650516663307,-0.00916372194744303,0.023986037077273935,-0.004334690111814479,-0.010926385149440165,0.017758775495908503,0.003039127180799989,-0.02579180506831772,0.0026887225981901824,0.01103121195786532,0.009706884820651065,0.013896062170012456,0.02159614621321642,0.009381463411303876,-0.003993172631591319,-0.02308071023932411,-0.01343408398189256,0.034354048533327394,0.03355246478966654,0.01077857545616297,-0.019271657096867,0.0010665385934048011,0.03550593469355283,0.030942523087114315,-0.017919929474643142,-0.014163651009090774,0.023562421773786917,-0.024323035229577187,-0.015030638850348952,0.033620084833571325,-0.032704632125923144,0.024017853974971404,0.010695224748444114,0.03726540533958629,0.014032937966407612,-0.034937842410698756,0.008975802704855707,-0.012946641830050292,-0.006145265283682322,-0.010274312453940301,0.025495579438241812,-0.03515929612877312,0.02417952431385865,0.03558660492303808,-0.016935405017942273,-0.00038408577944667766,-0.019818847432570272,-0.004896706542266138,-0.013940338583515219,0.011042625018058007,-0.03135040597757701,0.014066220038644807,0.025068781874460665,0.031660781603890076,0.0368977782601547],[0.03403620576856614,0.0010901691975002087,-0.02992257164458165,0.019334960459869068,-0.004569453376831894,-0.034291843568089495,-0.00980689601902043,0.023335188803160527,0.0004275665554450802,0.019425494884270214,0.022162890450179704,0.009864400028501327,-0.029623078646630472,0.01832528168099775,0.009653119265051304,0.010688310159557249,-0.004820727049046109,0.02895813986051547,0.005668067813107778,0.013328124612561306,0.011439762099334845,0.018510416273200277,0.022326529019476366,-0.0011377818873653123,-0.022401054073966933,-0.008830447113431497,0.030721711836548992,-0.014675699647023345,0.007504819924251458,-0.015666691745232626,0.028340072142487915,0.014378200501172769,-0.031081622865831274,0.01832657942580333,-0.015663834742589443,0.028540165958850842,0.02956518761562126,0.0038106772398371633,0.016344234730783145,-0.012234614293357914,0.02851165715356451,-0.0314778175997048,0.00007303144436479348,-0.01332099138321068,-0.019348731291484747,-0.02344928073114514,0.004838000543248573,-0.005881150555647304,0.018540897559373607,0.014598372642163668,0.006688895572937986,0.02004134574084621,0.0350977034910104,0.014582023825962711,0.016674541670293804,-0.028281274985969822,-0.02651485499029235,0.02167629330890985,-0.011607667665629246,-0.015006194096837212,-0.03310648205817264,0.02482011274283562,0.034946883710372294,-0.013270475855487183,-0.023085370402439707,-0.03245019108350036,-0.005240750722485578,0.011717996325430491,0.01503371179213689,-0.005813652098311741,0.024709109066334698,-0.0008202347271260904,-0.01963653671636701,0.0011047112973976852,0.0026730643509061958,-0.027547459950322355,-0.0060232065134057395,0.005694263286121737,-0.010237851607563535,0.034153893295674205,0.02708810589740258,-0.016353757420825676,-0.012924198817529096,0.02697725924192285,0.0013679017427220325,-0.013535085655511698,-0.00973194834611644,0.016833586288636977,-0.0028325860795094596,0.004649134013526681,-0.02734056022931681,0.009037575593650373,-0.025156045153649966,-0.02414798643718587,-0.027657877817596318,0.006827221879447864,0.03233857677839661,-0.016894450773817297,0.010512113131194399,0.02880014083446172],[-0.029217339303376267,-0.02055992562526257,-0.03388946726747482,-0.0328561641418351,0.00816989914262104,0.0005966981703524442,-0.028731176896222,-0.014071248654036141,-0.005567974036726297,0.012316553805736163,-0.002646161560622603,-0.005374221560236767,-0.005648858580694173,-0.022254740980794482,-0.02199870137029135,0.009394289157126921,0.008007855430998164,0.0011737372025999544,0.014868537324448363,-0.003958912964905097,-0.015675377480295433,0.011085119891010277,-0.014366145062431649,0.022321287361563743,-0.026676832574594366,-0.0009497658318230044,0.01730174855925531,0.018127705599875157,-0.00010572531860810201,0.005423562250964988,-0.000514682172819404,-0.010886432639184387,0.0035968859587916704,0.020903250935680337,-0.035699421641340504,-0.012499854179682076,-0.02861912979885059,-0.030827293746849872,-0.002969027933937094,-0.027558691815871002,0.0009676482258783498,-0.036309064415939174,-0.026847366796289525,0.02639845881894299,0.019247293024649705,-0.0019650775630047574,-0.03048671416335602,-0.005177242943657305,-0.034399469202382384,0.025929737224181185,-0.006752624009941111,-0.01809791537482673,-0.013485745907385218,-0.01823659445997102,0.03339026265894565,0.03714716916968165,0.002248533562468049,0.018754904598355635,0.01479303598348567,0.011562053120232008,-0.01815347875863965,0.024776971104323527,-0.013317371908593317,-0.02546144709826281,0.007073124008784376,0.029191520026780757,0.023666162206296852,0.01353401958855008,-0.013154058454146762,-0.027512727038088727,0.0029826554745179894,0.015088789044761056,-0.009548059730191493,0.004968444103685084,-0.026070149567955062,0.0010325502016855315,0.006206409906157655,0.03065008617610234,-0.022034124522903705,-0.023993590726650495,-0.007009374657542247,-0.023632955191481776,0.0341850252756397,-0.0006811252026141895,-0.008777477374534092,0.01222106399257254,0.02290514020830909,-0.014835546332229685,-0.009009503272296195,-0.021792847259438322,0.011038510603834342,-0.0308573902788497,0.021690949853379184,-0.03325638663053304,-0.014386253729679947,0.006330874979766356,0.029356114095096524,0.011692339303977008,0.03229637395656702,0.027210851230927643],[-0.0176942909961652,-0.03227758465030921,-0.03220540801655016,0.012320522425954506,0.024391405077649194,0.03193873059474039,-0.01743069330533587,-0.030977686877278192,0.01048376502330695,-0.0021260155622883216,-0.004836369661640479,-0.01412904128192557,0.008282029587852931,0.0036854058906149708,-0.024969851381421874,0.024141140552929815,0.01190979144744206,0.003420528833253162,-0.02737733477282658,0.02041210778050359,0.008291765758939317,0.022058979317626733,0.02048177497232885,-0.0010445017695336581,0.02174534446204129,0.02510043041024551,-0.014437982964713141,-0.02542371444724042,-0.018280262577990147,0.010571747798089115,-0.012491235730742059,-0.01891076241353156,0.03568365402747135,-0.010314541439969304,-0.005745959451492969,0.01334377431331268,0.022459321100464308,-0.012131930621791135,-0.02628062686845919,0.03215777196228411,-0.005792625151679504,0.027536100652509114,-0.022945543272999167,0.015642177622970488,0.01121088819048033,-0.005964793344322939,-0.014839900135136055,-0.013215794733804392,0.034579969177388176,0.021864307067516346,-0.008615937649871326,0.03481387590718321,0.013448002425820806,-0.031500583571213284,0.03353349091507108,0.010892155415867062,-0.015322429253093543,-0.02079137367820647,-0.010285884128137792,0.03279221936303706,-0.02607079669252535,-0.003348026990767548,-0.023501828768507853,0.02357221792736338,-0.015594209709578116,-0.0002740910400189718,-0.032941384641205745,-0.02790226975827645,-0.00753829171036864,-0.009425949543668528,0.03128132318761394,-0.02689849483329938,-0.014201620509327799,-0.017742296177601955,0.01751387047130022,0.015175244031617635,0.030516704102967043,0.011282168769796978,0.024112966935418336,-0.005578513415160777,0.014210308577064417,0.025707287629279665,-0.02545878012596311,0.003053033120003113,0.025814945135209343,-0.026952751213991964,0.005414926296522355,-0.008650690157948466,0.003786674041106122,-0.0055652299977122476,0.0064370839472096065,-0.015561261110895867,-0.027154942146257303,0.014185097650202528,0.02590181619425455,-0.015817953240038804,0.02566089504592607,-0.028410290343960493,0.026810561363847574,-0.02988135565763455],[-0.01823024116797651,-0.002561601625267511,-0.02830632774512797,0.0014087506652584766,0.012984743458906564,-0.00935244088609004,-0.0005959760756917423,-0.02314529894856961,-0.015926452176581174,-0.013142915790823237,0.029586157331530045,0.03317452868901441,-0.0005659060278233703,-0.0003937417080235908,0.0256299444185793,0.03210084754858505,-0.013301617308867255,-0.027281895941007477,0.02704336831121717,-0.002322128889221887,-0.017566217367177873,0.01782091897905601,-0.03590872819688784,0.02837111207186565,-0.00143751756025519,0.01842664286478292,0.012175765984900637,-0.028189995748269275,0.013071931899728276,-0.0233532162231481,-0.01777492619415522,0.02577879516555283,-0.02179852414629563,-0.017983927419607183,-0.030229487981889742,0.03611836924904602,-0.010687626953707719,0.03319565850609892,0.006928951848172036,-0.03140448439288351,-0.006125687259759206,-0.03351225966051166,-0.017013685770790883,0.03137046570111724,0.03241919564536664,-0.015289754667730977,-0.023627507795699887,-0.017293509114544147,0.0004867801665951365,-0.037040151623626186,-0.029512571381886506,0.029259316580740432,-0.004360240201822205,-0.034562994600731,0.014838364012044117,-0.023719977999351712,-0.002408280600911341,0.00487054323256368,0.019078495023323806,0.021369896366978617,0.000146671393182702,-0.021892997094255358,0.009697814447624324,0.011664349423445696,-0.015082575143765748,0.011859517812223348,0.0013126498243852197,-0.0325392831612865,-0.014038570958306325,-0.009561259554121963,-0.013411613233115972,-0.02486500325123581,0.034755289721224124,-0.03469848878966666,-0.01648511164931727,0.027184974147132418,-0.0274806418501759,-0.012061037274668597,-0.0022298229504014847,0.021644156590668737,-0.01295568447859627,0.023045845588590557,0.018663309363612615,-0.02087829419172741,0.004533165810198106,-0.029523006777772424,0.013667967754040321,0.00737337221720487,0.03185637092622649,0.00588931013025065,0.02351321024994896,0.02917485224241264,0.013860815209702736,0.005031395587076722,0.006877811578487492,0.02794021856586899,0.037280352089400066,-0.03295125336264025,-0.025401248034017138,-0.03258262221442106],[0.018306099154410466,-0.007270962090484572,0.028739272384843254,-0.00842918244724893,-0.01534529556240751,0.012828625374164682,0.002943834776501981,-0.028555226196696926,0.036606696134077486,-0.03250289375344037,-0.01661429787114554,0.019362409525930713,-0.03311142978619033,-0.02692475744816902,-0.009947806643084641,0.0017668168545019634,0.014809139267561715,0.015231419212222317,-0.010534549247467608,0.01050433591888546,0.0025399793702764436,-0.009181678597277773,0.001366612270030688,0.02050546166575558,0.03610151946503632,0.008294828595561141,-0.0029027999110556343,0.005657510709530712,-0.022353278333936827,0.020695521027751723,-0.010298505887704154,0.003859769402592031,0.019346879884485232,-0.03133419503443089,0.002753714229386482,-0.03602857398831358,0.008093417647307137,-0.010672089154900515,-0.004038519625649674,0.012113283085004475,-0.025322024070051272,0.013614096710679141,-0.02091394283290152,0.011628002973392554,-0.03475732498455962,0.002309162959948968,-0.030913073064024722,-0.009161182930461614,0.027326673137603046,-0.028249716038883325,-0.016693930903192503,0.00264888837704819,0.02461276672072081,-0.020948920096670598,-0.005417366077603705,0.002368641284441018,-0.023273726131758935,0.013594614403299619,-0.017282669551177344,-0.006594173671836172,-0.01110732767526055,-0.00904277374638084,-0.011847625282463492,0.022717821158426174,0.022900782742338255,-0.03432908832580144,0.015817433404291436,-0.02410641096214995,0.0033950043091265083,-0.011521996847856347,0.028800497395726207,-0.011604479890673813,-0.02531401041137041,0.0317976164426783,0.009984231169204752,-0.02984257520559732,-0.0014181361398462712,0.020937046583469607,-0.017704057708566878,-0.008084782773952748,-0.02386732751273412,-0.01501728076354485,-0.016641919048566486,0.027113485610984197,-0.013032109737425352,-0.02176005441522171,-0.023053763454518938,-0.024903512953292444,0.011321555609732956,0.017000814521875747,0.004866506540309037,-0.01938720112672419,-0.001261242489111691,-0.009031826005434583,-0.02041171834099442,0.024078878188285142,0.03000109011205231,-0.012939360032448064,0.00802376137996698,-0.020810244565473823],[0.010901247381883267,0.016380726641482043,-0.03287540718234559,-0.006671858948514294,-0.000281973802821103,-0.03606275620968684,-0.005554269694086655,0.02727624548532736,-0.016975496960379564,-0.007836539251553332,0.00869193754579349,0.02256265438161538,-0.0057091417150244295,-0.015544705765470816,-0.021423402392334853,0.016715992518500485,-0.030950196848190788,-0.029019311401639655,-0.032251946143443136,0.011634490695056902,-0.0217705159550043,-0.00044911753205227503,-0.0105058073228586,-0.03307954602950793,0.004539250134995041,-0.028585876474934865,-0.013338084942881478,0.027278580238153164,-0.01980932068377844,-0.034548782136386035,-0.030817775429995423,0.008010888039610822,-0.0002624375590784939,0.02470056533155587,-0.0009960757300435596,0.005660557179872137,0.013904127556920226,-0.026818751148039242,-0.03237732175680237,-0.0052357050458859715,-0.01663169994297671,0.016585122031032316,-0.03396556346896749,0.014407373487110024,0.001863114863679053,-0.008060258047077122,0.012500563951474633,-0.020733234215313114,-0.003467345628961298,-0.021627858128784462,0.02234136451189355,-0.0022541604340747183,0.011516374018986399,-0.025043421729837357,-0.028553007081859223,0.020529104587334014,0.03384806060055604,-0.009273597066972651,-0.007896931367522298,-0.02597486804955349,0.01148605053138477,-0.022561115239030018,0.018202683087509004,-0.008058141267657738,0.01306855348342531,-0.032436495170330135,-0.026588848520577343,-0.00812274418564825,-0.03318068429005478,0.02201162287233882,0.022532589857085866,0.016837348652092434,0.024128410942901378,0.03211788284760626,-0.009119376545701406,-0.0253037856424638,0.02827515743706505,0.011784674388295021,-0.011270298697197891,0.03401983009158418,-0.013797435587427883,0.025642274857462965,0.02599722358263894,0.015667366533191267,0.0031597021068262513,-0.03145852810249567,0.02708920939229896,0.019478051754349416,0.020119258406471108,-0.006356148878210708,-0.011121348047536608,0.030947483212562497,0.022004185464869097,-0.020644230749745297,-0.014477367087900844,0.007031352994820158,-0.0043091974547615096,-0.0162445509345918,-0.02942997286528583,-0.012106144163164627],[0.01548584773577284,-0.015802637258204327,-0.020608857904440805,-0.010763972371664212,-0.0291551706006048,0.005775155255690668,-0.03096099346275239,0.019838987493627624,-0.012573975684415378,-0.014114133433113787,0.01653795819706367,0.02851527706596495,-0.03112521220403519,-0.017263025911209522,-0.0036869874119775294,0.0001608562401423195,0.011933767013055124,0.0008548420207503935,-0.01279194543082363,0.007931763764903196,0.009305628957026692,-0.01213595062462749,-0.03533045117880041,-0.011677151039942907,0.01626328519631983,0.012540142060223148,-0.019025573550613253,-0.00588880272464315,0.01848331098036592,0.030015636157577352,-0.031387119150729295,0.011267088950876846,-0.015708233015900422,-0.017649319033554163,-0.01400242122613591,0.031893869443913626,0.006283585635329658,0.024590896328688404,-0.022273401123277237,0.022901174833377797,-0.017694587674223425,-0.03226114578756536,-0.013925455089750719,0.021422945019050857,0.009569422940793819,-0.014007758369603728,-0.028072304078768612,-0.03218158840113407,-0.005573874473489314,-0.01878353977340647,0.0012998861047014238,-0.0005033656474283146,-0.01349534942586407,0.017660279401052012,0.010550555538248385,0.026283315448977388,0.0002632356266891825,-0.02415394879394155,0.009756289410331713,0.035522017173705754,-0.00381586584944727,0.016969483791504016,0.013044672760681842,-0.033293562052085335,0.010021299618674461,0.026335607814050102,-0.02526749957640536,-0.007984192501912887,0.010315396787726711,0.00853544010474315,0.013863966851975029,0.013848647150138805,0.02672201030537622,0.03088184249554377,-0.029926632890859027,-0.01072941586479665,-0.010723971794391135,-0.01093150327534452,0.02753668092762135,-0.012029978073002432,-0.008907305576734253,-0.02174381426041906,0.029814206804750915,0.005628227622003607,0.02709572822069158,-0.01632270369796122,-0.02404997025523255,0.0052936963086600425,0.016334621255015034,0.03388998333219459,