{"activation":["sigmoid","sigmoidDerivative"],"cost":["defaultCost","defaultCostDerivative"],"layersizes":[784,100,10],"weights":[[[0.00860719832763171,0.02162343272044142,0.005751139999493353,-0.03362698223991607,-0.025018616757298676,0.01582598667207842,-0.0038184394294168275,-0.013008512369786512,0.022123560217837224,-0.006660795760464787,0.034867397240190535,-0.02980508591440797,0.011732857786651806,0.012604838734092759,0.022871674895222995,-0.007659402716431098,0.027665953178854556,-0.03212496948752193,0.013769831563009694,-0.011748171580064503,-0.004468613574062999,0.015834703442440635,0.01018208445389284,-0.015677312325100858,0.03235317979915086,-0.016232300537168873,0.009273832491257634,-0.030103163769224128,0.02413426530276542,0.01901477501679942,0.0178882542037892,0.024490606486626175,-0.014677563420058068,0.03221359185048035,-0.035051358475083526,0.018077574143820097,-0.016579617572785456,-0.013236272900947673,0.003931669606118755,0.035582862523236766,0.005563926874843511,0.007617492698334545,-0.009610296507250673,0.01613408738795472,0.03128694288476936,-0.00020613705822906343,-0.02644650373486398,-0.011805660110977289,-0.00753895807972531,-0.012351890336241384,-0.008815188128199727,0.013987251619078168,0.03435637308705152,-0.0339171640304551,0.015418397049636427,-0.000727106508769651,0.007452722483379939,-0.0152200990830944,0.016399783952993664,0.02392863518370644,0.014908826617461034,-0.032792253033695894,-0.023295986792382605,-0.003708070708075744,-0.028884004412081766,0.034059698718814875,0.02193734439576382,0.024046217386180537,-0.005553963527636353,0.02110668720087635,0.0010009334050987261,0.034536883294079404,-0.009281024094675601,0.034298740451556384,-0.008782238357476942,0.01944798971590803,-0.012750209999320247,-0.03386355414884929,-0.028566466622810986,0.029572636654353147,-0.00162950902857703,-0.017690137848208526,0.012396865418606604,-0.02990902827682379,-0.015484900294162001,-0.01652304242024149,0.03401423394116509,-0.021825730031121243,0.028903653504133837,0.01614249792224852,-0.026819700956315678,-0.0001543457868814516,0.02204956137306558,0.032885350854808974,-0.010971030600961893,0.019948507263781796,0.025862658783488653,0.010938170615516035,0.009763408149817404,0.019454820526939285],[0.015512498047977996,-0.021286148232461326,0.004707593226777846,-0.009076001869063962,0.028948347613873267,-0.0030979504787085953,0.0019249142204094743,-0.0072630233953128,-0.0008282960643758378,0.01594478879716486,-0.019874217540185837,-0.0061045769801401535,0.010554584343048836,0.013020771295132714,-0.01980892791407856,0.006423813235972257,-0.018097003325743433,0.02164541127533669,0.013006749861120827,0.03117518546468119,0.01799230846155539,-0.03529599872813278,0.023785536023749887,0.03251001920603299,-0.022338561529363515,-0.013507344158220752,-0.01704430595623701,0.027295939999622182,-0.002410973820528452,0.001226589163666892,-0.0025389413736481023,-0.026865011069199283,-0.019163182859864857,0.01746343461773524,-0.01687343186530251,-0.01582208483034907,-0.008944580280739965,0.008463472225164156,0.00890946094095769,0.003648111150669235,-0.026538680390950937,0.009915651646812289,0.014979829865004637,-0.005568580521710864,-0.023971583460455248,-0.014697827500501708,0.03241989372885429,0.010592213912521554,0.020984115374463513,-0.02382497478064668,0.02303709815776247,0.02535270787881917,-0.015975964683835626,0.00760672401695613,0.0070434154458099175,0.01744965287945149,0.014596414986149013,0.032847056099066706,0.017433641745779906,0.019412525230620353,0.0336361244269204,0.007603988055797784,-0.027133206454018736,0.025815683614735775,0.031897511265797464,-0.01388225916189923,-0.026298297802314734,-0.010843580778009771,0.014665186567269098,0.03313484611125035,0.035563346921306166,0.010063148317901505,-0.024817110972755945,-0.0009489931222016631,0.015012637362291009,0.02150503371244238,-0.026464571575276298,-0.005212183240458663,0.010322190272813864,-0.02473136210541546,-0.016025354405986604,0.018326308286183368,-0.02459959723181214,-0.027779542272066953,-0.02659972087870892,-0.02010101750322472,0.026421487407417767,0.022676155223454574,0.017868665214766256,0.01989186392806096,-0.005337745305495445,0.006351699825721974,-0.0035689374784394485,0.016956326666847522,-0.0019402822697863681,0.02279451320427769,0.004064182387335779,0.0025508373833528857,0.003008241254690272,-0.00337168731688701],[0.008254207861561147,-0.012307337690345616,-0.015272780140153258,-0.016832572090172318,-0.01816313703063947,-0.009229017000358854,-0.0035760840743324423,0.009643829129984795,0.017930754254274248,0.027232027824540407,-0.0242584183557819,0.02879214747216088,0.020095688813904517,-0.001045794044865659,-0.016785999556053154,-0.008162582242842433,-0.006014521075585557,0.029426847283447338,0.005632136473659917,0.010755478175561653,0.031563227926314795,0.004957163897864334,-0.00002623668263617413,0.028811352003197437,0.007518893065519512,-0.01995228977013326,0.028516967158960606,0.01978376539772534,-0.019453459642581522,-0.01065478814067616,-0.02440928723869591,-0.0033509698114379525,-0.02490477998633904,-0.028722752172536014,0.019892367369917868,-0.032913443588777874,-0.029043465613835,0.023220094792184433,0.002152720735634399,-0.01573995493701062,-0.00818008309713436,-0.015995084663409313,0.006123072924786457,0.021363553580758955,-0.022482610109161725,0.013280151092610746,0.013634784958143076,-0.03067232201561186,0.026108675529292375,0.007654375042813789,-0.03156298064921227,0.02377918664252151,-0.0038958182172756156,-0.030094448294673688,-0.03565559489272605,-0.009574558435370506,-0.019829857778706814,0.012436149798986202,-0.022672716324149116,-0.03506294687891124,0.021694391882222615,0.00023306028800264904,-0.03563981223361774,0.012918015157799109,-0.016995109883775613,0.02816466300870264,0.03377020627519366,-0.000029299207453684932,0.014969503219939253,0.03042666657262084,-0.014001361485775868,-0.0012687590103991528,0.009271453064250108,0.006276520158169482,0.016787621423518133,0.02644895244534202,-0.024194813938268923,0.015402196101314065,0.012982783739868494,-0.027495949847666522,-0.020628619640250048,-0.010660970418556103,-0.03260672483572588,-0.01562776778060008,-0.006273809180029225,0.01934511220286809,-0.033779536450625446,0.030533345858500205,0.020042005774598824,-0.029612681051500535,0.02262576377016432,0.028788239519666706,-0.018599917153737336,-0.004060574341136123,0.01107539663587254,0.027891143519317395,-0.012681660588455526,0.021080875457015258,-0.016266132743796662,0.015770128207578178],[0.01742659505821861,-0.0013215780932526104,-0.029537095857974004,0.010606802922892742,0.029403414398929646,0.015814130902619912,0.013249500949553034,0.006952318054482213,-0.01982226080314403,-0.013491455488159283,0.025849058143954367,0.032669848526438276,-0.027136171391649293,-0.02453353356394383,-0.025977933241320368,-0.035431266349526376,-0.012454644309102685,0.02383970939095071,-0.0097861239137641,0.01006129669124281,0.028982719665357818,0.026990059374611908,-0.002830238521653691,0.005048946967079315,0.006966509047328595,0.009639530793154341,0.005142163465015605,0.009512683244252243,0.01896254583301784,-0.008694235292556187,-0.022000420937851695,-0.010636047280399047,-0.011996601306567595,0.006909999110182243,0.034783055430305625,0.0036628335715987747,0.0010552290047624623,-0.027881955366844888,-0.0033822395701746284,0.0016572829721520261,-0.022343926587185852,0.03342737073972725,-0.015890114795683263,0.0018194877055488661,0.023066178218256597,-0.02402493967000972,0.00389904580960002,0.02142737103453147,-0.0015695616040406065,-0.002864441935044763,0.00017564080880363072,-0.028017129330989297,-0.014750373069144602,0.005225730006687415,0.03323702229619015,-0.008974258424798582,0.026375113176990476,-0.005483470137045538,0.032267129888497954,-0.010990743833241584,-0.01121381370344775,-0.029070552589823974,-0.004378998033519509,0.012417903298031899,-0.010978461497794809,-0.03253096064100499,-0.03426650336924409,-0.007773698350645882,-0.005268493515548506,-0.007637657140911151,0.002907444525514566,0.013615189081607127,0.015731642514390888,0.03467499526691788,-0.024859133031107986,-0.008508905009153552,-0.011537459751640524,0.016042128196936577,0.004165380902311206,-0.03369869905591243,0.02777050457992032,0.009500770726047646,-0.02899812854930711,0.004340155641027904,0.0194446372823628,0.02274701928832543,-0.0029739591249839784,0.01004551171294782,0.01016822499503709,0.010705929505388402,0.025159906715135048,-0.003530649207563535,0.014708206541070188,0.01222502485070672,0.03171968514628652,0.023694678596407465,-0.011011527028653127,0.01950108587160397,0.006449259526321025,-0.011478778627311722],[-0.02671076058231643,-0.016375218129296074,-0.02170764506999147,0.01193464301528901,-0.03332951197947488,-0.0031222553562795874,-0.032947048375771705,0.0348944534387826,0.015387894011512518,-0.020215082202879934,0.01541435267104759,0.015085666095752253,-0.025701355588196497,-0.0015878845569539987,-0.003951882019884327,0.01075488921193917,0.018880147580216885,-0.008588637334715607,0.005712561824990314,0.02491200481662788,-0.010514009899690249,-0.00341314237066316,0.026218457267197407,-0.01677794638181822,-0.013259692959148445,-0.015919794307077705,-0.02432923797441381,0.013209376154554092,-0.018076025452516752,0.02896683243491211,0.03212305159419464,0.027519386555325154,-0.016938212726494453,-0.034355676644778704,0.001169304472627779,0.0021169206936188165,-0.021064456043595015,-0.015507468457764694,-0.012464700605735601,0.028818281326588792,0.02785747492070924,-0.022264384646999192,-0.015688096679440253,-0.030516535853663176,-0.01737843289461283,0.027130620028963156,0.002474399999199764,0.020219322832836777,0.009407276256587093,-0.0023075406218538473,0.027063463721238905,0.004372334629827853,-0.00870416977073758,-0.021932253136412602,-0.00608019249698745,0.010129111380803935,-0.022897225353314787,-0.034735758313905706,-0.013914464649368444,-0.030257325838163127,0.03483677754314577,0.025780284407260733,-0.0222635515463173,-0.014461759796658593,-0.024398373016221355,0.0012644745990006872,0.005136498665265685,-0.01098943681985941,-0.024424248455919183,-0.022606529194459633,-0.03173372370960126,-0.03530091979747173,-0.02481463642685616,0.015609818964360825,-0.02848463565461708,0.028446818545336736,0.017095712044346515,-0.02974655931762855,0.03455741396545299,-0.009730082750844535,-0.025191615383080714,0.01611375153449844,0.0036022378459525835,-0.0050573888804969075,-0.004768363560247278,-0.01724660436194629,0.03050740247589184,0.022317129974028467,0.03323542700017681,-0.00906692265614695,-0.011993300264388851,0.0215838554912346,-0.024039223115787812,-0.012870393190911466,-0.00883285512833914,-0.014134853699432771,0.019163533889849864,-0.014516771044419494,-0.024702811152760445,0.01255007905246055],[0.026540361980099864,0.01099362648966864,-0.03193206937337604,0.015717711175801785,-0.004313424329833699,-0.020827067110564198,-0.0025839960255070594,0.009762829503665103,-0.023430526219110976,-0.026158357153446523,-0.00011699327074827583,-0.022555687622691698,-0.03194625341311899,0.021268144081816983,0.024963866636984574,0.023314191039823226,0.0070812422599546175,0.032823634127773026,0.004600870820094798,-0.026460170942433008,0.02110141783775446,-0.01966400222905591,0.035325788423274045,-0.006387941242040204,-0.003882629267404732,-0.02562525504797821,-0.023044898967567895,0.01437948265214901,0.024604125454352883,-0.009580952504569765,-0.016540310114766987,-0.02804069323663329,-0.025591157632659223,0.022045724063762227,0.022113567558804306,-0.014396934502535706,-0.014078289209354337,0.00635570402094314,0.013325170283072526,-0.030514639331310815,0.017718817377981554,0.027292180357390117,0.03517161909596844,0.008676489574048657,0.015107456732156573,-0.02243833660402462,-0.008443538576522011,0.007113986332629449,0.012593373670795887,0.002081298638358708,-0.004703078224104404,0.003883117028184045,-0.008205972906777114,0.028425107686517705,0.02058832517366168,-0.02676769553181344,-0.03465351753763469,0.021799402755477003,0.018903320311709465,-0.020913593407499837,0.0066125628200039395,-0.011209855313751467,0.01784716668717763,-0.003671980872651342,0.0011483323620325948,-0.03374293577937983,0.014144249573781346,-0.015584104308218754,-0.022975743103884422,0.01667161465947909,0.029481856394190892,-0.027925404975873425,0.00905185249732505,0.015447578304418898,-0.0054499744340858036,-0.021357449335861964,-0.010870624885988042,0.024281695236645695,0.03416247018836349,-0.017490736264346874,-0.001518775838109411,-0.025740116570436775,0.03350182100662843,-0.03431700771019414,0.008979601233074244,0.02411059056258731,0.005068500662438617,-0.022707333695414774,0.007525883606961241,-0.016816161853011283,0.03351583801540092,0.030791689045206856,-0.007336153069777596,0.030863311199513382,-0.009500548399351457,0.004708521662564491,-0.004414927607476945,0.011337512959097282,-0.03052410926208766,0.01827126063439783],[-0.02813812884618195,0.026407297850402408,0.015132456724087702,-0.02918857630822112,0.023832208628470804,0.02788081634783011,-0.028714640038667978,-0.010803062784770336,-0.009138138619441287,0.025673568369201608,0.013704184715255429,-0.001283799903783784,0.0013550332915195677,0.03328893460342807,0.018334694391136958,0.005234080467598778,0.02412259480015568,-0.001015300609679211,-0.0046377010308940566,-0.00433928221045924,0.01854029837243929,0.01947155508189601,0.007693657365502234,-0.0008422703480189309,-0.013303315420444503,-0.022122325523088418,0.008779929292799468,0.03220431181612953,0.022764288417811182,-0.018115208392565394,-0.015726150031036872,-0.028579201725402757,0.006173437811999928,-0.0080249018347846,0.02885109197103191,-0.024252666467560604,0.028167243606777664,0.015756381464014972,-0.00004874546849417295,-0.0255503333234636,-0.018995120744228336,-0.0305982933813268,-0.03126629639364305,-0.01932427977393227,-0.029232294749740786,0.026860590417381813,0.004878958340268009,-0.0094408167807405,0.02063662673336715,0.03499509589391897,-0.029604832872989,0.013947382902249911,-0.017509376174259603,-0.024680734833554617,-0.006002638707094725,0.013261554717899342,-0.008765127848946416,-0.02740640956159104,0.0027800736187789925,-0.0062562307224462025,0.027487121906279086,-0.02118161034977616,-0.031032594932773595,0.0017424637887749202,-0.02291741151921246,0.0008518331958356372,-0.02815175061602922,-0.016747605897226726,0.013586001874830084,0.02332809610629465,0.0007461308004200606,0.029425585951344948,0.03354552737724205,0.032785819690485676,0.00018344736165512663,-0.009326126921918188,-0.017621369791327106,0.022500830671793523,0.02660645836088914,0.023627001130456463,0.0321153709838278,0.004667007636786658,0.026981960775478535,0.028468691447972944,0.00320241908179498,-0.022840353920430722,-0.0238363544301896,0.028250244988590585,-0.006434525764511767,0.012684318558451275,-0.011859706059457142,0.033103176543652295,-0.014657697447243417,-0.02402504108189709,0.025674410251776858,0.034773366091905886,0.03232058919213203,0.007300108445496806,-0.01763400730901857,0.00984857112069511],[-0.005213102221991352,0.02188611893398312,0.0018360368326926823,0.009544125452304104,0.02586818971704483,0.03255013485258095,0.006058219675804783,-0.022006833581246988,0.00626173186893719,0.0017378538319240808,-0.025100628750724035,0.03478645366464299,0.03437698330761308,-0.015765944243515382,-0.019695810172672912,-0.0077627785691055775,0.030671596204435197,0.011872200932758235,0.010069126378419184,0.027504879702834415,0.020616778473210973,-0.01982406546490092,0.025266767308155077,0.0016574063284879319,-0.024370712425470904,0.028361464999187215,-0.028978552570495808,-0.013680467797667113,0.03232594245824988,-0.01133732398184228,0.0016053372035270213,-0.014216494233265363,0.030055720324657587,0.02230197572231664,0.027825375334564043,0.014211022311046196,0.0011604683494111682,-0.01011336684623852,0.011691289464242917,0.024103717792701953,0.035657177504814085,-0.015675225959159475,-0.027161434885817595,0.02055547489015142,-0.026338128163311877,-0.017924199830472734,0.024900202161525966,0.00624616326064336,-0.007685699392223658,-0.00007732929178379669,-0.021175102505385568,-0.01108184115357535,-0.030822542390311694,0.01669729967580117,0.020665165994878398,0.022186445770337234,-0.016888427866421068,-0.02632628872289039,-0.0018965124984492274,0.022539980580386667,-0.007429437881179807,0.005914698753274785,0.015018361148871246,0.033972143690703734,-0.029624496509537544,0.017341429395696543,-0.0001467351374861236,0.027818048485855396,0.030556016837269363,-0.0058170331504271595,-0.008523001420474042,0.03186174540468638,-0.005109841764019029,-0.014684812683429629,0.02288364547088908,0.0349919032274251,0.0320118239025995,-0.010322647898977608,-0.01235329845446152,0.008229589255555978,0.0330209488316749,-0.015383361562281643,-0.01678587166718485,0.02367160198435814,0.03351316745308815,-0.006646652698304091,-0.005955110055582353,0.025340642180093097,0.020180986458196028,-0.0009159581842963732,-0.018369094246337144,-0.00103272695297889,0.007223287570461453,-0.030465834831260336,0.017756464446719775,-0.022351480711544792,0.011233378823787195,0.0077984762732100105,-0.007566683247795771,0.029365817827829186],[0.018245489598533025,0.017804346047590403,0.003821435004414705,0.008871716006063105,-0.014810029111508477,0.0016940805628770622,0.014683385028194947,-0.004488859515710275,0.028669063938857167,0.020467905336847187,-0.033508463117859384,-0.026683253969715312,0.015767135035295903,0.032214000345890385,0.015837771935075882,-0.026699629227961503,0.01318157594390575,0.0020905723395228107,-0.020192048584013956,0.017013991968243884,0.02002731305079453,-0.0030460347334749552,-0.015522358095794284,0.009653517711921888,-0.00321167997332772,-0.024590425833089805,-0.002149226616814736,-0.030641970283522953,-0.0028206043440707484,-0.023001755649199734,-0.0140180473653478,-0.008134380979373327,0.015079733871865392,0.034544468247361036,0.005144412800485439,0.01405925082512867,0.00936531899128004,0.01146395496846346,-0.009964599312028978,0.012592530974680322,0.005401107463585109,-0.03128472711807618,0.025938485844855516,-0.024641377287874258,0.033185686544848485,0.03006779282597622,0.009637539475627328,-0.010416567811132168,-0.02207505442744238,-0.029910879683321137,0.03416809242956342,0.01667133768877441,-0.016371848450798577,-0.030759464244427444,0.03538433901314475,-0.0004639736514606065,0.010585003586972477,0.014461002416514624,0.013667428555504445,-0.012843188244363011,0.03208747403298466,-0.009584053134825537,-0.001974427714544126,0.0009505395214357731,0.01082091501895118,-0.014693456977777816,0.009014870963734843,0.03262894021798513,-0.011127182751010036,-0.016080629422279287,-0.03321390662974871,0.0044073550640862935,0.013429565737639707,-0.018231252914616605,-0.024506156043654356,-0.023221252285584446,-0.009762793489686684,0.021730333424739245,0.005441414360602659,0.010465153229422573,-0.03404223251672065,-0.01488107550267458,-0.03139358505716529,-0.020287921601697477,0.029343093767894148,0.02034404524441468,-0.022310867935030294,0.016684881596582855,-0.031196875766654617,-0.005261855516481181,0.0179522813482852,0.02416400275260189,-0.008994357624933221,-0.0086682622692313,-0.0173028320639188,0.007729047793670852,0.02266907363087721,0.03039998650333341,0.01035462291752125,0.020613866443340786],[0.021515510198420813,-0.03358658157125799,-0.00029457662508217385,-0.023737186050681848,0.02893443314751121,0.009283131745251085,-0.0022918993346301556,-0.01482730867574816,-0.012565929041684153,-0.03261759891915758,0.029298228077185153,0.024604797575481684,0.01682534352422937,-0.030542364353132487,0.017076717561151738,0.019437416652701343,0.009747284159737902,-0.011122226374684038,-0.015130701712848933,0.023239138438782888,-0.03513460176889108,-0.0056798715704162025,0.03180664482373217,0.028444019308247807,-0.009923531890264924,-0.03543138821685324,-0.021424537449944638,0.012951629003416145,0.015981621276348047,0.00996915419252922,0.00191822730358424,0.006293694750007368,-0.016921177777669015,-0.03196936245674121,-0.031563738568722764,-0.017175272147938184,-0.005655017911799173,0.012637592864531446,-0.018755811637529044,-0.00002531887313364562,0.031319868755145454,-0.022115075358663795,-0.024808772964059412,0.02654486080898291,0.03534329989763096,-0.027149477267782853,0.0006676177498790727,-0.016589651911549128,0.015547126611985086,-0.034484376628545865,0.004095980002397577,0.0108346622174387,0.022357427020216657,-0.0038025529794657098,0.01038329908889663,-0.027629123902349232,0.009438878136968715,0.020424089560030206,-0.021545229948675682,0.028928596564290147,0.0033454360965580665,0.004288886076216574,0.028689296810569014,0.021126456493335964,0.012792609784107057,0.02257320917606565,-0.012785291089309717,0.017910775378120886,0.018231868678241437,0.010430433435614728,-0.027536732760790734,-0.003468181507295187,-0.02146714666046488,0.008243808721465911,-0.014508963252651212,-0.0004942458612436006,0.029042739614669227,0.001559518646426768,-0.014461397945540744,0.0027026059122224138,-0.00035402414551373863,-0.025222779608969837,-0.014963686411979135,-0.033498807020234174,-0.02580407344926933,0.03548197866963057,0.01609834809598844,-0.0023631378862011636,0.017782295555814946,0.019624542480912936,-0.017166307945224776,-0.012640901473883887,0.008334939983096536,-0.006587763551457866,-0.013791403183307287,-0.027185250005505705,0.030807552630338932,-0.0348049501973881,-0.029266919311292536,-0.007572377732833034],[0.009786853243803663,-0.017616535080405813,-0.014726205368509417,-0.014336976117225052,0.014528846693976973,0.00032951636761670945,0.022070872416458196,0.03120546765116808,0.03419154618950313,-0.01717479469918135,-0.02904874525270116,-0.0041246407237034675,0.015560240143195283,0.033227359916228265,-0.012091405732333489,0.0035247601318675343,-0.006140198180843604,-0.015021826384424826,0.03039345360533597,0.03163434369777554,0.017136825518593045,0.02281081205632878,0.01778177949338695,-0.03211417609474402,-0.029296211824102733,0.011075493279596296,0.027372528254865993,-0.025473267577241932,0.03514136830100685,0.0034709238545689073,-0.02546937743187331,-0.03560006952597868,0.010860741045648587,-0.016638619547671527,-0.012689751548505865,0.021625426170546518,0.024863974152841174,0.02809183164293896,0.018587428629215457,-0.0013575815413061501,-0.00710313442652589,-0.027164862634864513,-0.006830573335210417,0.0050572038575020795,0.015330336178663986,-0.000787332761026524,-0.006706011878142288,-0.017896095146242873,-0.02819883249311196,-0.007815865466544896,0.01730329410251433,0.02191128461596205,0.004201975928938795,-0.030199666288809934,0.016903133610656866,-0.012826343450489674,-0.004935222983832538,0.007530348799909126,-0.034769381868587496,-0.030567809643066178,-0.030714914027525218,-0.02225782099134688,-0.007157496313936591,0.01983660239910453,-0.026844223360950756,0.029127040179819454,0.010318992826459936,0.029177493299023922,0.010036946847819446,-0.030765309239484933,-0.016553895410536413,-0.006357612466053629,-0.005311491968284556,-0.03417589162379205,-0.018719789210626513,-0.017148019455743384,0.02538989792076291,-0.006374403028577811,-0.03240346059321726,-0.015301685528610968,-0.013177453089164173,0.0029340999010519313,0.024649515606180134,0.02061544229293466,-0.022984695645201142,-0.02780544803314886,0.012408988459719848,0.026323718658646217,-0.028207005527583946,0.012689300907651949,0.02886920164548015,-0.015542202131101048,-0.026651749758701933,-0.007710473863838507,0.0020422575763174742,0.013539174269599484,0.02233231249967926,-0.003857258404436139,0.005568892717796753,0.03224429589044052],[-0.025460745581185273,-0.000012730147872349069,-0.01996365393036561,0.027127044089359585,0.030670502386965465,-0.015143407067286715,0.0032847557172915034,-0.02239499667746052,0.02823082101696258,-0.027935922788715137,0.021452985463176026,0.02193404914495026,-0.0009542755919064905,0.005736713262809716,0.021140430981418223,0.0318209646295985,-0.013682232030364496,0.001877530907313599,0.02626681343110807,-0.00929680015904409,0.02551961978034202,-0.02148214396645121,-0.024889334294705637,-0.015699446939899553,-0.02139163487120257,0.023468644951550616,-0.01705074610193025,0.014341083113600307,-0.02811965405096713,-0.02911289173319906,-0.0072366339507849205,-0.027444977819382037,0.0075780928131962706,-0.0038406501324749305,0.0020508786255260215,-0.006999718457128935,0.024702435555847183,-0.02308866458296918,-0.034458581785651705,-0.01482464592773246,-0.02224528704674644,0.01123724045636279,0.02221617048883239,-0.0030722552569399887,-0.026580996045990925,0.015308930752730413,-0.006173550359885947,0.018471837250238966,-0.00752532209354149,-0.016854454911384292,0.01998905962278945,0.03262432023162764,0.0013956915018996418,-0.022566068292246493,0.011965223641944057,-0.017860632669138232,0.012160118614785574,-0.01651751973448559,-0.03462226545100999,0.011026564499010294,0.015607456616464855,0.008251306225464583,-0.02021470229361252,0.03080416882948513,-0.001145991920834386,-0.015246803488591172,-0.026380982692724025,0.034854663376473256,-0.011604437609264875,-0.008204344500774523,0.017160814963184515,-0.03476603709543375,-0.02733675613722611,0.014888120810474883,0.03202019650993237,-0.016153740114716677,-0.02239720433830195,0.01980822883809545,-0.032331062831107205,-0.00916791394492643,0.01714492415300201,0.010426769668115541,0.002830647328216315,-0.0004511804277592241,-0.001862115364251898,0.006341997565656414,-0.022330468061513547,0.018984667733464917,-0.010993536830642109,-0.03455265572325274,-0.005522100843283796,-0.018811289226365137,0.018765087248753823,0.006267352409741121,0.006790569126741741,0.016876372937207385,0.02426938322654178,0.021708649584900118,0.02102720250618273,0.031875706956140615],[-0.02281207345402367,-0.021960766919350304,0.012708873182711824,-0.02389778746676238,-0.006031615131023316,-0.014897181329735026,-0.02729815446616518,-0.015718322329507817,0.03075757751613881,-0.010775645895253101,0.012310535121550222,0.01829663077363701,0.030732573377443936,-0.026566924649805805,0.03154586924087175,0.02521142998365169,0.004522282191740438,-0.020602412977702284,0.02459218470829399,0.024982214239670064,-0.016991050214166293,-0.013141422107048419,-0.0013810300989244011,0.005324467595082926,-0.006589202127431911,0.028085222789248597,-0.02006680953319689,0.01963375791296215,0.019827871632883482,0.010578489036946604,-0.005514181339144047,0.029594121160133328,-0.012574811630649897,-0.005297098959448421,0.021459358026046503,0.031191578582747105,-0.008913522141512416,0.012421922618140483,0.0074402546645895695,0.032564492785671514,0.02953651728550745,0.02187823518762614,0.014280409983074928,0.02369486380981618,-0.018892341806480143,0.015277046201575585,0.023368855941896735,-0.029620618427261568,-0.02441373383571412,0.012330868789232856,0.008912041637126084,-0.012392666860046577,0.015082564708549509,-0.003441064438251531,0.023065281358308664,0.029084358643660612,-0.013184556590779339,0.00591203060566948,-0.021897058423805918,-0.015157256532221117,-0.035608867667157366,-0.006046828203319453,0.009590900988139186,-0.014985474184504494,0.02370130939307957,-0.03175597001942755,-0.030302850699230853,0.011015748702974849,-0.0069667538358680605,-0.015722133133612582,-0.024695870703612764,-0.019265492948676424,0.03429738155318302,-0.02407846406948678,-0.03210174193705487,0.025600017989313488,-0.008999020102472983,0.007787384898535962,-0.030973210675609455,0.017041654909172355,-0.0004507340762231274,-0.02450865182495428,0.012726060884730371,-0.010969328795878657,-0.013577748306980324,-0.015648160918192315,-0.023529373302729476,-0.0013018536480277852,-0.028503688238705135,-0.017898619927326994,0.02949094307968311,-0.002789547899268556,-0.015686662561936286,-0.0036390511116623316,-0.012778419624659199,-0.026763125750194267,0.0023881721413764987,-0.010011983157024597,0.009099539219681901,0.001301187980019403],[0.0012671493231672113,0.001507815375937746,0.0023155636704154468,-0.00013162228130499828,0.022469848723283635,0.016554549049322503,0.019231034568979472,-0.004715583200429423,0.021639410705015044,-0.03616931760000146,0.016023529317955254,-0.024767729338565105,0.02959245039592365,-0.03400190013568898,0.03127657518153794,0.006208566161559148,0.025273300924604558,0.01334658719752408,-0.030494993794413287,0.025615298001650112,0.014584335220709597,-0.005779025898398267,-0.02326571054971311,0.03219590320541132,0.019336878939268283,0.02134373121370554,-0.019586667532484305,0.024042544717352062,-0.032482519552104475,0.015069044482961601,-0.001795012548567516,0.028887320669941565,-0.002984194104407523,-0.006544246710548532,0.0018576748780197013,-0.012289240761911988,0.014330686018668385,0.014539542443699616,0.03548762391652576,0.03465399817738825,-0.008059567935963474,-0.008103520055087738,0.025465067451950776,-0.020449249867407163,-0.0342363112567931,-0.012316035983280968,0.022914082334746864,-0.0024549410116091845,0.032764975241172445,-0.0004940347876695634,-0.017654347846206248,0.006446236159033586,-0.014810952481770796,0.022843795087886042,0.014041345414401874,0.003405866761255366,0.02262246566240612,0.026582837450698147,-0.005780950390259317,0.018781469281540075,-0.03157011915773292,-0.005576811152827699,0.000832092935573716,-0.00674922642132956,0.03496603405890067,0.0012295800611282466,-0.03244781255631335,-0.024982788872520145,-0.012741133743394415,0.014240648608834793,-0.016863130914334126,-0.011020826082610327,-0.013187650398136973,-0.007922319946139128,-0.0016657100062142753,0.017693567166804782,-0.030538864405951993,-0.014671545461600452,0.010720381061764754,0.02576390274387253,-0.02899636467294913,0.008165563442716454,0.028287311310381577,-0.0005321930729479092,0.004755310048967244,0.031724933678556944,-0.000009774221146872246,-0.008372716614336874,-0.008775771299419742,0.02497454204270998,-0.031678574106078806,-0.03234965813367642,0.007452152004586656,0.022492431960936286,-0.0319428572599746,0.033379868932013515,-0.015905049962526882,0.01802392798494752,-0.015260811370009338,0.03166712144990212],[0.006606191347900207,0.009812416429876888,-0.022080088219446736,0.011080367489826414,0.02115609725058745,0.009824424875179396,-0.007589891683268249,-0.0176824810158075,0.005431922099544641,0.01479171985878489,-0.01070001209966227,0.030221362640954326,-0.023148915205715003,0.0033910828447284297,0.004815937764785406,0.014289771122738533,0.033923570710854785,0.008649671731324015,-0.01305507023734682,-0.016054130043813702,0.035245124169604264,0.027982472314958578,-0.019234626881906584,-0.01281899277164579,-0.012283956449817265,0.027788088083790092,0.007143230073820021,0.024479592716445755,-0.0022767115835270655,0.0037497950500340795,-0.026384672083721056,-0.028488119398432217,0.006170772524623732,0.015256014353192848,-0.006621457099408864,0.00034477921452342656,0.00016220664041962656,-0.0019970878698348698,0.01970236541519709,-0.02317910991757764,0.006312488573016282,0.020574012566945105,-0.004814616256973435,-0.004763857614526529,-0.017753672216405607,0.0001178169193789626,0.009320431650985677,0.013568856617640148,-0.022925751414567756,-0.01202815463998435,-0.024774834890589136,-0.023123176176879718,0.017026845521900723,0.020588467453501322,-0.02295980440184124,0.025327417704746,0.022461274601642826,-0.012376806156748549,0.019317129719293457,-0.020142127804582053,-0.005003349547714874,-0.0103799507469244,-0.03477876951597709,0.006152170078202644,0.025785976424410398,-0.026774210751467253,0.013304573028767823,0.0035254865580495454,-0.0006092638076926757,-0.028947959956908728,-0.03193351100809868,0.01190331743274116,-0.027926059024279824,0.014980248258037576,-0.01825869152397655,0.023430878332299915,-0.029193877121397503,0.026606785688707855,-0.03257029903236749,-0.02979115310046331,-0.02231288923880242,0.03384449729721464,-0.031059728733572933,-0.006428482717993674,-0.014884775033041107,0.009549382330420592,-0.0060398418875592065,-0.006766643346786426,0.011570577596482563,-0.0038357620483576347,-0.021413052818087797,-0.005636227724860452,0.03438906370090151,0.005816101551684416,-0.027586488758071865,-0.03062476205113093,0.022323249266108184,0.01628209820929709,-0.0273067364264158,0.02661633673028792],[0.005113917789886785,-0.0032105507512847162,0.010226600324809208,-0.030817284081486426,0.024671168631216354,-0.018896198043156114,0.033110930834875846,0.013026903633305713,0.0058805086636885325,0.005172118969278687,-0.013400688256831548,-0.02804322678982466,-0.02041653594886928,-0.002719768139355955,-0.030506691136857646,0.0015201193192091534,-0.032113799500338124,-0.0044837110537080055,-0.016128774762833455,0.02793701669165361,-0.005021942801790124,0.030437663762234956,-0.007165006078967331,0.001046939259388987,0.03463734432260248,-0.029577553434897184,0.0348953519201662,0.024869760151583983,0.005182588573657244,-0.025961928893460027,-0.022180528479984002,-0.006830744796741367,-0.03551995936095289,0.03267891898886094,0.00022474683134961651,-0.021725102280880433,0.0018377703154599414,-0.02495667215283554,-0.03385545197057858,0.022821479026698926,0.017180754302453013,-0.012241898366531383,-0.0196166563442852,0.018041345682123993,-0.028964471480402938,-0.010304343140419439,0.010973929472971811,-0.019359589956409684,0.009740837322378227,-0.023322635600317596,-0.019587041220725056,0.001711274177548657,-0.0008221517915036709,-0.02184154209377224,-0.010368701590744938,-0.007751410534418581,0.02863929101826125,-0.016315445386340013,0.01934870771916509,-0.03526473462599057,0.02717120118164197,0.006963505855730219,0.03453883828408295,0.010566803737496954,0.0023508608439274043,0.014739221583708315,0.023465140451864496,0.01215601367800417,0.021865928966044293,-0.02195334580728553,-0.006224614045750516,-0.03456181491267508,0.034106207951026,-0.01022244823224843,0.020632902752062882,0.0020367260300329015,0.0064387756033331195,-0.000027695212499566197,0.00603163623122551,-0.017340142077244377,-0.017561716807723407,0.023198868723395282,-0.034441414145290755,0.0001642209278865957,-0.01726588336867678,0.03165283991035565,0.01775888317738461,0.007882672658126422,0.018025165071349894,-0.030070030851087184,-0.025423346112399187,-0.028489997854334852,-0.028250482861733556,0.012783431034044933,0.027760790075161204,-0.02830792727034926,-0.02882074758741113,0.014220023876390162,0.021342885673602267,0.001012812758928957],[0.030863745377362355,0.012018523930184443,-0.028045159601337254,-0.018630960514012317,0.004124264448465636,0.003495602930785155,-0.017057466383102824,0.00746408775309561,0.032169252771581766,0.015399017411502292,-0.028010749164932083,0.021074881501192782,0.005016649804346195,0.02426771974848501,0.023268030736841104,0.03483183428855272,0.01720050383815531,0.0072852892772602516,0.028553807984913974,-0.014414370491256956,0.002135319010278408,-0.026200870094578797,0.03561820275517887,-0.005168636593992722,-0.004747979332891517,-0.03210987969027344,0.03504823711951528,0.009967175881422204,-0.028593802737158423,-0.027162797077549643,-0.017957398126112967,-0.013665733732914005,-0.004635399454964061,0.009796538704788188,-0.03003103216071992,0.031831032301727714,0.0031039882647246595,-0.0098019219336218,0.0020051957574667143,-0.02350246311093515,0.03238783946874001,-0.012464041973047521,-0.02296879886237888,-0.014808029721482053,-0.029532238065942826,0.005404456791552976,0.02274911439748596,0.01017969606485442,-0.0068060727533304855,0.01313724942404934,-0.022882761345805608,-0.0026474896424438328,-0.029320677462950726,0.00021659205632221194,-0.019305980431723664,0.009055366599664466,-0.0231094526384858,0.004548600784093708,-0.024408986816987818,-0.009966961204497233,0.000028893466201056115,0.03505427731634544,0.02963284748347897,-0.004663736969786161,-0.03507705126309143,0.020755899989042106,0.020101877716904862,0.0017830707754023139,0.005154824337094432,-0.03314203789047278,0.026727430728689695,0.023124033496298907,-0.03072874705946189,-0.00040970045636441087,0.002132643577626909,-0.03247557411120656,-0.025020609222005677,-0.023988915685526482,0.012063624863172747,-0.019519235877078298,-0.029093738919297663,0.024157511405190266,0.013082347824546193,-0.007149963498959162,-0.03428479431103345,0.03320739970921887,0.00887242048045546,-0.026905580437961398,-0.011808633015727406,-0.0009532564052924455,0.02306897827994961,-0.02250592741166969,0.010546082876376454,-0.026858782326459645,0.017776179485964765,-0.008198257736083719,0.011825815240619916,-0.00741758852537752,-0.011000399402729132,-0.006418361909460343],[0.006803227029204415,-0.03390280518651551,-0.020064260826435226,-0.0208714885847832,0.026705164892603165,-0.019352938132128787,0.0034692474219223594,-0.022358333094260587,-0.024649213181295537,0.024868601455905966,0.00787135169488389,-0.01721383042228159,0.01217533356105369,0.010878821402746059,0.029264500495270098,0.011439131915905896,0.00852105000986583,0.020085728135892825,-0.0039033908974251126,-0.004776848936156452,0.012169419062845127,-0.0318803318328007,0.025119091325016205,0.03552819094519981,0.014076147265975449,-0.019361607517763908,-0.02350135044599975,0.009190621001356597,0.008870943023767022,-0.016712858008006485,0.022947886842125644,-0.026251474286284677,0.004820574639272345,0.028771223326803354,0.02088308171560483,0.02914685536887488,0.01806035777765597,0.0084136630269219,0.034739973848920754,0.02174913016730586,-0.01963107985339594,0.02765583739332545,-0.01887913464845678,0.033260969750483454,0.02744818374960293,0.009602575437866651,-0.021500705035458454,-0.013127568394752325,-0.0006352121435980518,-0.03331042890385117,-0.010402588198946572,-0.004888036536840775,-0.02454812224182905,0.026501850504160426,-0.002852840570752235,-0.0035467409536714127,-0.02243736495275649,-0.024977491401277,-0.034894218949961926,-0.0060708103058832365,0.01213702669110134,0.02758823438501759,-0.025898791577951844,-0.03269342848679469,0.018393854480396075,-0.03235763354319304,-0.032057279170906415,0.021119451465657444,0.0053256714892698535,0.02016061516883541,-0.024446275837276658,0.013931565110750188,0.028883811819857573,0.01823007464778044,-0.009036172909454993,0.01790237376974424,-0.015143325642463533,-0.020779199504210245,0.007993069250547128,-0.015413909136767451,0.017826989725753587,-0.0345717733824363,-0.030286046960159463,-0.005010973776183155,-0.020584633830224585,-0.02332449856896626,-0.03007461799384498,-0.023059340774770048,-0.021784445361820514,0.013849347557246787,-0.030988370590121463,0.01285960497969521,0.03502671995449359,0.025612992856522448,0.02867879889496537,-0.015302730245882011,0.0056743717245160185,-0.003170390534366344,-0.03458534391683431,0.023193940768179735],[0.0035610619504247085,-0.035703567044079135,-0.00146851208843596,-0.03373152342459752,0.0008750302852995114,0.019705240938538197,-0.01810025611156652,-0.030066139929505475,0.017742318689827726,-0.006039494882564579,0.020558620909940806,0.033812474230337404,0.009288470782237174,-0.03505721875921117,-0.00820441282166852,-0.009701099181763371,-0.008956106996494479,0.017009358188753872,-0.03360532868421231,0.026376576900331034,-0.027521781073199008,0.016644539264255628,-0.01744258144502701,0.014205749757719306,0.03297581010132685,0.015934099261977554,0.006475989331697625,0.0281984498647501,-0.018852135817546155,-0.0341812136011693,0.017498389236680043,0.008379690490752786,0.010716229451888088,0.022227013131154567,0.03043034738726161,0.016507579837107968,0.024703349311611385,-0.024660878403158906,-0.008845995035462751,-0.029743868984321527,0.002578191594780984,0.01690777332805232,-0.013955821034488544,-0.006854006264188541,0.02539085393338702,-0.028387388279846236,-0.0261515873323247,-0.01581869853808653,0.03265157205836197,0.014188823113046072,0.021775392175503196,-0.022599020939877403,0.00265336687916703,0.01850634369050314,-0.025150905918957318,-0.010183317249459593,-0.020058657296067605,-0.01733763322310741,0.002892090407918566,-0.002919309746046098,0.006010185373534087,0.014799878626063133,0.03467489230655855,0.023563464970500044,-0.013916907754646192,0.013539538986090886,-0.00026077235460493167,-0.027798825966944024,0.03409984824276787,0.013297466876007647,0.022089351423067803,0.007849333139396297,-0.012231959279491668,0.02771753329075499,0.025248985418511827,0.015017886747265811,-0.010981869324744608,-0.003254876189405072,0.01946239012560278,0.033489193003804874,-0.01392475647871832,-0.005112737426442082,-0.03526010745335924,-0.021935552024790205,-0.003040907927546053,-0.03550475042240327,0.0076915828695642945,-0.03443032917013096,-0.015006339599823318,-0.012395761227952561,0.016268886788280514,0.012211453389666433,0.01826069007280075,0.018454679258497232,-0.008771004143418519,-0.027699239150883948,0.021711084716024828,0.0013190226520731656,-0.02825832223928646,-0.0014807376494318867],[-0.008993063924894294,-0.032538067611591365,-0.030389434614323627,-0.0027999061308168097,0.02814432044078515,-0.007526759591242222,-0.028842692227450378,-0.018969516225801033,0.02216959113790694,-0.02382002349204845,0.0020112492493704354,0.02547484970402021,0.013759952466188784,-0.00060344110180485,-0.009429610083485663,0.0071376095197718285,0.02544412252084935,0.011404738650850984,0.010232119908987777,-0.01566850168275778,-0.026302808101801026,0.03262532522104832,-0.027840702791081338,-0.019017628212274627,-0.02901195538102717,-0.010798092607960769,0.02084843957729004,0.029274814957680504,0.02841201213980409,0.029393688420946647,-0.02021288801148821,-0.012651945570545222,-0.011734377773526632,-0.03518995100319275,0.018731996505993952,0.005564790388822614,-0.03426963626323455,-0.004402871516703646,-0.0006996834582658241,-0.002233777203209953,0.006545983013712883,-0.012796856167517261,-0.012802254452879365,-0.015140614600312892,-0.03045655483131364,-0.032940962600187966,0.0032863679559472082,0.03435957670120237,-0.019649670559466207,0.02181698355468918,0.024170325048994346,0.009659826877432125,0.004292913902802217,0.02339674547998187,-0.03232601090711027,0.024837793923567032,-0.022905976222204912,0.019077629439391678,-0.007384549870937171,0.025859578921072792,0.011294553466150955,-0.02505286868608479,0.025490615045512924,-0.011878885547326492,-0.01770699407802242,-0.02643714324392093,0.034056226625891285,0.021721950931679515,-0.0008841539970292816,-0.019738776243666073,0.0025618957365035524,-0.02341526510041881,0.00643515445632782,0.01939609420854936,0.030990612163617186,0.015308817745620911,-0.012592195645536547,-0.0091292286112712,-0.03358494681392976,0.014810933852392143,-0.029739558466173724,-0.017540526133592117,-0.03440394084177495,0.02733806095793259,0.015954006313595625,-0.0004843042517310003,-0.024174955727761644,0.012838644714984956,0.03195313889103389,-0.013992882464857212,-0.021281174012560772,-0.025956222152098623,0.03438493279882946,-0.024671105096837093,0.023473952144282096,0.023075262278576644,0.02342369695007732,0.019473473107032593,-0.012043815342115577,0.029951325711925138],[0.0005203039538415685,-0.013540472750853533,-0.028994676539351737,-0.029222784499845358,-0.014755400519470916,0.01621939317926475,-0.034918133327315505,0.014920074266034597,-0.02214301757392187,-0.0026548365707205024,-0.03523076118064601,0.030567410791629925,-0.0356806703538839,-0.011523841474600808,-0.008308985271487978,0.01838262599974209,-0.007028465920073146,0.027767344925711115,0.013812098259805306,-0.025938846008641183,-0.01385909059581051,-0.00410607369283452,-0.0020600327928912837,-0.007166297641090105,-0.01126027626395632,0.004064553554057346,0.012611959036585579,0.019458133427387826,0.021793185751027913,-0.0010718943352738797,0.015594303248401838,-0.023916869659369212,-0.01806090671361677,0.024644124989035125,0.01899134760190905,-0.0332600908674496,-0.02949690474451095,-0.03496029792039738,0.01908536475478117,-0.026975402522217345,-0.025537511511776377,-0.011855356946126463,0.013863582282492347,-0.01967482217772913,0.006362450968769071,0.002859631210631995,-0.011075446108005994,0.011427141720154915,-0.021600211635723055,-0.020132983577415782,0.020357638421091978,-0.0030528071258759232,-0.031669298565534854,-0.001760327506664741,-0.010189766548507484,0.033195142811499434,0.009319343777869703,-0.008288170430660519,0.0055561750107825485,-0.0252791625305556,-0.03073425050431229,-0.002796170306388541,-0.0201145085285175,0.019078713474877183,0.024321698562107055,0.02382689060150157,-0.028794315875187677,0.03048344947127309,0.0253983390729003,0.014069148774728348,0.00949325797406397,-0.024488086165303416,0.018930504981091428,-0.01893920435597242,0.0016126870478053964,0.006907092222165124,0.035288099076070785,0.03139764447309491,0.01767218782443785,0.0033557693375715074,-0.03542465024489134,-0.01845436980860822,0.011429279372604755,-0.007577004629170855,0.029029912547344924,0.029925598166043333,0.02846453112569438,-0.020630026802155834,0.03512007631594656,0.011165964171244111,-0.006967584301417282,-0.028477490483880267,-0.0030700761751673213,0.022972513089168936,0.016329402685915203,-0.001949030828573466,0.0335560723238505,0.00843412374716682,-0.005481698421649636,-0.013209040805220706],[0.017002443397037725,-0.027847188560347947,0.021341600557170503,-0.018560927635076857,-0.023098877994481865,0.003892193972405114,-0.026154825561001675,-0.024159422559886398,-0.02212249472673898,0.031281467476190414,-0.012493463405614828,0.015341333735914503,-0.028551818875774005,-0.012729192744590926,0.028151379387687435,-0.002473362127023245,0.0006091463409942593,-0.004897917210282769,-0.0161994164086066,-0.0038623895071114144,0.03393476182802627,0.0006496859808107992,-0.0033404640552853536,0.028176888299996716,-0.03548902396806828,-0.034226376032728344,-0.019412177842572684,0.012408153821424265,0.020974408258397574,-0.008059081584964514,-0.030166052615957138,0.005390265934122857,0.008007169110737383,0.010497739084426527,-0.033150720731534786,0.02188247855585276,0.02423369686903297,-0.008086549746434142,0.029442413510785994,0.007713275693051081,0.01537146781712008,-0.027558869499102117,-0.014228750887160116,0.028210938002289528,0.01305619176013735,0.003523377539883987,0.002974061622008209,0.027192768228759493,0.031740709957190485,-0.011848675456640966,0.032473294794551286,-0.023517986084013762,-0.021732975381208084,-0.00890726586275797,0.004089174729154032,-0.001974710778280373,-0.030274637241982018,0.014019587713263535,0.0285520501880854,-0.022861686207601675,-0.025714484788317626,0.02233931853798088,-0.02203644722409594,0.03269762440685931,-0.0036898406582988566,-0.025509054903201548,-0.01295363261749099,0.012439569901396634,0.016909357877522582,-0.03200875080158096,0.025839308439795483,0.01872425360537381,0.01396933276379151,0.010136669723141003,0.0293895263476549,-0.022461540563146944,0.004629454680206841,0.01897459527045392,0.01825372430693892,0.010297576189285843,0.021214261989764557,0.027562885463376895,0.010180697566060421,0.0012760856196771786,-0.018607918967344032,-0.01218794683202185,0.006273980670294409,-0.012618854572052167,0.023413730172761615,0.03206910577697161,-0.013811445796449417,-0.034387660145519756,0.011996687429351883,0.0019468789510520277,-0.03239490973233628,0.007658433762353082,-0.0003545247312990885,0.009771652571856538,-0.029862394468827453,0.002240432228928944],[-0.024569289332605583,-0.02589461895854618,0.02119720276956694,0.022097997026649246,0.03483710392848078,-0.011310596946377946,0.01701084245662622,0.028684837315029275,-0.01139278639392,0.024160545706632813,0.025334236089641277,-0.01828053426379562,-0.029048538663275933,0.01923880781705835,-0.015371566749416561,-0.0003109369319902253,0.015678273578357285,-0.033007259326811714,-0.015106419735396516,-0.03401338063326047,0.0198858765630115,-0.015935133433810846,-0.021041857813773882,-0.02154340045426709,-0.022302191757384366,-0.013712889532464119,0.02781115685875843,-0.034283714368223334,0.026924517989993995,0.0018436071164656513,0.03154802185017351,-0.00010035345231736193,-0.022882337885189976,0.025548481087095322,-0.021777773168041577,0.022815048372626455,0.01475090211723597,0.0038618894449998875,-0.03311917927838189,0.03250425840344565,-0.005833766088463842,0.024688562954193378,-0.018785875340558363,-0.025384616319760793,0.009469505484017055,0.0034253586103469586,0.03071033194080535,-0.0069429911527775934,0.017940835736866806,-0.03324705198476355,-0.002316668055347854,-0.0009538625302345902,-0.030158208862448962,-0.0033301116079814076,-0.0274170795577053,-0.010808787475920923,-0.0014206569504512875,-0.020097884338524014,0.03277079239952542,-0.028461945210321683,0.026409717105261656,-0.01339669837063537,-0.02657530848919978,-0.007695226743585703,-0.03403792439269129,0.02434027073372824,0.0023146427813904255,-0.005056853816164668,-0.017731658197477396,-0.01709528051934026,0.0023398775255467795,-0.028406967245288444,-0.013671348770593431,-0.012712853524481264,0.01780094114352575,0.010842878509236797,0.0296358301544459,0.025868918545006208,-0.031011351281161656,-0.02704321044844046,-0.010583066990094777,-0.027209153935511973,0.026787758525550695,-0.019597727258468613,-0.02003045288861379,-0.0327915070227645,-0.00041855796836923166,0.021870009610316155,-0.005601353131023126,-0.015010024937379948,0.0029850437512743363,-0.007365266615431089,-0.013720523027040184,-0.02068977346572875,-0.01712304387503492,-0.023416101548054756,-0.007987808672611911,0.01659658846469334,0.009876562609202917,-0.027306803298610734],[-0.03339794845246926,0.019425203716445055,-0.035055197219881325,-0.035222737514190694,0.00017042293362223168,0.03069345164627787,0.031205679395697294,-0.021399459562589474,-0.015353306159622535,-0.002071757757231202,0.029674581451672805,-0.001898574296200354,-0.03275485293726067,0.028208715050291204,-9.571889421053415e-7,0.027623039266952056,0.030872871963190794,-0.018620594496398975,0.018310230619122195,0.021741319353510823,0.03017967043810404,0.010196361692492297,-0.0032042086538410213,-0.013529903816793533,0.0263425538411325,-0.026211964629523563,-0.013618764047292559,0.00044690034084945177,-0.030726127036412972,-0.03287811569024306,-0.015362775021488874,0.00295878145851986,0.005658163453243442,0.03417507345959071,0.01592784079011342,-0.005980537471397842,-0.02939751372905552,-0.0001848642552932852,0.010386140561936584,-0.013714291797519249,-0.0045902760928587145,0.016580759413700467,0.016095394254894584,-0.015575196919667134,0.016657554424737618,0.023130002233197337,-0.00934190149748029,0.019142168900144356,0.017355942891109553,-0.02719148021884991,0.008309329593945031,0.025245187835653153,-0.013977933500833178,-0.009896625905446653,0.03262631620811741,0.011620889848076951,-0.002990263828451084,0.00039933227099075736,0.02225583261390131,-0.020610733824209502,0.01607041499801634,0.027798615261004925,-0.02333432274630478,0.023362753233282525,0.02111785449730133,-0.021418997624764666,0.027219160831911983,-0.027650398325591408,0.016085060652438952,0.014352309484946804,-0.013230053818969743,0.025015457824928342,0.03011455722838489,0.005737202778010909,-0.00368015825383131,-0.033421264233800665,0.01861186769802957,0.024441283377044806,-0.01021757808408873,-0.02247252043527813,0.008378070997239535,0.022077474551505175,0.012709822933686945,-0.0045120776968214215,0.0010356768064769934,-0.020217266966339364,-0.01937550882482127,0.033212749387576186,-0.020026391417214635,0.010867618907179438,-0.019990647077327135,0.03313462732628295,0.03242459000319903,-0.023685614404775686,-0.0000881319297207985,0.0015866139785216278,0.034544905327103484,-0.034992568283735585,-0.03254542502469799,-0.021675542677100684],[-0.007620793000308598,-0.001781098253016039,-0.017327240569455712,0.02379271987424805,-0.01286915823835997,0.020292814527686533,0.029039535043368703,0.03503563109842294,0.02860031728634226,0.0012602754387388703,-0.014571286195108267,-0.01842720196489809,-0.02006396578642838,-0.03353895019905495,0.00276672282977972,-0.02567008193435202,0.02119543689965656,0.035152910975022766,0.028479760679212093,0.02281346112874928,-0.00580397176463093,0.016171141268575044,0.03082878024967105,0.017306070551775264,-0.005549938640264006,0.0027292702116811654,0.003227080803418717,-0.03095030368066103,-0.017489132068618542,0.019822342965350626,0.010827119129222577,0.0009258787606813079,0.023623231950519925,-0.007157528261385548,0.027411220709341065,-0.02578742823394586,0.02424564109012799,-0.003040097222903358,-0.014534349559675846,0.007506733067134389,0.030408661820291345,0.029481006086383214,-0.033798798910347,-0.01293040249372194,0.020833193276257586,-0.01250125124753762,0.020029407886999542,0.03085282362393192,-0.02464643325670425,-0.011421547703794473,0.013872035926993452,-0.02585775485535957,0.029260776641593305,0.016794269581322428,-0.02053271949563553,-0.02542237302732952,-0.019798295173180033,0.03398092117498005,-0.023923467084619326,0.021137740421764757,-0.018567602568151053,-0.030474212459314802,0.0014307528429615226,0.011406427084762841,-0.005789976774629564,0.033327007135308936,0.024694101507007335,0.01966945695067687,0.006137160893505155,-0.011061946148405572,0.00409455841282257,0.014773581749636638,0.014808070271441638,-0.03315816259007567,0.0346091991659872,-0.01745913282763194,0.003310729759739411,0.032151826717832656,-0.025877057839648377,-0.028904300780414508,-0.02084898807581816,-0.005888466080062961,-0.005153708634315699,-0.035637711792076796,0.0038007472752266892,-0.026112121808196418,0.019866754837735954,0.0071436177958137705,0.03417739543239347,-0.010637944043560176,-0.010341320416067307,-0.020759308569324737,0.02378285136798097,-0.035304046276977356,0.032328083623363695,0.022938403892579805,-0.008746009214576127,0.014757298674098213,0.024164909641017255,0.0033874484082490677],[0.02881330753262281,-0.009291179856626008,-0.0033275091456035993,0.003381214356262046,0.010133524325291611,-0.00856379349489049,0.03530643946027014,0.03344399738819153,0.009793943469672417,0.028714988071146277,-0.014594894239534625,-0.000328151686379728,-0.03192437545335063,0.019224495327873434,0.02925359706737198,-0.03081586165107709,0.03547622516373197,-0.003973322835492027,0.007695193776728984,0.02374246912247282,-0.013894385173016848,-0.0018075768927731878,0.004249766729490682,-0.019663125493863762,-0.0140262549926623,-0.03534995310440254,0.008597847240471858,-0.02246039718430496,0.00023392764123764156,-0.03356244965440291,-0.01139035363440095,0.02718341894360203,-0.021153365532920392,-0.03145131653046505,0.03543902874942082,0.014321112101481041,0.006178691075712058,-0.03243671782127959,0.002524703907893363,0.008026681463028422,0.023324798483724075,-0.0227909933393638,-0.019082984554155802,-0.016847521380247844,-0.0048552449061363455,-0.0013750508858655689,0.015987287106806275,0.007287992124327443,0.017152174740370698,-0.006809289204671873,0.010864478140674556,-0.0018601814320747632,-0.009776208931499499,-0.003811199631576067,0.0007165626480823638,-0.02157458003041814,0.0016157495403905332,-0.029503436279155148,0.03467774060507681,-0.021151523622446555,-0.003053030316522436,-0.020966095239520147,-0.026250140620103543,0.004701220594319976,0.0008419071020270701,0.017280852451348364,-0.023289427398141334,-0.023987113425759637,0.023072671705111306,-0.002980649028777009,-0.0006960072822721438,0.012417442297855349,0.00884811422862721,0.021722018238347445,0.006142126103660656,-0.019223668731232862,-0.0015089849205809473,-0.0034024901648409523,-0.022621190752725277,0.002406563989932207,-0.01945015221080009,0.0203828603440044,0.015928806589966888,-0.0188675447931687,-0.010926059723042643,0.03235097084459854,-0.02041000810944254,0.032175323062728384,-0.0023171877935197573,-0.0032008484548719848,-0.01060915130011897,0.030509947876908562,-0.019723307550701782,-0.008227781948712121,0.012745127012806012,0.010575411507113882,0.014185730486588709,0.005452775284128315,0.00403930282895286,0.023027543019615397],[-0.004361912140554163,0.017263855328799777,-0.028775835993391143,0.005114713127949885,0.0057441450115349535,-0.034567567339163226,-0.031201022605681587,0.02988584651393554,0.032845311401470005,-0.014440343147152543,0.021740666077104197,0.03319697004622252,-0.02585902905488701,-0.003486137062902106,0.015933306869484274,0.010125122400655885,-0.006169383503577595,-0.013225241628314056,0.005330705613855816,-0.007431737704693205,-0.01627354059223187,0.00629908369782604,-0.004498357081416719,-0.006886594565499427,-0.0020260551139890323,-0.026948093718376673,0.02308248641234318,-0.02213914012978846,0.0352041607069809,0.0064887123815073715,-0.010145140095640388,0.019899791511841822,-0.022329932165036443,0.03568483343123611,0.03197438509280674,-0.02055345047805967,-0.014398567025998366,0.025107020791469488,-0.024572941817367595,-0.026709458204840643,0.029599793552448204,0.024993015721934114,-0.005844937478827586,0.03499816827504932,-0.029457142546685095,0.021749866279125722,0.019566227499042264,-0.020892778410967622,-0.012308513470113334,-0.03410649716878583,-0.026483282634228673,0.032607526845316516,0.022832651845062366,0.03314148403795875,0.02122967307934437,0.01074965303170037,-0.010071611542133277,-0.012780468350553367,-0.00865948090777259,0.027935664476238693,0.029248414993407603,0.010804393437073881,0.02599282842122068,0.020733393572408564,0.02732084146901775,0.005252290931750391,-0.0274077068944584,0.013551968959821052,0.00848572297401416,0.019564327296126265,0.0005799101294588174,-0.025942481476864305,0.03441197448988229,-0.027214777617514,0.007557538648290895,-0.009885677424824556,-0.006272093478239919,0.016398380560459343,-0.0012047328440356483,0.026930069526478147,-0.03224389012950565,0.031787937090327935,0.005278389974188614,0.012554250978589828,0.026253973766570335,-0.023138877270728397,-0.002048137570786537,-0.00915072183674573,-0.02385542775541006,0.029413298786458236,0.0036709755533453903,0.015005630036368333,-0.008016580735690131,0.03046708797334556,0.005587382633296774,0.02263933080088816,-0.024904431796899835,-0.027260432778298538,-0.030930194727775064,-0.015263434801761702],[-0.022685897028684905,-0.00726646771632468,0.023995953091185847,-0.02055654680696755,0.028572913897704808,0.01043967722777023,0.0018155338237253512,0.0005314936286604511,-0.004000438760635881,-0.02806057235665393,0.025680973677362315,-0.014615798473134057,-0.03127146863052212,0.0030647285678418834,0.024816488256014502,-0.014277146625223065,0.014031874822655766,0.002908933838640459,-0.03350560190476921,-0.006742684720457,0.02780164674440187,0.005099073256053098,0.017671516246709207,-0.021432738379580457,0.010685561788251351,-0.01823041295148172,0.012543629884836134,0.015567743089460198,-0.03139780055465739,0.010775401294515527,-0.0027573788482738205,0.009925990039334464,-0.0036832008758225167,0.007844491803170314,-0.0346669512695418,-0.030365782623204513,-0.0009194486684641242,0.03193688850527968,-0.0108889849351527,0.003928183799234722,0.02772221589445046,0.0018511458574142314,0.03436815927827692,0.01368276210338419,-0.011583481799776129,-0.02592824428776087,-0.013682455356984504,-0.011233766631226853,0.03287187999691633,0.03399728754313138,0.01955903956860327,0.02174646775625444,0.008395623767641225,0.009159809401629538,-0.0014424420571901681,-0.007863961280523251,0.012893305846724159,-0.01937759107759943,-0.025701291044576254,-0.0005320637047741724,0.006179090713045613,-0.02169831875943211,-0.0039461128060075176,-0.017110642001003304,-0.006664495635870874,-0.023453128490469814,0.019147466190538948,-0.01391538192222136,-0.014840128369732137,0.006828315081435074,0.009243537052792454,0.027763723294114258,0.021337966562865233,-0.028504916880182817,0.01308719222350147,0.008293783840827414,-0.028833578221700445,-0.031112867620440236,-0.009328262320577369,-0.03562395207170226,-0.011099889590238434,-0.0021797042957719956,-0.013342716917185044,0.0015911758838632994,-0.021455981295265387,0.028312446295711516,0.0035175509010600334,0.013720671834741639,-0.009958860969407096,0.02551260363431113,0.019517371418387677,-0.01925986039508489,-0.003083326924806748,0.02025203819354246,-0.008147637253730876,0.0016390670160820622,0.015449802490920388,-0.008436486604875632,0.030140521185197736,-0.031044744642828605],[0.019848798973897748,-0.027050804590922833,-0.005148707005450344,0.009705611657473186,-0.014388300277632273,-0.026242909211510592,0.006981896318619256,-0.015572867297320284,0.025792703929501403,-0.019611698297770236,0.0015113194091334536,0.0026944158506007417,-0.015451993956450671,-0.014427239359069128,0.008046427641581864,0.011442320727886663,0.02982063978066779,-0.00946863879596409,-0.010816119583048091,-0.0038812623833213763,-0.0214367993858317,0.0010088729885805922,0.016571356096849878,0.01745725336300918,-0.022007975253168163,-0.020768319690671475,0.004776043719948571,0.020852116557173304,-0.008938096101364972,-0.000004052996081384416,0.01400003899856545,0.0003648361806141469,-0.010773379137234864,0.003053189056207555,-0.013012625077644975,-0.022030750559546966,0.021307728616733735,0.03299195133156698,-0.02693715866065906,0.014099616211726633,0.001181754181424013,0.03130453709730504,-0.025883638697606914,0.009929556989227494,-0.013907020445885232,0.014488142194787711,-0.02765152995412908,-0.009138361532978416,0.00377393858384083,-0.009403355534689947,-0.020812493254705633,0.008562680346949732,-0.007425096074525582,-0.013133741177888115,-0.00452182276908884,0.022200868825800947,-0.03113094027535345,-0.013553715759711562,0.019890286929735393,0.024984947257221606,0.013122719665233713,0.018521670124363558,-0.004506987154477834,0.017375233287741085,0.024600837321228725,0.021517621787472314,-0.02662579596484635,-0.007428614350679345,-0.015686781990234946,0.005906675820031216,0.019111647359602014,-0.024011097373754897,0.020922816384126595,0.011889339260302315,-0.03389262816854412,-0.02040866312818378,0.027935979380350754,0.01674974520391273,-0.003934668257863711,-0.012823341389042398,-0.009436288126583684,0.012136642109803305,0.014521266142749841,-0.02498998243536428,-0.0329500778204857,0.00887154582823154,-0.02782190771938394,-0.011087002025533883,-0.032316314643333746,0.01706880737187108,-0.011030541958171654,-0.00201546327422205,0.015013596399903528,0.029707811085655917,-0.024958907113603893,-0.028137966594159586,-0.01795756168871777,-0.03558645276924502,-0.015750090806258117,0.010945033488104933],[-0.017017842652808434,0.035248574106332115,0.020492357051869626,0.02955666513518869,0.008184760053877544,-0.01116166050102149,0.016456022463403018,-0.033347310273387075,0.03311478183050797,0.031133883770371112,-0.002234782157094757,-0.021968614809076605,0.012298421447627791,0.01629544385813021,0.00024414685708568453,0.02276064627822036,-0.02226981458797714,0.002994057100141272,0.033000790229577394,0.007853001407517796,-0.03369465325257256,-0.00532445151657978,-0.0017601482085450786,0.033546756256037626,-0.023871802517161658,0.005830649095758149,0.026416256782643345,0.027362502516781576,0.02581630104595042,0.010796773511379249,0.0077349827946986485,-0.029615159147699122,-0.024847986920386995,-0.008773150009359115,-0.011987485008794983,-0.01025367302377045,-0.010057520970900761,0.027403733946379516,0.01260397048128952,-0.008353194622830237,-0.029709692445874746,0.013367961006939372,0.021924074668671214,0.009301208087056615,0.033704569601668115,0.0015462924051930377,0.030669671152355176,-0.02309165531736031,-0.035551798836416786,0.022893061436098473,0.02649844904131065,0.03454921265943731,-0.010951568492965035,-0.013870046555597204,0.004980266645732658,-0.03094626219297308,-0.009646166639128474,0.005651961645333889,0.010963273492032995,0.007871754360907668,0.0166765662378872,0.003787618117008142,-0.020258793165854574,0.02408763023516847,-0.004565170295871107,0.03529258886311408,0.01675824771394833,0.03540128091110441,-0.005255799129089073,-0.018141032706785087,0.011920503495548308,0.000837947562704493,0.034763029320007556,-0.01145912038391977,-0.022695107861618383,0.03564296068250504,0.010506642123565198,0.014918217373293378,-0.003581385116550432,-0.017024185979538694,0.032986994408296624,-0.03403489847702018,-0.033813433565957625,-0.009840272029379354,-0.022850355313414793,0.0232461352104073,0.0122117690597836,0.026019509438993314,0.00273042493004538,-0.01989988968429096,-0.017240392305017883,-0.03244101478470682,0.027547494679953,-0.020590792474551443,-0.019433650862457002,-0.013766769952462747,0.02576785051985166,0.0006481793696104589,0.0033092367276279476,-0.016259633454615997],[0.03563115852158813,-0.012616187015757728,0.017584743345636072,0.009024337647170571,0.02337349425563909,-0.024129304304705973,-0.027059316866033082,-0.008075824405726247,0.021670255651430034,-0.009057903448569132,-0.02420203794837527,-0.009587882624090448,0.022562711787191183,-0.008867641532312539,-0.03069468982229164,0.01889113485967535,0.0056077136391947625,0.029874147155757955,0.03198686050925305,-0.01337895893356338,-0.03152706859820066,0.01873847528499517,0.013137325706144492,0.009466764945366945,0.015166341594456307,0.012471306135047325,0.02939145846700978,-0.003459341246159546,-0.010306843773541383,0.026071212827542132,0.033835580291528625,-0.022303333663301048,-0.009308654217326,0.020009583106995844,-0.028657351958502893,-0.0310420187930295,-0.009612995219559991,-0.020223323091090217,-0.03094423882406458,0.027794744712088156,-0.02581311118739314,-0.011865724742222175,0.009623212434061506,-0.0314723261345509,-0.033751212995277544,-0.013123230102448551,-0.031567492089093076,-0.024320620722062397,-0.023279739627845682,0.016415127600271973,-0.030708124512309896,-0.00008103018256069993,0.0226521609849674,-0.02417392051903512,-0.032895667001231595,0.009934418572708275,0.01123464548919761,0.025127156183766295,0.009615729178817223,0.023072355341707967,-0.024680917866367464,-0.032922278954043385,-0.020321977410448562,-0.025888867714493263,-0.024488920334921845,-0.01777099224513828,0.03482674855499365,-0.004121825739455644,-0.009631669075276203,0.01992006038315225,0.006494745704458423,-0.032405157847930764,0.015620078499722696,-0.01851609358598103,-0.006841446383848205,0.0018717047448145012,-0.03192410558082777,0.0032810679495540954,-0.020832381828265554,-0.028527839197720894,0.015642322516227103,-0.032026453513030774,-0.014970948778948362,0.022670096945956748,-0.03330156300422271,-0.030081822313375653,-0.025575410410045876,-0.01318421847808548,0.021240108604284817,-0.007016809566948614,-0.031452867675247374,-0.0005733981070001158,0.009072509804923747,-0.013109615762614737,0.027643424971344484,0.0010258690489178771,-0.032700727518876205,0.03488449258907638,0.03540828132035963,0.016857874169359646],[0.02553869140222548,-0.0010158464254048547,0.02858861423714334,-0.00526410140014122,-0.012260190409806426,-0.006633405735602437,0.02831041607531125,0.021785477984993536,0.007522133913147081,0.007184637117314132,0.017421167687569423,-0.001378685804923824,-0.004651552925045649,0.019993554157447836,0.00389142377062409,-0.025581563692459473,0.014483193758496458,-0.008823559779130474,0.013987395265553045,0.015323994942200773,-0.017088522379494923,-0.00935820900861565,0.011321903321041644,-0.0012091095521300158,0.01684517830602431,-0.015123807245095188,0.0350616148409136,0.02348950868665937,0.014547575025773144,0.031071247761325513,0.02029445995051197,-0.012699296798466729,0.03465141745367954,0.016660591904508422,-0.032057274594216124,-0.0016726687780709328,0.019484345211089087,-0.029090458360126928,-0.034028086738149534,0.004483741978165926,-0.000975035728461773,-0.032957507400192675,-0.006841019491898558,0.018097380013632872,0.02700904782724983,-0.03129911450600295,-0.022900435917963178,0.034472737509424506,-0.001141019821174235,-0.011623377034701924,-0.03278875633132096,0.00655450624727935,-0.028788106177924343,-0.029415069425541097,0.004058711407137612,0.0223752563383372,-0.032365818525355756,-0.033419307074988136,-0.025855802316619332,-0.01982957351294023,-0.025267385232749035,0.034098378060602536,0.031208273239817497,0.025133294148348206,-0.01944757738034672,-0.0337548120761756,0.01348251224844764,-0.025782210247494497,-0.010570889239462181,0.015010005650413787,0.007216235256550501,0.024074192587978768,0.01308475233013479,0.012453837859955205,0.00901160469338898,-0.01304302698083074,-0.006145962470660167,-0.03306761472109143,-0.022622066326337124,0.02707817932085789,0.03561500891321428,0.025614962729219322,-0.02941520052495093,-0.015493910849155669,-0.002737259705304705,-0.019206143070690348,0.028971686662706074,0.017442532826587708,-0.02191136563675179,-0.015372723106559977,0.014722906177478557,0.00015189684591274564,-0.03016935216192132,-0.028626857311744854,0.009119586519620991,-0.020518424320838485,-0.02519695156565105,-0.012672098838555636,0.024591265459996695,0.0259365285317128],[0.016316818161074203,0.02503269776995633,0.013905306119553526,-0.01270475575434896,0.019567462175036483,0.006135113255254619,0.02821900007997011,-0.015980256154386103,-0.02959937945859759,0.006620270583245591,-0.03552953031617177,-0.009968307128983748,-0.015720289149347443,-0.02200442557398283,-0.0028098020166111397,0.014559530334026217,0.025571011852276587,-0.027551835422690706,0.002841482335676839,0.011059360046147973,0.013371388963814351,-0.006455717492761771,-0.009015552872118748,0.020576957376393024,0.01632618524908908,-0.03344397279316441,0.02954034945530846,-0.004771862514993874,0.02765356691577792,-0.0185394593650813,-0.010126203979650607,-0.012157739675658957,0.033126152990809184,0.0017583963173182949,0.017454071815157183,-0.02043127037963078,-0.009957171558858984,-0.017441506504457874,-0.03262268971978464,-0.003362571480791753,0.01859236400177129,-0.022182289213189214,-0.035098307011699165,0.0031589265271117486,0.03429871557811452,0.01145253974266828,-0.018393987832356063,0.018910848339275824,0.00024069815849338253,0.0001424835936313095,0.033082505674114616,-0.008318504117752958,-0.004408132758516499,0.003708751368260379,0.026320115065379072,0.027919564932330613,0.017800344225754685,0.010045733022375438,-0.01780864562329953,0.006160631090100553,0.0056437073497378545,-0.025659198049884212,-0.03044012774610484,-0.031912422821238635,-0.03541716441997256,-0.022839944633924292,0.021897602222172928,0.012545001325588341,-0.031222570009103945,0.004489783541487634,0.027318699709337733,-0.009895243495646388,-0.009356368260657501,-0.02885239300099507,0.03568717142987303,-0.02167091489601247,-0.012495625398980388,0.006104533365859457,-0.03441161597876829,0.034721277079135124,0.02538206140364832,0.013705558720189748,-0.011109431403291936,0.003820085185233023,0.03415588719769188,-0.015785857184584647,-0.017309323450608118,0.034723716569324214,-0.01650202433863863,0.02907351868610719,0.010627313362594195,-0.011385915832323715,-0.025088602748539038,0.008426119719773553,0.03537205115046636,0.026959945521978276,0.004161909066038787,-0.03173418050585753,-0.01454535810624372,-0.028552376761366564],[0.0001298578081000957,-0.030475294817463368,-0.035174565155886885,-0.03265906004503652,0.027702667065073794,-0.03327114052050797,-0.005856257927790695,0.0013966452135309574,-0.014263287086424247,-0.011548574765726526,0.0233604366029516,-0.020142923718600186,-0.023401851836629847,0.012456832302198627,0.023114696496942762,0.01986005459485489,-0.001532895527773259,-0.03222839430956407,0.0041861919316006175,-0.028658430304840683,-0.035381552508466606,-0.015037613215185302,0.031423370351068104,0.02813182878774403,0.015680051251704043,0.0027668812592754844,-0.002611668743394942,-0.02318031416801989,-0.025837919308025484,-0.007273497381927823,0.030327473526842275,0.01727100572967304,-0.020708886336454176,0.024227708527343527,0.001226167148673317,-0.030107898489895514,0.024007469702976868,0.023442171444611068,0.02744070589348706,0.01681767067022065,-0.012762278147904838,-0.010228543865029088,0.028839719645017678,0.018676744788840023,-0.006143018779377706,0.014804749750376987,0.019659871391040907,0.008569889789363528,0.029523362657977323,-0.022747606978542657,-0.012760006595234304,0.011850390561773802,-0.008444925217709906,0.030336699361539834,-0.014470024647867232,0.01932959377272349,0.025955685739359333,0.01664996331977083,0.03478998127853088,0.0354484526006328,0.025791984157674974,-0.007859562349455753,0.03331728759301845,0.014925660270410866,0.001985954423886295,0.0006232920591856771,0.012600828881853153,-0.018531538183878937,0.010667971710545489,0.029991376357396935,-0.0058138646479241425,-0.01924051757464322,0.02349754454230203,0.006709050940784978,0.02609758276732493,-0.006030687159369424,-0.000018108449504612897,0.02136307055969024,0.03184488392096463,0.009911232593072344,-0.011236097663511415,-0.007461844421085329,-0.013465841962088294,-0.02158066682189498,-0.032453914670154176,-0.02058566038461881,-0.03013964783805259,0.022053029410693932,-0.03340080492875079,-0.0262378259770274,0.034289506829819835,-0.002212308176843884,-0.008482704490251642,-0.00001255767968913226,0.0079689360818967,-0.027938053777784348,-0.00966580833513896,-0.025495138449491108,-0.0019861749963792914,-0.035010036267280734],[-0.0246857499283535,0.006487526528380646,0.015579943279309517,0.025608446742865252,-0.0026074539261920346,-0.010576253303590747,0.006483741144101725,-0.009998643068668635,-0.018892263678469984,0.018799800789425735,-0.016868864773857066,0.018091668361828107,-0.016477753437176453,-0.02276799545751467,0.02004010602262562,0.014575896895773354,-0.014869660395764626,-0.02142747152005848,-0.033785282726479446,0.02522567384802501,0.035824200697948734,-0.03514060282835722,-0.0007398840596908713,-0.010364203145412513,0.013472665506060454,0.022121741215074982,-0.026336619102453718,0.014055533141191106,0.00877558037185046,0.012458745851348837,0.03521444406189172,-0.00044185208420928447,-0.02749577768588334,0.03777900976906191,0.016549609309167233,0.02591332034446277,-0.025758625071357625,-0.0037535747055669343,-0.00954171577290813,-0.005978798805903502,0.014552832583146455,0.028291427375474743,-0.019402227023274512,-0.010698248124210849,0.0154797068680162,-0.006983536992078148,0.013641195642440837,-0.017399714448655377,-0.02874907748811311,0.007067732424734663,0.003665435362508436,-0.0034789728890835853,0.007893123409615415,0.01900742662722522,0.02468272993251724,0.018105837067489073,0.019114378161859187,-0.0332215120325353,-0.016020568461248018,0.008960408414541068,0.03619543510901276,-0.019170440541926608,0.002844759489930438,0.008294108861203851,0.01577362950134032,-0.0013378761280299731,-0.007186392303684491,-0.004234640201791586,-0.029587064057668852,0.027366729633749802,0.027712342128162065,0.01754750198040932,-0.024051263335817218,0.015220459006661644,0.02366647297259588,-0.017786948118286256,-0.030844007570876047,0.022710770094590223,0.021584304340246125,0.015631657441412327,0.01391634037007686,-0.027768370060432104,-0.026538474808909165,0.02827989832622971,0.03391466213551684,-0.0025533201047053763,-0.035407239204795396,0.001358781024911598,0.020213279443805295,0.019668605894789446,-0.011240829852179288,-0.021682947487802126,0.027975086321234202,0.014765346385575449,0.005979817998534182,-0.03133979880821995,-0.016908955880224605,0.020588207788075106,0.030559336766056558,-0.028257030817897304],[-0.004732746138928148,0.03628179520122284,-0.016214553087696374,-0.007554635396456922,0.02777803797417926,0.019869277007805067,0.011488035285742644,-0.03136307865772302,0.03389705645894896,0.021092528437823926,-0.0035261641808666134,-0.030239717071998008,0.0004825352372844478,0.030335823566711086,0.005035670954710226,0.029915366518486957,-0.0035412221657319695,-0.008805909340375373,-0.001191642007082347,-0.02340093346520055,0.012134418386913174,0.006818275159780126,-0.01884085294310051,0.017577319040314617,0.017508095914600664,-0.019149004248540474,-0.027844917064047996,0.02758642022312234,-0.011138873797791837,-0.026764678112222245,0.015403731645309594,0.024702123690749384,0.018958770061822047,0.03639729032852855,0.022120931410403652,-0.03254077638204646,0.024220630021063387,0.028047681016872307,-0.023626225168592092,0.03346288512822964,0.028273162050365428,-0.010551775205250498,0.020016810470209593,-0.011416928773890913,-0.037068348991087546,-0.012502630866266387,-0.010009034706117413,-0.022396114360689563,-0.005123108690046449,-0.00941617087788095,-0.01731339863215433,-0.0019414363423437232,-0.004247095187113814,0.034159811986431726,-0.019016205962400324,-0.01962485218197496,-0.01777328719853701,0.004397254098686871,-0.0053651390598581745,0.013335564143360956,-0.007298759564589502,-0.008075087871497891,-0.031758351708735935,-0.03110080283751435,-0.029652499567526802,-0.01385955283597133,-0.023975034164189803,0.006023718210728091,-0.007244287464261637,0.003835254838012199,-0.0025981791598937458,-0.018292396601116607,0.005181750034709858,0.025026269049137684,-0.0054448878897808296,0.03090464661518058,0.030105306361643658,-0.027146920888357094,0.029473945734828748,0.03671303554074262,-0.003229973307766574,0.009292544178177016,0.021329708101982054,-0.009130736928499679,0.033158899417047756,0.0240012740118774,-0.010893753055797994,-0.028928544660691037,-0.009339480154854496,0.009316454830616452,-0.025383501647972623,0.030831335400013427,0.008225777120046435,-0.03023875853233494,-0.019333875252938428,-0.01313660515379784,0.030623853692407086,-0.015446810179012692,-0.003775093804375434,-0.022472827973945893],[0.019228811063145453,-0.009336557937441705,-0.0346031445021781,-0.03340356978047512,0.03292447002128072,-0.020826102839927012,0.008297806981023498,0.00913709687113262,-0.011961986755343159,0.00884114201060999,0.04551239278804859,0.03257780036961264,-0.0397490292705498,-0.00539828297434418,0.0188908582670906,-0.009775265700703658,-0.014278059655701716,0.03128680801375132,0.009982116588508321,0.013979855034634173,0.015761593760398627,0.023915099992231695,-0.010989848368624806,0.03200765550456099,0.028186368343163355,0.01970844492268762,0.02340682402284956,-0.014419293442144513,-0.01997871608294713,-0.012083045613195693,0.03445987751742447,0.006151102212289165,-0.03237708779203432,0.02524086227759682,-0.01958069541972669,-0.005998304626724293,0.010563659496891326,0.003759139760171586,0.034887848934963606,-0.0040276091758785675,-0.01678092993263266,-0.0018633716370642247,-0.03599838638741083,0.008656667587356691,0.007203113282498371,-0.007163402618519945,0.038963966046273016,0.006163205122268778,0.01662568184513243,-0.021071801804349304,-0.037406781637601194,-0.018209129262139793,-0.01422481722760975,-0.027825785410702176,-0.031959829963235174,0.013398885543314212,-0.02647539795823111,0.007796107743129145,-0.017096102419650216,-0.00698417493660563,-0.02313777715132838,-0.017572423573502777,0.007503775550242547,-0.01865574207978466,-0.018820479586654955,-0.01572990049674664,-0.03458870090702961,0.03281080512459951,0.005472143901291726,-0.00044027219918210653,-0.013583910985042481,0.030322624826004282,-0.019844795343714097,0.001445128772370625,0.028989819576261767,-0.006348605143077645,-0.023542432118923255,-0.023778158894226197,-0.006467309747524165,0.0171990327040506,-0.015364969817899877,-0.037975697762031614,-0.005061542565352307,-0.007009678288400445,-0.01868637193873828,-0.028756778349519976,0.01856621111426694,-0.03435164643835437,0.010593637032445997,-0.002881449173871813,0.01649345213361619,0.004811776331613948,0.01159613681842773,-0.013034136444821601,-0.01573408638891091,0.0084680267647449,0.04672499628966539,-0.0061054114794642424,-0.03526777676076313,0.037541612518441576],[0.03470648878278884,0.023594946297630936,0.02587732519394413,0.01579263425242513,0.02941217062959588,-0.018771351463851726,0.018961536494943504,-0.006919502649554632,-0.016292258641045616,-0.024633439632049593,-0.023076064899691297,-0.0019546879225921785,0.024285995173810047,0.030079668717243983,0.016847542126929023,0.013802515022709435,0.0209096839439472,0.014422641920676854,-0.020410339140204712,0.004665857485471735,0.019975294095190946,0.007781244531152877,0.022890977772711756,0.018834079007038106,0.023902295736592524,-0.01448947233660306,0.02572913363666393,-0.025862988099854354,-0.005832272172840792,-0.023783247032341193,0.016624888460490924,-0.002693323755878545,0.019390055353960656,0.017827677472180954,-0.003067951402809092,0.013085876028498804,0.01449248427655204,0.018688068963856806,-0.013438689572632544,-0.03514775546156878,0.007941802641525239,-0.013259471538895413,-0.036385377979490686,0.02992728156436193,-0.0069602640415255684,0.012456068332596375,0.024759441173765204,-0.011714159728032521,-0.0017351979564560424,0.021701234554458344,-0.005708763402740365,0.0030343792556770206,-0.011399689305162603,0.028182831300965848,-0.02258003481543296,0.01395292623258253,0.021557353386164567,0.012207545947183976,0.008753153924751981,-0.028532936401057557,-0.0302092720012591,-0.027172472841719135,0.02862688467015091,-0.010800257684417516,-0.026871744158489943,0.004016632275015926,-0.022473344151953904,0.010370319330897926,-0.006851059176454592,-0.03208703245392445,-0.012363308041986654,0.015407462368304804,-0.028080032490896998,-0.027443740208231253,-0.0013204109776582056,0.03344479213677955,-0.03026048272514948,-0.026905375273685556,-0.006384377778680385,-0.02117139290105941,-0.00680859161125441,-0.01782732310726676,0.03482015124714778,-0.009253312118375755,0.030810390597634085,0.03183715903638668,0.025267361822917278,-0.012305317322861862,0.002396642736440013,0.02046127466543644,0.02746969165261642,-0.005208989488013693,-0.0339913103134212,0.0018840329284869914,0.0038463281901715586,-0.003958047685664934,-0.0067368162149584136,-0.028661619496501544,0.00262003952065815,-0.004661779500933392],[-0.002268897162320764,0.026422800777454486,-0.03581819771844808,0.026517077108148764,-0.024518374021603253,0.03494352365985315,-0.004240221658578789,-0.023618029774998658,0.002596480146078056,-0.03315551141698021,-0.012353168203304043,0.0015535929634304568,0.01653258842997593,-0.031283479365796875,-0.00012175868991296575,0.010321650318394781,0.011451219512412413,-0.03271154891376809,0.004893687385318531,0.0328851212828544,-0.018999417585014177,0.023378781381228137,-0.009610164117585591,-0.02819191707919752,0.0011573985756827131,0.008324222080459048,0.00922943523538501,0.023646925051581436,0.015960802135537064,-0.030127651719866724,-0.017782855822528056,-0.02409725559304102,-0.009033312455522656,0.001892913555112032,-0.026912868635136103,-0.030416006442969167,-0.0037513217111131716,-0.017945528577673342,-0.010829386670698441,0.018539778602988884,0.033495928587385176,-0.010662590124294345,0.03250448454081077,-0.006702032824919752,-0.028578493410587807,0.007205889692861178,-0.01210448864294161,0.014744060129160493,-0.017462375929689036,0.029697664429011155,0.003174211140235276,0.015442716794909616,-0.03447570146196194,-0.030142236185411925,0.020997393231041037,-0.0019993976487082186,-0.015607253365516122,-0.018520565335639835,-0.008907256076553806,-0.019953734630555307,-0.018626485915933473,-0.032337548996181756,0.023822579259878476,-0.009274282210638269,-0.0031868014734945907,-0.014397349847690638,0.0087648065502525,0.0346888985748558,-0.02809436265095602,-0.02258505752818144,0.03407882174336181,0.005027563881637884,0.004219611204126053,-0.015369685699098848,-0.007395815893008145,0.0025732426824512256,0.017639664669498525,0.0032614856225948135,-0.019618417860940346,-0.010038196402299816,-0.03413316273680701,-0.0036791981985919075,0.0035958848614950378,-0.006660289493380233,-0.01851136981753222,0.002869546462372254,-0.022908794403907175,-0.01939078518225956,-0.03382155372164226,0.0007965635163551296,0.02472859492889612,-0.03336462240421157,-0.00890422810543551,0.026118336646197074,-0.014253535719278338,0.004853464316190046,0.0009447813684544781,0.01421291946798928,0.033887958393809973,-0.032571444371807236],[-0.03493189934989457,-0.02297827284635349,0.016180992192844704,-0.011001979699243544,0.007178902129715475,0.010768100641011115,-0.016182301123838477,0.003505950540162043,0.036813309536087184,0.03152936954725585,0.033659132860583765,0.03396738877250653,0.020376707529492166,0.01660525554779329,-0.03423429704641618,0.005258161252145054,-0.031428969082365865,0.025799212454073992,-0.013205006788399937,-0.03377300534778819,-0.013742489141804069,-0.03371956405546526,-0.025232923066199304,0.010989204312609252,-0.006453906416632904,-0.006879066137119435,-0.03519037024213385,-0.019967405688782462,0.008205842518719215,-0.01400465681568531,-0.019649132785153595,-0.005148805919667959,-0.006129590681924564,0.04131534414090277,0.028266010675190766,0.03348978679451238,-0.010987565599971348,0.00802788883928396,0.0027875659131700783,-0.017090975155602997,0.0019338847871383808,0.0007294316650027409,-0.015446442214546626,0.023596460526271356,-0.024468343952841216,-0.014457761979500069,-0.009164123756266877,0.023603653237766378,-0.004353928402698986,-0.011106591416205416,0.01773522645367279,0.0030005056928446823,-0.025836642607555638,0.0027430506579689826,0.011011959485096765,0.009567329158571124,0.013642848003662396,0.02124983665509387,0.009446183985817133,-0.003792071593021342,-0.023061473740166493,-0.013436566536594237,0.03438915289300765,0.03345752342910064,0.010980642483431198,-0.01929959929377044,0.0010100723423515938,0.0354220568476684,0.03082199687397825,-0.017999802285305854,-0.014103794301978704,0.023448459806809215,-0.024425681431110274,-0.014964133850596511,0.03374625568054937,-0.032709279141322094,0.023859521362491854,0.010514575103322857,0.037370999968381786,0.014079934165213933,-0.03487167752568983,0.008683178694474521,-0.012915117257020967,-0.0061313869575795946,-0.0100076009741918,0.02533252836745798,-0.0353597584864498,0.024175774470530192,0.03555302039322571,-0.017057017996548206,-0.0004504549888161015,-0.019820587333621853,-0.004885336150461143,-0.013949794138353231,0.011017639801386939,-0.03129954736794196,0.014463231391495255,0.025147433199685782,0.03154912897005028,0.03712935570960168],[0.03401131154756375,0.0010925069642705337,-0.029922185373948394,0.019352907183712423,-0.004594911653774902,-0.03429711629479261,-0.009926633209010837,0.023603718598884212,0.0005510666949461027,0.019366604618910734,0.02242451643548874,0.009817222077736068,-0.029788057937107537,0.018173153317385306,0.009348023500009787,0.010915624665214991,-0.004989256911821213,0.028993351235948945,0.005627648962733514,0.013301077457338063,0.01174473871101841,0.018481668453989644,0.02229392160675588,-0.001033496601190533,-0.022174977915179007,-0.009075107295928963,0.030711822868918593,-0.014664430412945467,0.007576057091144335,-0.0156905734304626,0.02863276757013013,0.014341612992080253,-0.0310812134061339,0.01876886928810407,-0.015861695878453725,0.028505225565919553,0.029616045648714086,0.0039513994274736255,0.01650832052160994,-0.012251376099655452,0.02844204727027664,-0.03159849699436633,-0.00009683287287007262,-0.01333983480319852,-0.019428541733685183,-0.023333943968449827,0.004858728720547871,-0.006311100622277272,0.018523914660340146,0.01439825417411366,0.006648667235819022,0.020016591288981186,0.03509946222068005,0.014622832891243928,0.016662476735635045,-0.028307515616318748,-0.02684483393948426,0.02127909731634084,-0.0115697102924396,-0.01474424794107442,-0.03305668701508786,0.024816598396417613,0.034994166510029304,-0.013313923642922996,-0.022950279414904004,-0.03247844788817299,-0.005242783506613536,0.011643875637107223,0.015013531188175295,-0.005813166318352614,0.024731307852298684,-0.000904850979830198,-0.01970266386666793,0.0011732064505430774,0.002890202600360702,-0.027556803992271173,-0.006042557777193402,0.0056742880866980094,-0.010037048791765228,0.034223103538718706,0.027124696498507406,-0.016564519181816388,-0.01291099073054786,0.027027234375349315,0.0016852735114838845,-0.013738963868954042,-0.01002503050305964,0.016829855102152066,-0.0028608121138113626,0.004494656066529841,-0.027376788017067107,0.009055762833420331,-0.025135111702976057,-0.02416938208343834,-0.02766240426452194,0.006804118300287305,0.032707209761735384,-0.01687715651920604,0.010466908580022742,0.02902802887905088],[-0.029243895013693427,-0.020555882004063327,-0.03388986771249655,-0.03283333815861002,0.00814122203100002,0.0005917316163582779,-0.02885855410215237,-0.013724059199631525,-0.00540527821490709,0.012230194518463905,-0.002347368093227327,-0.005423503355616784,-0.005844498133687813,-0.022446786121962346,-0.022370457636243877,0.009672737068528246,0.007813717641366503,0.0012295586940099116,0.014801808582767754,-0.003991506994366546,-0.01533572831509659,0.011058247812499153,-0.014398852391062316,0.022433893725242307,-0.02639354998472661,-0.0012319691154949392,0.017288883160914554,0.018143646060343615,-0.000018106309195183097,0.005378327754018201,-0.00016191280413239704,-0.010923230336673667,0.0035954277386175694,0.021429768774948513,-0.035963421899304765,-0.012536745101999881,-0.028545210228557466,-0.030660903989280185,-0.0027778060745850476,-0.027583595823858727,0.0008864234445889409,-0.03647003339149695,-0.027063494364109215,0.026384590074688432,0.019141088808518787,-0.0018238617213473393,-0.030462347580090237,-0.005689993609547727,-0.03442966492799781,0.025675554949414273,-0.006803040736052949,-0.018115100490626264,-0.013481090347084196,-0.018189018944926316,0.033378576560542994,0.0371308661621433,0.0018668906348799721,0.018237697349064743,0.014843116579341089,0.011890123157065,-0.01808478901920607,0.024772940408376336,-0.013252597001081886,-0.02550840898507756,0.00724941411179322,0.029145273557146266,0.023665267560701062,0.01344303472811078,-0.013171908467276337,-0.02752577370719709,0.003006425412733444,0.014968445478967082,-0.0096289099094135,0.005058362855446708,-0.025807284177003183,0.0010240003194874996,0.006189892255495554,0.0306119215737457,-0.02175555953090598,-0.02390760546842947,-0.00694617295532253,-0.023887808021676404,0.03419646491877971,-0.0006275219488288777,-0.008428974589759872,0.011963896840126144,0.022522917757209188,-0.01484075173687954,-0.009052169989537617,-0.022001716962326785,0.010995839100887887,-0.030835860438170472,0.02170731895311353,-0.033273380058446565,-0.014391837200608605,0.006324888439852828,0.029826188127444142,0.011722342359164214,0.032241161249990054,0.027494667232643176],[-0.017480031571311068,-0.03217934927212903,-0.03241314651258189,0.012165875658527671,0.02438632013165455,0.031890171878079125,-0.017661103008735805,-0.03074000550892768,0.010625286733086832,-0.0023640188712487045,-0.004435053654519438,-0.014029235103338266,0.008105463219962817,0.0038581383476273116,-0.02515233169981809,0.02413553572382059,0.011571270835045363,0.0033656940247588423,-0.02763260081506168,0.02037523549380592,0.008445035045281482,0.021728555942005536,0.020320608279131732,-0.0013221953511922816,0.02198063759544975,0.024840990558788044,-0.01449278622858443,-0.025501154618435874,-0.01830263478237792,0.01058282640546469,-0.012209797838378071,-0.01892200170296803,0.035680620489011786,-0.01002468407074294,-0.005946636130791386,0.013373909901186183,0.022451388271477194,-0.011996271056539956,-0.026075609968547405,0.03202971877359529,-0.005661304550039258,0.027356968015374482,-0.023223984063685796,0.015827292075751166,0.011007119173233744,-0.006042188344399483,-0.015111249948541294,-0.013527587760831433,0.03468477949945538,0.0216627569971143,-0.0086443158238865,0.03497614239622333,0.013617509113438425,-0.031639360734151196,0.03331073203354863,0.011309627242347296,-0.01569161551933229,-0.020984551983706603,-0.010467107075965038,0.03274936601136643,-0.025755536610679003,-0.0030802452340497693,-0.023459360234621602,0.02382788193325851,-0.01586254242776835,-0.0002859986494270636,-0.03265549554201152,-0.027803181883007753,-0.007525533675249443,-0.009693782489038143,0.03126393869059653,-0.026882130365814008,-0.01425681437349345,-0.017729617843363115,0.01799670844643554,0.015182439101066593,0.030707580403068167,0.011297032818187128,0.024264905607601167,-0.005555257398711453,0.014346167198723855,0.025306420516716985,-0.02544360987324678,0.00290373879449211,0.026135704334386733,-0.027331779944602116,0.005364123082400747,-0.008879452790372727,0.003677002798341655,-0.005560046104182231,0.006390179389423248,-0.015870770968362074,-0.027092707125760448,0.01415698268965643,0.025613672824647632,-0.015948136429450182,0.02597240426623418,-0.028498078691533577,0.026847648079794045,-0.02983347117803965],[-0.01805754230289473,-0.0024373046930144383,-0.02854481706796909,0.0011857781512677875,0.012977119146580977,-0.009475365630792097,-0.001048061201369151,-0.02303292660041607,-0.015642531183516578,-0.013389798002938725,0.030405101332596347,0.03339507502719947,-0.0009817402336553247,0.0000698675287739631,0.025433932104722133,0.03199122125288781,-0.013969638713986205,-0.027420254709331918,0.02637014395338327,-0.0024191147669131627,-0.01737096984715917,0.017337970535787776,-0.03610604992994903,0.02814224777032829,-0.0012601280257481795,0.01795463472604182,0.012149700445753909,-0.028293866243320143,0.013076325864396707,-0.023299891437401677,-0.01716006425789241,0.02568432601861643,-0.02180050428632358,-0.017735548426162037,-0.03039745889290145,0.03610970190700575,-0.010752522391472619,0.03334483765176163,0.007275757377160228,-0.031624752636104744,-0.00602399163985359,-0.03369236719913879,-0.017366141881319012,0.031471363390632105,0.032192103936382076,-0.015532236786086645,-0.0239378314320927,-0.017494647251460587,0.0007271703907636837,-0.03730371451215586,-0.029536182384044467,0.029696266772056515,-0.004092055226310886,-0.03474599435774201,0.014454090323821707,-0.022644078467718667,-0.002985768106843432,0.004662436144626822,0.018447676557979815,0.02124681862211088,0.00046612025592023535,-0.021665936029639832,0.009718684208283729,0.012021530223820569,-0.01571477307118115,0.011849211267939098,0.0017436283793712416,-0.03229591705886048,-0.013974367641838759,-0.009869168712531,-0.013448336754553493,-0.024777071686745034,0.034515006479198945,-0.034737707182036615,-0.015502196924112158,0.027259920316981053,-0.027276401478011338,-0.011944387351103914,-0.0021664336974410374,0.021752550720190337,-0.01295983208573741,0.02279364926214809,0.018689285891873443,-0.02098498366143161,0.005113348797862281,-0.02997868839224579,0.013612976183328573,0.007115069143177624,0.03195304221146806,0.005930291933364284,0.023412146107192052,0.028895201592714585,0.0140686838204407,0.004894659430942219,0.006544205451120095,0.02748089734820142,0.03758462686625591,-0.03311342826347305,-0.02550320649939172,-0.032671928329186854],[0.01808258240907709,-0.0072364008594595335,0.028763853509781126,-0.008649089850157483,-0.015356303032660643,0.012653715085262834,0.0025185303824758537,-0.028664507455913327,0.03704367378209111,-0.032457409454473396,-0.015833817744514613,0.01960754757339483,-0.03364639485432106,-0.02644087148701867,-0.0102133326784266,0.0017735176197357957,0.01409321663410326,0.015031100760407012,-0.011417906746225625,0.01035334369412884,0.0030370526844548133,-0.0093778641206497,0.0013335349416203537,0.020767254456002,0.036333371659250734,0.007639285018256426,-0.0027458996579380673,0.005626838203293199,-0.02226686213273389,0.020782962064212065,-0.00950545716766084,0.003640910024719401,0.01934685676390264,-0.031204676550711533,0.00268890230316862,-0.0361446919933988,0.008105488410031092,-0.010536878883866608,-0.003655060086935194,0.011869760334876743,-0.025413705625072256,0.01363197839841595,-0.021171577073656227,0.011409817837982976,-0.03481735226597327,0.002175331345380122,-0.030899377741704377,-0.009409435889355321,0.027511207444771042,-0.028609040720878755,-0.016711177329812584,0.00330279058741169,0.024822661654264038,-0.020962260560531822,-0.005674311908447162,0.003535037408759569,-0.02374779761112579,0.013231938003891554,-0.018015985821767028,-0.006529491429350619,-0.011077750350571574,-0.009310290533511198,-0.011834065460180431,0.02286326816754565,0.02251823115620682,-0.03434470747095359,0.016088554562952866,-0.02386246469433522,0.003536588342994468,-0.011469721294627333,0.028780455943945397,-0.011430109376574628,-0.02563743878887128,0.031763103683518645,0.011039594836410371,-0.029633588925360325,-0.001445112629588858,0.021252028386882473,-0.017782837332291992,-0.007824157509594021,-0.02417197501741526,-0.014636877636265384,-0.016617284849828256,0.027375137909357902,-0.01236109265073831,-0.021990679690709922,-0.02331119883386272,-0.024836795864140608,0.011786052791025957,0.016979514473891715,0.004759727904672188,-0.01916927646124305,-0.0009397187718777939,-0.009337073709671111,-0.020367655067773965,0.023429013276050698,0.030406835248362338,-0.013163922642050577,0.007527305590889228,-0.02077668357131535],[0.010852790803075576,0.01639270430913983,-0.032858935968622084,-0.006693965441284435,-0.00027464192621837104,-0.03614343494003339,-0.005557838477028487,0.02737651308058676,-0.016774644600132328,-0.007800715102982855,0.008804182063320554,0.022586549437820395,-0.005808457722220169,-0.0155399670703528,-0.021489297227398067,0.01682105980216263,-0.031052434950764374,-0.028986284237593647,-0.03237953370046203,0.011611094738022014,-0.02150881513610123,-0.0003543928566941416,-0.010511498593297513,-0.03299323292143832,0.0047313664560235,-0.02880010216122254,-0.013296204077373183,0.02725859003690173,-0.019777824065717004,-0.03453443438622063,-0.03065642823995494,0.007916061636316614,-0.00026201302697515395,0.024816132198522335,-0.0010960173772040331,0.005649742253740076,0.014035790246099139,-0.0267661317126516,-0.032299226897726324,-0.005338590006179837,-0.016713168237022367,0.016589952360469108,-0.034085581189565,0.014390459370170248,0.0018533133090377603,-0.007957076517941478,0.012548126564397301,-0.02095046310261589,-0.0034798435563971387,-0.021852052168220726,0.022354076790132276,-0.002106393057173874,0.011585084931922424,-0.024997452155402222,-0.02858593585667975,0.02066301791447253,0.03383503032822604,-0.009481401370842971,-0.00785086878854444,-0.025883243967151134,0.011533401373100287,-0.02265979135403736,0.018227872076814085,-0.008051011195463684,0.013210728626020648,-0.03246870030361802,-0.02648658445905667,-0.00810286910340999,-0.03311993035042674,0.022026675868277,0.022512793949082708,0.01686195618728195,0.024096639612248963,0.03218975238936196,-0.008915603025609925,-0.025147146200648358,0.028245592588414328,0.01191314227000123,-0.011209545628964203,0.034111857102310135,-0.01375311194179667,0.025723864089237592,0.0259980380397533,0.01574521029045073,0.003254761499530618,-0.03149217320043024,0.026970202668233925,0.01949766771771723,0.020192862452158664,-0.006365887361445448,-0.011164483124020304,0.030995757465738377,0.021999903640355745,-0.020629364502346807,-0.014465189645165867,0.006992452739713397,-0.00399712991521936,-0.01627320702057178,-0.029495440164971257,-0.011911869829276826],[0.015484949594383013,-0.015800460191888258,-0.02061181058545067,-0.010740291663863514,-0.02915501412279185,0.005781776439978276,-0.03097333849335641,0.019993944910872,-0.012372910621311142,-0.014115421998066598,0.016570972992032407,0.02850457081538064,-0.031191763351758255,-0.017292364173802678,-0.003813626880603216,0.0002990205321859475,0.011882057116373362,0.000911251106647079,-0.01283887464505461,0.007927609832000245,0.009486699099223063,-0.012076187958468477,-0.03534581634554892,-0.01167099647653875,0.016387127340098503,0.012476900880533073,-0.019024434047286917,-0.005894084843923479,0.018532293740348423,0.030001729135317432,-0.031280999862690076,0.011271249529748159,-0.01570766847503742,-0.01742501978808548,-0.014142789162701447,0.031927733747522766,0.006370146762900987,0.024660362617798484,-0.022188659339129644,0.02283747734432708,-0.017689017339190292,-0.03228248417312398,-0.0140487036917662,0.021482968190188828,0.009549415350631791,-0.013943517697796826,-0.028044993369962152,-0.03244278413789152,-0.0056107972429842,-0.01889712354399421,0.0012977479341237112,-0.0004213356619697565,-0.013472790409194975,0.017669759305496042,0.010545084802131859,0.026362617864759914,0.00018032385078894776,-0.0243804851468326,0.009766184975179892,0.035637237677481656,-0.003781843824929524,0.016983336885692705,0.013063645060932605,-0.033309957026532284,0.010120794297515423,0.02632361489150801,-0.025238432754866386,-0.008018745731673126,0.010319494139384908,0.008530498364355493,0.013862009694283885,0.013829757251181587,0.026678334844462942,0.030893410192255652,-0.029842934176961763,-0.010715757097791835,-0.010716559357917361,-0.010938573893508885,0.027628178919042005,-0.011966588147248346,-0.008866365590833475,-0.021827235054166592,0.029815265911124517,0.005709396374668717,0.027135762169665633,-0.01645422004444231,-0.024190895300156397,0.0052836386590374975,