{"activation":["sigmoid","sigmoidDerivative"],"cost":["defaultCost","defaultCostDerivative"],"layersizes":[784,100,10],"weights":[[[0.008606631865098911,0.021622009625027493,0.005750761501728272,-0.03362476915909639,-0.025016970215825343,0.01582494512195339,-0.0038181881277983215,-0.013007656245112204,0.02212210420770725,-0.0066603573958432995,0.034865102524372346,-0.02980312436271427,0.01173208561618636,0.01260400917625023,0.022870169649683456,-0.0076588986308393225,0.027664132409155336,-0.03212285525814212,0.013768925333901621,-0.011747398401757729,-0.004468319482760938,0.015833661318641837,0.01018141434393029,-0.015676280559628608,0.03235105055064564,-0.01623123224645156,0.009273222155763773,-0.030101182600236844,0.024132676962805005,0.019013523604062464,0.017887076930372454,0.024488994694908083,-0.0146765974507108,0.03221147178862798,-0.03504905165228891,0.018076384410756367,-0.01657852642421356,-0.013235401786749193,0.003931410852522233,0.03558052072075212,0.005563560698070318,0.007616991370952127,-0.009609664028168244,0.01613302556090504,0.03128488380814121,-0.0002061234918029554,-0.026444763220364466,-0.011804883149197946,-0.00753846192091428,-0.01235107742560328,-0.008814607977306937,0.013986331080979995,0.03435411200308714,-0.033914931852002735,0.015417382324064635,-0.0007270586559633258,0.0074522319999620465,-0.015219097408037322,0.01639870463974889,0.02392706037680914,0.014907845428069855,-0.032790094888617456,-0.02329445362175261,-0.0037078266701152883,-0.028882103479202795,0.03405745715977691,0.021935900640990613,0.024044634840886883,-0.005553598006577442,0.02110529811385455,0.0010008675310186547,0.03453461033025992,-0.009280413285883285,0.03429648316054847,-0.008781660375095892,0.019446709792163615,-0.012749370874209487,-0.03386132549860531,-0.02856458658793543,0.029570690400761313,-0.0016294017862693206,-0.01768897361335419,0.01239604954803914,-0.029907059884407765,-0.015483881191835445,-0.016521954995030314,0.03401199537428465,-0.02182429362198517,0.028901751278096053,0.01614143554167927,-0.02681793588071796,-0.00015433562897616842,0.022048110232995712,0.03288318658271618,-0.010970308568362532,0.019947194399651088,0.025860956693372704,0.010937450745519406,0.009762765594052012,0.019453540153641088],[0.015511477129370118,-0.021284747334633432,0.004707283407591494,-0.009075404553327667,0.02894644244639766,-0.0030977465943773804,0.001924787536703208,-0.007262545396494633,-0.0008282415520166844,0.01594373942835712,-0.019872909565258706,-0.00610417522175069,0.010553889717881381,0.013019914363666035,-0.01980762423603476,0.006423390467798758,-0.018095812313993747,0.021643986733455828,0.013005893852441875,0.03117313374310505,0.017991124340052178,-0.03529367580491476,0.02378397063458756,0.03250787963551074,-0.022337091369427433,-0.013506455204104428,-0.017043184225291073,0.02729414358147091,-0.002410815147951741,0.0012265084385833156,-0.0025387742791875816,-0.026863243011622955,-0.019161921680014446,0.01746228530282132,-0.01687232138003335,-0.015821043537014575,-0.008943991614206693,0.008462915221627029,0.008908874585721245,0.0036478710588061574,-0.026536933810061402,0.009914999071498879,0.014978844002701566,-0.005568214038668834,-0.023970005827018057,-0.014696860197521608,0.03241776008972855,0.010591516810852407,0.020982734354218456,-0.02382340679591524,0.02303558202527962,0.025351039349923735,-0.015974913263260167,0.00760622339828918,0.007042951899972917,0.017448504471550295,0.01459545435739525,0.03284489434725329,0.01743249439161386,0.019411247640887704,0.03363391074442915,0.007603487617191685,-0.027131420745793312,0.025813984616180168,0.03189541200604604,-0.013881345533632915,-0.02629656704164042,-0.010842867133221032,0.014664221412475318,0.033132665419213586,0.03556100640319501,0.010062486035441276,-0.02481547769291233,-0.0009489306664492611,0.01501164934083959,0.021503618409180934,-0.026462829871684322,-0.00521184021286624,0.010321510942116063,-0.024729734468932025,-0.01602429973494261,0.018325102183266526,-0.02459797826712427,-0.027777714026768475,-0.026597970280583107,-0.020099694601990986,0.026419748539309052,0.022674662845582817,0.017867489230552806,0.019890554791778293,-0.005337394014330757,0.00635128180352312,-0.003568702597205568,0.01695521072605179,-0.001940154574668043,0.0227930130369535,0.004063914912721942,0.0025506695059844386,0.003008043274360836,-0.003371465417209016],[0.008253664630266411,-0.012306527711835208,-0.015271774998016206,-0.016831464293993265,-0.018161941666455395,-0.00922840961429125,-0.0035758487227621452,0.009643194444031595,0.017929574183816542,0.027230235612618742,-0.024256821844980063,0.02879025258463056,0.020094366263365932,-0.0010457252183879964,-0.016784894824936013,-0.00816204504167251,-0.0060141252440138425,0.029424910624640362,0.005631765807832252,0.010754770329038677,0.031561150666635854,0.004956837653770702,-0.00002623495593055719,0.02880945585176605,0.007518398227240241,-0.019950976657065782,0.028515090381775993,0.019782463375693424,-0.01945217935884674,-0.01065408692083122,-0.02440768079881305,-0.003350749275233897,-0.024903140936765277,-0.028720861852094284,0.019891058200502354,-0.032911277467827814,-0.029041554186391736,0.023218566616208088,0.0021525790593776304,-0.015738919048862068,-0.008179544744186817,-0.015994031984497316,0.006122669949129861,0.021362147588679943,-0.022481130469006877,0.013279277090672214,0.01363388761680997,-0.030670303388811992,0.02610695724816239,0.007653871288106531,-0.0315609034058073,0.023777621671228783,-0.0038955618231540094,-0.03009246769927487,-0.03565324830353144,-0.009573928308305312,-0.019828552723213173,0.012435331343009507,-0.022671224172600417,-0.03506063929345305,0.02169296411679821,0.0002330449496874375,-0.03563746668312168,0.01291716498898615,-0.016993991390553586,0.028162809417587836,0.033767983768420655,-0.000029297279195193424,0.01496851803726006,0.03042466411305672,-0.014000440019069983,-0.0012686755100062032,0.009270842885352666,0.006276107083743793,0.016786516585661566,0.02644721176968638,-0.02419322161344236,0.015401182441969618,0.012981929308463497,-0.02749414026633706,-0.0206272620161214,-0.010660268791839074,-0.03260457890074985,-0.015626739275785617,-0.006273396284020191,0.01934383904976546,-0.03377731332980886,0.03053133637808956,0.02004068675708332,-0.02961073216248078,0.022624274708687633,0.02878634488932911,-0.018598693043895807,-0.004060307103977369,0.01107466773466783,0.027889307929245055,-0.012680825974763171,0.021079488068732725,-0.016265062226492173,0.015769090333646717],[0.017425448167813738,-0.0013214911166958357,-0.02953515194341615,0.010606104861082159,0.029401479282302915,0.01581309013275448,0.013248628964781612,0.006951860504005961,-0.019820956247627457,-0.013490567579718444,0.025847356948932556,0.03266769843712491,-0.027134385488293524,-0.024531918947081,-0.025976223564686842,-0.035428934523987834,-0.012453824635953311,0.02383814043649551,-0.009785479863014078,0.01006063453064304,0.02898081223576642,0.026988283087275192,-0.0028300522561558626,0.0050486146824986495,0.006966050562905499,0.009638896390086088,0.005141825045610171,0.009512057189357343,0.0189612978576219,-0.00869366310189007,-0.021998973031844095,-0.010635347293939793,-0.011995811778442122,0.006909544344827871,0.034780766265245455,0.003662592510814158,0.0010551595573450822,-0.027880120381469226,-0.0033820169760248775,0.0016571739019674843,-0.022342456074161108,0.033425170795869395,-0.015889069025116456,0.0018193679602409435,0.023064660171937888,-0.02402335852505894,0.003898789203062012,0.021425960842456713,-0.00156945830703178,-0.002864253418529651,0.00017562924941651853,-0.02801528544945684,-0.014749402308001367,0.005225386087546402,0.03323483487966782,-0.008973667805067994,0.026373377360892777,-0.005483109255343487,0.03226500630316541,-0.010990020503262162,-0.01121307569264899,-0.02906863937971503,-0.00437870984005367,0.01241708604290583,-0.010977738976148437,-0.03252881969227139,-0.03426424819984402,-0.007773186742955518,-0.0052681467820276506,-0.007637154486453328,0.0029072531788850104,0.013614293029930585,0.015730607173304895,0.034672713213583436,-0.02485749698568133,-0.008508345015564535,-0.011536700440837606,0.016041072421964966,0.004165106767554899,-0.033696481255219006,0.027768676929416314,0.009500145455147147,-0.028996220105616206,0.004339870003882859,0.019443357579250933,0.02274552224670176,-0.002973763400852353,0.010044850591199295,0.01016755579720226,0.010705224919794715,0.025158250874995104,-0.0035304168461822286,0.01470723855501792,0.012224220289422088,0.03171759758974332,0.023693119186813216,-0.011010802330876536,0.01949980245346083,0.006448835083459719,-0.011478023178469118],[-0.026709002676373442,-0.01637414043279325,-0.021706216432339644,0.011933857564802891,-0.03332731847596139,-0.0031220498723799617,-0.03294488004320157,0.03489215694232427,0.015386881293426505,-0.020213751794745955,0.015413338211647072,0.015084673268086338,-0.025699664113871316,-0.0015877800540630815,-0.003951621936055298,0.010754181404177441,0.018878905027668307,-0.008588072093730938,0.005712185866157137,0.024910365291568905,-0.010513317944834441,-0.003412917742718211,0.026216731761040297,-0.016776842180701784,-0.01325882030361386,-0.015918746583223616,-0.024327636802785182,0.013208506810501772,-0.018074835821376506,0.028964926050901434,0.032120937491036415,0.027517575431563867,-0.016937097977825125,-0.03435341560664901,0.0011692275176015355,0.002116781373457691,-0.0210630697359176,-0.015506447870167474,-0.012463880270754693,0.02881638471912026,0.027855641546456613,-0.022262919368840322,-0.015687064204221064,-0.03051452747956349,-0.01737728917388758,0.02712883449095728,0.0024742371523781424,0.020217992145615784,0.00940665713880541,-0.0023073887564900608,0.027061682602967648,0.00437204687489827,-0.008703596926257112,-0.02193080971670866,-0.006079792343405459,0.010128444757139733,-0.022895718426231896,-0.03473347226159413,-0.013913548901573576,-0.030255334523361523,0.03483448484249096,0.025778587738420792,-0.022262086322987002,-0.014460808029919708,-0.024396767294632398,0.0012643913805762048,0.005136160618675736,-0.010988713575898012,-0.024422641031398983,-0.02260504139886133,-0.03173163522914298,-0.035298596550385086,-0.02481300330986897,0.015608791640805524,-0.02848276100525446,0.028444946384818294,0.01709458693022969,-0.0297446016177253,0.034555139650455605,-0.009729442388311964,-0.025189957456109333,0.016112691045805164,0.0036020007731332624,-0.005057056040331595,-0.004768049741604223,-0.01724546931720615,0.030505394702883944,0.02231566122455982,0.033233239688645146,-0.009066325937937722,-0.011992510953513712,0.02158243500050304,-0.024037641030805617,-0.012869546156226356,-0.008832273814734237,-0.014133923447250517,0.019162272686897224,-0.014515815657244604,-0.024701185395290908,0.012549253098497795],[0.02653861528854048,0.010992902969973961,-0.031929967839263995,0.015716676751574066,-0.004313140451947086,-0.020825696426081602,-0.0025838259658804946,0.00976218698598194,-0.02342898419408473,-0.02615663560263718,-0.00011698557111107146,-0.022554203173112,-0.03194415094551768,0.021266744368889964,0.024962223698761773,0.023312656671123443,0.007080776224634725,0.032821473917421636,0.004600568024592864,-0.02645842952845835,0.02110002909752343,-0.01966270808895553,0.035323463539517194,-0.006387520834697698,-0.0038823737412828708,-0.025623568582031252,-0.023043382321693066,0.01437853630028706,0.024602506191650657,-0.009580321956693928,-0.01653922155312308,-0.02803884780429773,-0.02558947341075356,0.022044273176235852,0.022112112206317713,-0.014395987002121233,-0.01407736267983108,0.006355285735217586,0.013324293318301731,-0.0305126310820263,0.017717651255651404,0.02729038418667084,0.035169304358503635,0.008675918551275292,0.015106462470391135,-0.022436859877626465,-0.00844298288487115,0.007113518142335331,0.012592544867499557,0.0020811616625794446,-0.004702768702062331,0.003882861469961354,-0.008205432849952588,0.028423236954848427,0.020586970201418656,-0.026765933878830535,-0.03465123689780651,0.021797968079008728,0.018902076234101988,-0.020912217028492313,0.006612127629720089,-0.011209117563464823,0.017845992117839247,-0.0036717392098586004,0.0011482567872365301,-0.03374071506735042,0.014143318703231692,-0.01558307867701312,-0.022974231009340266,0.016670517456335104,0.029479916115088534,-0.027923567130963837,0.009051256770922915,0.015446561658351392,-0.00544961575682473,-0.021356043745519505,-0.010869909461354882,0.024280097193930567,0.03416022186566275,-0.01748958515263924,-0.001518675883446434,-0.025738422545148618,0.03349961616300119,-0.03431474921696956,0.008979010261719282,0.024109003780724315,0.005068167090977443,-0.02270583926560512,0.007525388308615911,-0.016815055136833415,0.0335136322492772,0.030789662562546435,-0.007335670258101746,0.03086128000320916,-0.009499923143082867,0.004708211782275317,-0.004414637049390624,0.011336766807322679,-0.030522100389561893,0.018270058154312842],[-0.02813627700135072,0.026405559916146053,0.015131460817006533,-0.029186655330658486,0.02383064016766066,0.027878981437416305,-0.028712750252107257,-0.01080235180657811,-0.009137537214320769,0.025671878723626942,0.013703282806540384,-0.0012837154135097806,0.0013549441131875271,0.03328674377041921,0.01833348773630834,0.005233735998891806,0.024121007228262,-0.0010152337900553306,-0.004637395811498341,-0.004338996630796971,0.018539078186267773,0.019470273607252408,0.007693151025521225,-0.0008422149159751363,-0.013302439894000134,-0.022120869594216993,0.008779351462384071,0.0322021923650208,0.022762790239660675,-0.018114016182692025,-0.015725115051425775,-0.02857732085239639,0.0061730315216966284,-0.008024373694727197,0.028849193204207924,-0.024251070335305772,0.028165389845826866,0.015755344494793145,-0.00004874226042570573,-0.025548651788313895,-0.018993870624991162,-0.030596279626547544,-0.0312642386758152,-0.01932300799186698,-0.02923037089495166,0.026858822650740306,0.004878637243089383,-0.009440195455568031,0.020635268582270477,0.03499279277391393,-0.029602884500478672,0.013946464988017647,-0.017508223835810095,-0.024679110528986158,-0.006002243657533173,0.013260681939837485,-0.008764550992653261,-0.02740460587314511,0.0027798906547663693,-0.006255818983322048,0.027485312905939842,-0.021180216331863382,-0.03103055259545825,0.00174234911261509,-0.0229159032636245,0.0008517771344354845,-0.028149897874713198,-0.016746503692898,0.013585107744040969,0.0233265608224656,0.0007460816955746839,0.02942364937554958,0.033543319657182755,0.03278366196880261,0.00018343528849808257,-0.009325513144789284,-0.017620210082280853,0.02249934983249514,0.02660470731935177,0.02362544617489561,0.03211325738615095,0.004666700488645542,0.026980185021132145,0.028466817847940803,0.003202208322108132,-0.022838850736207544,-0.023834785696533262,0.028248385765098874,-0.006434102291318374,0.01268348376983087,-0.011858925540770688,0.03310099793587367,-0.01465673278532847,-0.024023459930272103,0.025672720550795666,0.03477107756452673,0.032318462088501025,0.007299628006013206,-0.01763284676826379,0.009847922960128899],[-0.005212759133918323,0.021884678550493305,0.0018359159982428435,0.009543497328114176,0.025866487262923493,0.03254799264194167,0.006057820968312378,-0.022005385253206323,0.006261319767768006,0.0017377394591577306,-0.025098976811824065,0.03478416427593598,0.03437472086723547,-0.01576490664494168,-0.019694513939207455,-0.007762267680074969,0.03066957762540289,0.011871419591751054,0.01006846370252695,0.027503069533807538,0.020615421628380908,-0.019822760790614794,0.025265104435236347,0.0016572972501849835,-0.024369108524298733,0.02835959845601185,-0.028976645415151953,-0.013679567449825267,0.03232381500230621,-0.01133657784250477,0.0016052315520311807,-0.014215558608103206,0.030053742278049123,0.022300507970189495,0.027823544072870222,0.014210087046005748,0.0011603919759136114,-0.010112701258763812,0.011690520029498929,0.02410213146315416,0.03565483081146358,-0.015674194330996507,-0.02715964731980433,0.020554122079872627,-0.026336394781295944,-0.017923020191379032,0.024898563413231017,0.006245752184085548,-0.007685193575977955,-0.00007732420253816573,-0.02117370891577128,-0.011081111828239853,-0.030820513877110853,0.016696200782258197,0.020663805965537296,0.022184985621542398,-0.016887316394225343,-0.026324556120059402,-0.0018963876839355506,0.022538497164529048,-0.007428948930183293,0.0059143094912746524,0.015017372750722251,0.033969907893894216,-0.029622546842911185,0.01734028811026963,-0.00014672548045784707,0.027816217706360974,0.030554005864821508,-0.005816650316059175,-0.008522440499162837,0.03185964849878105,-0.005109505471790398,-0.014683846236989132,0.022882139437534234,0.03498960031753789,0.03200971711963047,-0.010321968538162215,-0.012352485451151423,0.008229047644476947,0.03301877563551988,-0.01538234914248813,-0.01678476694448438,0.023670044093496895,0.03351096186272099,-0.006646215264475006,-0.005954718134007317,0.025338974445273273,0.0201796582939934,-0.0009158979026607848,-0.01836788532756288,-0.0010326589864811738,0.007222812186763233,-0.03046382979392928,0.017755295846736224,-0.022350009701363104,0.01123263952535603,0.007797963034818915,-0.007566185264317956,0.02936388518553242],[0.018244288814508205,0.017803174296391784,0.003821183505649468,0.008871132134920858,-0.014809054424242993,0.0016939690709455544,0.014682418675712218,-0.004488564091969136,0.028667177151780344,0.020466558289752773,-0.03350625783709721,-0.026681497874055413,0.015766097358353045,0.032211880257153824,0.015836729609331444,-0.02669787205460243,0.01318070842945896,0.0020904347534166944,-0.020190719691783533,0.017012872232341845,0.02002599500024611,-0.0030458342658565216,-0.01552133652827053,0.009652882388337447,-0.0032114686041570563,-0.024588807471996016,-0.0021490851705151873,-0.030639953654251015,-0.002820418712623679,-0.02300024184270103,-0.01401712480049995,-0.008133845634203276,0.015078741434614858,0.03454219478435568,0.005144074233045275,0.014058325548571934,0.009364702634817184,0.011463200495205125,-0.009963943515339996,0.012591702226844057,0.005400752002388869,-0.03128266818727354,0.025936778764359698,-0.02463975557353018,0.033183502506868016,0.030065813984844453,0.009636905203612954,-0.010415882269198451,-0.022073601609607026,-0.02990891116905913,0.034165843736848084,0.016670240503858607,-0.016370770976063237,-0.030757439882566556,0.03538201027601848,-0.0004639431161249774,0.010584306959833959,0.014460050699620934,0.01366652906580969,-0.01284234300010754,0.032085362271280095,-0.009583422382889,-0.0019742977722235866,0.0009504769639107399,0.01082020286585611,-0.014692489962433396,0.009014277671185438,0.03262679282095595,-0.011126450441623848,-0.016079571113439994,-0.03321172073452965,0.00440706500436912,0.013428681902327377,-0.018230053067545698,-0.024504543228578726,-0.023219724033430388,-0.009762150974373699,0.021728903293906664,0.005441056246702707,0.010464464489953716,-0.03403999210717974,-0.014880096139657812,-0.031391518962133165,-0.020286586399809674,0.02934116262112799,0.020342706348881176,-0.022309399597683053,0.016683783520306576,-0.031194822617582194,-0.005261509219824628,0.01795109986107238,0.024162412455541123,-0.00899376568242101,-0.008667691787918668,-0.01730169331868457,0.00772853912455197,0.022667581719063808,0.030397985799655355,0.010353941452345146,0.020612509790159127],[0.021514094205674072,-0.033584371149313355,-0.000294557238213788,-0.023735623843559386,0.02893252889578353,0.009282520797748703,-0.002291748498660933,-0.014826332851268763,-0.012565102044591601,-0.032615452268529306,0.02929629988314902,0.02460317826854542,0.01682423620378139,-0.030540354279190805,0.0170755936971122,0.01943613742479823,0.009746642665135022,-0.011121494391490109,-0.01512970592126971,0.02323760900949368,-0.03513228946763468,-0.005679497763015313,0.03180455154414211,0.028442147331954572,-0.009922878796331806,-0.035429056383293966,-0.021423127444355566,0.012950776622386926,0.015980569483497235,0.00996849809607148,0.0019181010599616907,0.006293280545276272,-0.01692006415011484,-0.0319672584682725,-0.03156166127543708,-0.017174141797760105,-0.005654645740083428,0.012636761151052802,-0.018754577267858386,-0.000025317206831504392,0.03131780751157851,-0.022113619906944892,-0.024807140232962245,0.02654311382134368,0.0353409738613976,-0.0271476904887321,0.0006675738121856276,-0.01658856010259082,0.015546103414379633,-0.03448210712032917,0.0040957104350984215,0.010833949159604067,0.02235595561869263,-0.0038023027233765765,0.010382615736465685,-0.02762730555648231,0.009438256939383527,0.020422745396568173,-0.02154381199999343,0.028926692696683423,0.0033452159245424516,0.004288603813257463,0.02868740869191331,0.02112506610524465,0.012791767868554096,0.022571723573346077,-0.012784449655419451,0.017909596622525985,0.01823066879064549,0.010429746981147521,-0.027534920495429698,-0.003467953257078792,-0.021465733850650766,0.008243266174566152,-0.01450800837932779,-0.0004942133336136181,0.029040828235005908,0.0015594160103715986,-0.014460446202616231,0.0027024280465648633,-0.0003540008462464846,-0.025221119630998177,-0.014962701612119487,-0.033496602374965406,-0.02580237521480949,0.035479643506579735,0.01609728862103627,-0.002362982361834066,0.017781125255817647,0.019623250937763164,-0.017165178185004615,-0.012640069542656876,0.008334391438606925,-0.006587329993279603,-0.013790495534513716,-0.027183460872156267,0.03080552510365392,-0.03480265959137525,-0.029264993177769174,-0.007571879374586063],[0.009786209145054493,-0.017615375689544684,-0.014725236197906617,-0.01433603256283082,0.014527890512071586,0.0003294946812712697,0.022069419873852074,0.03120341393664098,0.034189295953233716,-0.01717366438042543,-0.029046833477790884,-0.004124369270166286,0.015559216082553597,0.0332251731356128,-0.012090609964877505,0.0035245281580619106,-0.006139794078128522,-0.015020837758219512,0.03039145333160523,0.03163226175777922,0.017135697698689518,0.02280931081633397,0.017780609227353097,-0.032112062575706,-0.02929428376276155,0.011074764372031212,0.027370726796238653,-0.025471591113993265,0.03513905555442704,0.00347069542387137,-0.02546770122464538,-0.03559772659105558,0.010860026271497155,-0.016637524516023294,-0.012688916402325983,0.021624002943938344,0.024862337788807483,0.02808998284504935,0.018586205341276807,-0.001357492195267044,-0.007102666950424499,-0.027163074843261983,-0.0068301237970767896,0.005056871029513572,0.0153293272486115,-0.0007872809445709255,-0.006705570537728264,-0.017894917356792935,-0.028196976653212833,-0.007815351083724876,0.01730215532687212,0.021909842576252017,0.004201699385766805,-0.030197678768736073,0.016902021170637122,-0.012825499314834714,-0.004934898183728609,0.007529853207697617,-0.03476709360342066,-0.03056579789450252,-0.030712892597632168,-0.022256356145159733,-0.00715702526013532,0.019835296899729533,-0.0268424566714686,0.029125123252112518,0.010318313706194555,0.0291755730508635,0.010036286289747402,-0.030763284492949416,-0.016552805954808188,-0.0063571940547282445,-0.005311142404921538,-0.034173642417791084,-0.018718557211687234,-0.017146890899137193,0.02538822694429223,-0.006373983512221008,-0.03240132803559974,-0.015300678484133684,-0.013176585846053388,0.0029339068001614688,0.024647893356231763,0.020614085536042156,-0.022983182961466512,-0.027803618082923587,0.012408171791302923,0.026321986224957978,-0.028205149149795754,0.012688465791129937,0.02886730168681048,-0.015541179257588737,-0.02664999573641764,-0.007709966417119172,0.0020421231699339704,0.013538283220659187,0.022330842751008398,-0.0038570045480379824,0.0055685262142082725,0.0322421738078739],[-0.025459069942042327,-0.000012729310067580054,-0.019962340069392615,0.027125258786695756,0.030668483879920178,-0.015142410439534449,0.003284539538812462,-0.02239352280337778,0.02822896307181391,-0.02793408425160042,0.021451573585347834,0.02193260560704624,-0.0009542127885007584,0.0057363357145064076,0.021139039673628804,0.03181887040758407,-0.01368133156641382,0.0018774073420287421,0.02626508474250366,-0.009296188311987173,0.02551794026653199,-0.02148073016962464,-0.0248876962616538,-0.015698413717689656,-0.021390227031019424,0.023467100417829567,-0.017049623947141265,0.014340139288913752,-0.028117803422011135,-0.02911097573663889,-0.00723615768872605,-0.027443171592656853,0.007577594078824709,-0.003840397369111192,0.002050743651768422,-0.006999257787106564,0.02470080982309668,-0.023087145056763216,-0.034456313975062,-0.014823670278495555,-0.022243823025451272,0.01123650090378733,0.022214708383775053,-0.0030720530636794145,-0.026579246680195966,0.015307923231425729,-0.006173144062175575,0.01847062156967533,-0.0075248268321508474,-0.01685334567503877,0.01998774408980051,0.032622173138651955,0.0013955996477430298,-0.022564583159487415,0.011964436178865863,-0.017859457213567888,0.01215931832515271,-0.016516432672737,-0.034619986867964476,0.011025838811577928,0.015606429448381923,0.008250763185134208,-0.02021337191048143,0.03080214152549702,-0.0011459165000689605,-0.01524580005604639,-0.026379246490337935,0.034852369498704336,-0.01160367389047164,-0.008203804551119713,0.017159685564472067,-0.03476374905039527,-0.027334957032856644,0.014887140983787744,0.03201808917593988,-0.01615267699426896,-0.02239573031892719,0.0198069252060597,-0.03232893503817826,-0.00916731058021283,0.017143795800105898,0.010426083454770585,0.0028304610358138413,-0.000451150734379552,-0.001861992813504785,0.006341580181989008,-0.022328998434230047,0.018983418302168067,-0.01099281331684813,-0.03455038172140787,-0.005521737419192583,-0.018810051205567297,0.018763852268630612,0.0062669399386692465,0.006790122221391086,0.016875262258378484,0.02426778599411274,0.02170722088113851,0.021025818650259345,0.031873609131388585],[-0.022859370403095002,-0.021961010044697082,0.012715501862418911,-0.0238868803782302,-0.006066327395549532,-0.01491344411877386,-0.027429479702909664,-0.015338429345773072,0.030805036624797673,-0.010906909026540196,0.012741910856839851,0.01822378921507424,0.030557709614110636,-0.026866462207187938,0.03125698862776301,0.025485128629472418,0.004422592293060578,-0.020583038002956328,0.024584180590994216,0.024934337354897133,-0.01667073966831099,-0.013256347556661035,-0.0014194859009545504,0.005505402930439551,-0.00640340192219885,0.027868691028158265,-0.02008836969498066,0.019663374074373345,0.019910324766392904,0.01054309485989326,-0.005076859010228685,0.02950240258127077,-0.012575610794048042,-0.0048364354745258,0.021269332218407606,0.03105957363063186,-0.008927243411576665,0.012539084035966958,0.007591179659535211,0.03264892101582568,0.029406400185844336,0.021684567102230507,0.014082210120615696,0.023615394801108237,-0.019026787015714915,0.015398378231181342,0.02335573749702747,-0.030106239763281077,-0.02441441932818631,0.012146118494994109,0.008878484869632117,-0.012584137012915175,0.015075046309555848,-0.0033664303031382035,0.023037732544213495,0.028917674425871995,-0.013634347687577254,0.0053058163788028655,-0.021748191086273523,-0.014804694378422278,-0.03561818274968749,-0.006053630295380325,0.009604490455874325,-0.015067249695666387,0.023871422278727822,-0.031809124132712946,-0.030344816209338057,0.010895639337063999,-0.007022911253886474,-0.015740400918610415,-0.02463886884879257,-0.019385837593813415,0.034201732718551946,-0.023933258798790127,-0.031841298826396525,0.0255566191435053,-0.009051317442909941,0.007732566964661779,-0.030707738156939342,0.017063599426493412,-0.00036755727055695907,-0.02484954477177903,0.012729610402544956,-0.010968284046499301,-0.013192951571331504,-0.01581171047479717,-0.024011646813169196,-0.0013105016307521963,-0.028538655491211155,-0.018145248957762077,0.0293722555212404,-0.002764035316931043,-0.015662128864493793,-0.003727039187001504,-0.012780201673573277,-0.026754552946907435,0.0026616429903706844,-0.00999948199323563,0.009038200805746766,0.0015475613827042065],[0.0011595913613582389,0.0015047460823518531,0.002331783172000549,-0.00011278521369553139,0.022391287697024215,0.016519016961446756,0.018930868682936797,-0.0038863613799950602,0.021766891433506283,-0.03645542718903369,0.016976631282381933,-0.024915695720054164,0.029201925841564613,-0.03464517821409013,0.030641569438215516,0.006815969026600232,0.025050510688939293,0.013388704454866117,-0.03051029559451137,0.025510505929244417,0.015285319395769204,-0.006032926553927782,-0.023349900350273244,0.03259189859425947,0.01974289687961955,0.020866604875973045,-0.01962119072244891,0.02410720150511244,-0.03229032018548465,0.014994669417233259,-0.0008240960663400275,0.028689792825793568,-0.002987515997230414,-0.005531930363733438,0.0014426570774491215,-0.012570803486824223,0.014300795159853991,0.014805280501885084,0.03582514541044236,0.03483764590564163,-0.008337036124495092,-0.00852554968314567,0.02502755358958046,-0.020618452708530455,-0.03453145622497842,-0.01205315014248069,0.022891721712379482,-0.0035240920725859394,0.03275817390917592,-0.0009016404281304787,-0.017725902103701886,0.006036789389451371,-0.014819110689984013,0.02300327157207879,0.013978161718172573,0.0030698944804892986,0.021631280595576636,0.025246583738791777,-0.005476024718054559,0.019552772027037025,-0.031589974900211565,-0.005592424473523963,0.0008635327465794617,-0.006928257041630245,0.03533285855807803,0.0011093255346451645,-0.032539288998467815,-0.025243216233628577,-0.012855057216336216,0.014202097386026966,-0.016742923012106184,-0.011283360770540823,-0.013402301598291663,-0.0076149330787695715,-0.0010964498963478113,0.017599073317186825,-0.030647791357850847,-0.014781174683198582,0.011299294554949272,0.02581978458831763,-0.02881560714920394,0.0074161609685857955,0.02829767739393637,-0.000527146724984626,0.00561370088965138,0.031349369020265486,-0.0010764716797927508,-0.008391410072565936,-0.00885581781245287,0.024428740934312927,-0.03192899784277028,-0.03229149612649479,0.007509185903675788,0.022293319850887422,-0.03194838345377782,0.03338452149341702,-0.01529496201985066,0.01804825178836774,-0.01539443223317145,0.0322055026160077],[0.006605063098519868,0.009812579661617383,-0.02207860621024797,0.011077846062053138,0.02115447663199445,0.00982746626213483,-0.007597637418459505,-0.01768204955855436,0.0054544366233859375,0.014791284812091016,-0.010690607552569772,0.0302274580380097,-0.023158647142070735,0.003406657777446518,0.004810118642627647,0.014294253022155447,0.033917452045974246,0.00865304189417953,-0.013057912701807806,-0.016055157219402563,0.03524616849805273,0.027979807110904368,-0.01923482658772319,-0.012816857148311326,-0.012281588162369739,0.027779984106772567,0.007158660711985752,0.024476379815106503,-0.002269150062613003,0.0037524340866093918,-0.026367347547824358,-0.028485197759343408,0.006170415061978173,0.015259411271531461,-0.006623132314464914,0.0003471812098608854,0.00016484626657968925,-0.00198765140459334,0.019710317458751205,-0.023181627364990565,0.006315029364452619,0.020570823042962812,-0.004818646572450569,-0.004763492380727403,-0.017752823158321017,0.00011135315504828015,0.009324831083198612,0.013566070930046699,-0.022923826196904754,-0.01203278873583258,-0.024773786030401642,-0.023108281807602656,0.01703146285053106,0.020584945562341708,-0.022964147913368572,0.025353617314265577,0.022456559390193833,-0.012384845192817191,0.019295530282836513,-0.020137760305204793,-0.004999019883327756,-0.010379506556045394,-0.034776084240669955,0.006153706903052176,0.025776736342898156,-0.02677156751172195,0.013306640721462877,0.003524519084591994,-0.0005989777046807529,-0.028940878238754915,-0.031933810222936884,0.011905905375165511,-0.027936488340707347,0.014970789311585584,-0.018253599528992415,0.023427121768233205,-0.029186532890963953,0.026614288031224446,-0.03256505163424945,-0.029781324143518015,-0.022314997750204024,0.03384349932774836,-0.031054767258110648,-0.006423269625230359,-0.014863666624617092,0.009534170932102522,-0.00604756195893517,-0.006766332423933394,0.011569871453648154,-0.0038372295847343587,-0.02140816449776452,-0.0056352211245581,0.03439354916654181,0.005810773605527335,-0.027586770757239084,-0.030631721745767927,0.022332785989549738,0.016280558777430686,-0.02730674933627557,0.026615480802257133],[0.005113552334469945,-0.0032103057475615436,0.01022592848764235,-0.03081533058932469,0.024669535444568128,-0.018894800769351065,0.033108408164847,0.013026015786850129,0.005881074652371725,0.005171801013238426,-0.013399443807400354,-0.02804104434303996,-0.020415661258689342,-0.00271893088967063,-0.03050491266785347,0.0015202452072583426,-0.03211184792545084,-0.004483251826272685,-0.01612786752097296,0.027935091260028178,-0.005021472131780295,0.030435626262108665,-0.00716459559707796,0.0010469241896853537,0.034635129740831334,-0.029575868323106207,0.034893717895954,0.024868056663655692,0.005182556313955389,-0.025960100027593244,-0.022178419216842625,-0.006830251632304607,-0.03551761967111539,0.03267695167580763,0.00022464408221935312,-0.021723571465732897,0.0018377597961503763,-0.024954641978451066,-0.03385283849070894,0.022819808629429887,0.01717974676785633,-0.012241169173660034,-0.019615546452565077,0.018040160488005604,-0.028962578558361776,-0.010303933984725632,0.010973416117695032,-0.019358394712370112,0.00974021360260897,-0.023321326746716425,-0.019585776380522314,0.001711718744550284,-0.0008218586039129513,-0.0218401949319004,-0.010368263138893311,-0.007749739290465079,0.02863727131664265,-0.016314740523076438,0.019346587324225572,-0.035262287014822445,0.02716957965541169,0.006963037613072279,0.034536581707946684,0.010566189212949861,0.0023503918342922714,0.014738288271389637,0.02346371878636319,0.012155183014701256,0.021864916828215744,-0.02195168530874246,-0.006224304422563147,-0.03455939983590254,0.03410345219757645,-0.010222128509864167,0.020631706943638927,0.002036499716200668,0.006438577804780323,-0.000027307831237717216,0.006031368600777563,-0.01733867302978072,-0.01756071006550535,0.02319739317047083,-0.03443902590819908,0.00016440970412539698,-0.017263908355053603,0.03165014913106815,0.017757376186160696,0.00788214827821982,0.01802398109361361,-0.03006812352841668,-0.025421527973340803,-0.028488096366020947,-0.02824834242670936,0.012782383673690688,0.02775887566653202,-0.02830643821694152,-0.02881839223947993,0.01421906852460653,0.02134140562346011,0.0010127834265216372],[0.03086171415248373,0.012017732959273015,-0.028043313875058394,-0.018629734361124965,0.0041239930196921275,0.003495372875892206,-0.017056343786034323,0.007463596521699199,0.032167135627801664,0.015398003961355846,-0.028008905703295242,0.021073494507388355,0.005016319645327409,0.02426612262553387,0.02326649940607319,0.03482954191322659,0.01719937182741279,0.007284809813065386,0.028551928783136973,-0.014413421843333852,0.0021351784792753028,-0.02619914574588012,0.03561585862685992,-0.005168296432320514,-0.004747666855788486,-0.03210776645399317,0.03504593050214531,0.00996651991516236,-0.02859192090322078,-0.02716100942188693,-0.017956216302151457,-0.013664834354760005,-0.0046350943870411615,0.00979589396861316,-0.03002905573890495,0.0318289374171331,0.003103783983030745,-0.009801276843162223,0.002005063790219731,-0.023500916351551417,0.03238570793919007,-0.012463221681412975,-0.02296728722485367,-0.014807055165801731,-0.029530294471089142,0.005404101109928592,0.022747617217977543,0.010179026112078085,-0.006805624827645081,0.013136384826848304,-0.02288125537063738,-0.0026473154041340664,-0.029318747791461014,0.00021657780182497138,-0.019304709853986596,0.00905477064198994,-0.02310793174416282,0.004548301428621371,-0.024407380396876507,-0.009966305252365849,0.000028891564645471735,0.03505197030145414,0.029630897267252883,-0.004663430036896309,-0.03507474274938634,0.020754533988256395,0.02010055475905816,0.001782953426789077,0.0051544850844434525,-0.03313985672512592,0.026725671725640204,0.023122511642371002,-0.030726724719180344,-0.00040967349289158626,0.0021325032227011162,-0.03247343680760728,-0.025018962549402973,-0.023987336911409612,0.012062830924049391,-0.0195179512644352,-0.029091824183234912,0.024155921535342278,0.013081486840564918,-0.007149492940912404,-0.034282537937858015,0.0332052142422375,0.00887183656294988,-0.02690380971040739,-0.011807855858293316,-0.0009531936689620861,0.023067460049351417,-0.022504446236941353,0.010545388810713053,-0.02685701467881339,0.01777500958848222,-0.008197718187015021,0.011825036952378066,-0.007417100354218512,-0.0109996754372911,-0.006417939500053088],[0.006802779290803659,-0.03390057395305671,-0.02006294034425579,-0.02087011497680566,0.026703407354927357,-0.019351664463981007,0.0034690191015552974,-0.02235686163310543,-0.02464759095125054,0.024866964787337194,0.007870833660368132,-0.017212697534481285,0.012174532270084873,0.010878105438678407,0.029262574520935503,0.011438379076318438,0.008520489216982124,0.020084406240892857,-0.003903134004925358,-0.004776534559068322,0.012168618161125112,-0.03187823370367327,0.02511743817104531,0.035525852740796615,0.01407522087741916,-0.019360333279060876,-0.023499803759843445,0.009190016142231442,0.008870359203496785,-0.01671175809052844,0.02294637658087589,-0.026249746607190032,0.004820257384479812,0.02876932981634655,0.02088170734465263,0.029144937137077817,0.01805916917764693,0.008413109301460149,0.03473768751917362,0.02174769879940983,-0.01962978788000435,0.027654017289372883,-0.018877892162571946,0.03325878075791568,0.027446377311886993,0.00960194346692827,-0.021499290017078582,-0.013126704434685482,-0.0006351703386034374,-0.03330823665624544,-0.010401903577048184,-0.00488771484220197,-0.024546506664846687,0.02650010634714334,-0.00285265281775365,-0.00354650753324965,-0.022435888290305284,-0.024975847566372337,-0.034891922468935896,-0.006070410769768099,0.012136227921209157,0.027586418730198164,-0.025897087109840927,-0.032691276845621606,0.018392643932085177,-0.0323555040015751,-0.03205516939640572,0.021118061538585566,0.005325320992715011,0.020159288345321342,-0.024444666963076116,0.013930648237528712,0.028881910899653605,0.0182288748782544,-0.00903557821496809,0.01790119556708145,-0.015142329020070044,-0.020777831970021674,0.007992543205476455,-0.015412894706557101,0.01782581648431451,-0.034569498122407616,-0.030284053755144712,-0.005010643990718824,-0.020583279100918672,-0.023322963521900685,-0.03007263870353083,-0.023057823178441617,-0.021783011669737954,0.013848436094980396,-0.03098633116332732,0.012858758655010872,0.03502441475322531,0.02561130719758281,0.028676911467205322,-0.015301723132649124,0.005673998279074567,-0.0031701818825630845,-0.03458306776369279,0.02319241431346901],[0.003560827587500199,-0.03570121729771011,-0.0014684154417635574,-0.03372930346364541,0.0008749726972374241,0.019703944084409054,-0.018099064885742373,-0.030064161197155204,0.017741151020813917,-0.006039097407400441,0.02055726789261412,0.03381024894179826,0.009287859483358625,-0.03505491155073573,-0.008203872867517333,-0.009700460726716296,-0.008955517571357497,0.017008238757813154,-0.03360311702847051,0.026374840987901774,-0.02751996979184815,0.01664344384301517,-0.017441433502515643,0.01420481483967956,0.032973639875871305,0.015933050596676473,0.00647556312967699,0.02819659405003275,-0.018850895108525938,-0.034178964044914883,0.017497237621310016,0.008379139001113669,0.010715524188427632,0.02222555031251421,0.030428344685453308,0.016506493429530342,0.024701723518724177,-0.024659255405394823,-0.008845412857085715,-0.02974191146147625,0.0025780219171593877,0.01690666058268048,-0.013954902564920442,-0.0068535551838717545,0.02538918289399863,-0.028385520030591072,-0.026149866227055216,-0.01581765746761291,0.03264942317187149,0.01418788930899368,0.021773959079234812,-0.022597533638417263,0.002653192254060738,0.01850512573897921,-0.025149250671183666,-0.010182647058363501,-0.020057337182671338,-0.017336492187516667,0.0028919000717841804,-0.002919117618534932,0.006009789827306414,0.014798904606828003,0.03467261026000018,0.023561914196422264,-0.013915991846064164,0.013538647913147635,-0.0002607551924851742,-0.027796996452534504,0.034097604041383324,0.01329659173447149,0.02208789766430925,0.007848816553980027,-0.012231154261834257,0.027715709126431905,0.025247323715866396,0.01501689838033845,-0.010981146578820112,-0.003254661977376949,0.019461109254129232,0.03348698899125997,-0.013923840053590956,-0.005112400943642233,-0.035257786892241155,-0.02193410838797767,-0.0030407077973363035,-0.03550241376068302,0.007691076666111359,-0.034428063218920765,-0.015005351992844342,-0.012394945430054809,0.016267816089725044,0.012210649721555972,0.018259488288392432,0.018453464707146514,-0.008770426900390864,-0.0276974161905467,0.021709655852000787,0.0013189358436967494,-0.02825646248420948,-0.0014806401981629158],[-0.008992472067523901,-0.03253592619512921,-0.030387434605093338,-0.0027997218615740077,0.02814246818846864,-0.007526264235246047,-0.028840794013435752,-0.018968267791664453,0.022168132098360133,-0.023818455833174428,0.002011116883727106,0.025473173136647553,0.013759046887250253,-0.0006034013877466963,-0.009428989495855642,0.007137139774773184,0.025442447975714048,0.011403988074775443,0.010231446506059285,-0.01566747049713725,-0.026301077044291944,0.032623178061931636,-0.027838870520647038,-0.01901637661176131,-0.02901004602735586,-0.010797381956869065,0.020847067486228756,0.029272888304523802,0.028410142269987435,0.029391753944412288,-0.020211557747759828,-0.012651112912476897,-0.011733605503026821,-0.03518763505925654,0.018730763703660214,0.005564424155219285,-0.03426738088765042,-0.004402581752060607,-0.0006996374102431291,-0.002233630192412236,0.006545552205222536,-0.012796013972498552,-0.012801411902585191,-0.015139618156340271,-0.030454550404724,-0.03293879466813884,0.0032861516713624693,0.03435731540639966,-0.019648377362570982,0.021815547721181907,0.024168734335846494,0.00965919113862477,0.004292631374761161,0.023395205678155714,-0.03232388344666185,0.024836159282523602,-0.022904468719204134,0.019076373890038596,-0.007384063874139575,0.02585787703365074,0.011293810141654436,-0.025051219890401225,0.025488937440581356,-0.011878103766387104,-0.017705828733815238,-0.026435403345460125,0.03405398529536097,0.021720521352520977,-0.0008840958085115454,-0.019737477182489627,0.0025617271313555763,-0.02341372407976725,0.006434730941758556,0.019394817700185817,0.030988572589299147,0.015307810231753522,-0.012591366919769179,-0.009128627792541942,-0.03358273649957287,0.01480995910558326,-0.02973760122701506,-0.01753937174508124,-0.03440167662725057,0.027336261767689416,0.01595295633815872,-0.00048427237838468714,-0.024173364709856544,0.012837799769751183,0.031951035970281,-0.013991961556178153,-0.021279773442099484,-0.025954513904329422,0.034382669835274764,-0.024669481426027113,0.02347240726128063,0.02307374363441186,0.02342215537450339,0.019472191506158677,-0.012043022706709301,0.029949354535802792],[0.0005202697112594526,-0.013539581616456733,-0.02899276832284677,-0.029220861270950985,-0.01475442942745787,0.016218325738014853,-0.03491583527242094,0.014919092336405856,-0.02214156028325173,-0.002654661848889915,-0.03522844255088389,0.030565399069315744,-0.03567832211440671,-0.011523083060052794,-0.008308438435146726,0.018381416190407278,-0.007028003358104051,0.027765517483152327,0.013811189249013903,-0.02593713890444202,-0.01385817849232893,-0.004105803461242845,-0.0020598972166736692,-0.007165826008050101,-0.011259535195333324,0.004064286055016043,0.012611129010137069,0.01945685283605887,0.02179175148371717,-0.0010718237910669324,0.015593276945976921,-0.023915295626792246,-0.01805971807748079,0.024642503093857546,0.018990097730992354,-0.033257901932723474,-0.02949496347503679,-0.0349579970905392,0.019084108696346424,-0.02697362719948691,-0.02553583082046407,-0.011854576713666682,0.013862669883400961,-0.019673527325539245,0.006362032239008999,0.0028594430107234075,-0.011074717203545395,0.011426389669674013,-0.02159879006855027,-0.020131658572409977,0.02035629863095551,-0.0030526062125483967,-0.03166721432506601,-0.001760211654846294,-0.01018909593296593,0.033192958151177,0.009318730447157487,-0.008287624964199101,0.00555580934418007,-0.025277498841874423,-0.030732227801834475,-0.0027959862830102466,-0.020113184739403597,0.01907745785418083,0.02432009788666713,0.023825322490684874,-0.028792420844949023,0.03048144327467592,0.02539666754089503,0.014068222846761349,0.009492633197597595,-0.024486474539454357,0.018929259114388863,-0.018937957916740928,0.0016125809125968253,0.006906637648120761,0.03528577667274982,0.03139557811090185,0.017671024770922136,0.003355548485497917,-0.03542231885477607,-0.01845315527762322,0.011428527181439283,-0.007576505966415573,0.029028002011864888,0.029923628683118975,0.028462657799464084,-0.02062866908541813,0.03511776497064872,0.011165229309549878,-0.006967125746228861,-0.028475616304760257,-0.003069874125317894,0.022971001207200605,0.01632832800464814,-0.0019489025576893012,0.03355386390980032,0.00843356867513084,-0.005481337656548868,-0.013208171483238617],[0.017001324421177758,-0.02784535586306799,0.02134019600987812,-0.018559706091238873,-0.023097357796104213,0.003891937816804667,-0.026153104242615785,-0.02415783256426025,-0.022121038786731814,0.03127940875991343,-0.012492641177677828,0.015340324082083629,-0.028549939804905538,-0.012728355002681395,0.02814952667080294,-0.0024731993485067427,0.0006091062514591944,-0.004897594865370663,-0.01619835028208094,-0.003862135313021815,0.03393252849141619,0.0006496432232545995,-0.003340244210492951,0.028175033904303093,-0.0354866883413477,-0.03422412350421463,-0.019410900275702546,0.012407337207937096,0.02097302787700356,-0.008058551195447163,-0.030164067308088186,0.00538991118643641,0.008006642137717545,0.010497048200396188,-0.033148538994747144,0.021881038411945882,0.02423210198521769,-0.008086017549164295,0.02944047582752434,0.007712768061935937,0.015370456180085453,-0.027557055776863657,-0.014227814455355077,0.028209081365694753,0.013055332497555997,0.0035231456570704047,0.002973865891130984,0.02719097860061589,0.03173862101694874,-0.011847895663907712,0.03247115764095989,-0.02351643830302202,-0.02173154507650134,-0.008906679651985437,0.004088905609727949,-0.0019745808173306607,-0.030272644787871058,0.014018665047041311,0.02855017110199366,-0.022860181619444146,-0.02571279244992493,0.022337848328224066,-0.022034996947102963,0.0326954724895416,-0.0036895978201062912,-0.025507376084694073,-0.012952780104598619,0.01243875122033398,0.016908245027867346,-0.03200664422086087,0.025837607886427538,0.01872302131262088,0.013968413404980694,0.010136002602042239,0.029387592145037614,-0.022460062309634734,0.00462915000352532,0.018973346502052558,0.01825252298096612,0.010296898478506062,0.021212865822960808,0.027561071476837187,0.010180027547372647,0.0012760016371006556,-0.01860669433088195,-0.012187144710940245,0.006273567762999143,-0.012618024091790194,0.023412189253127696,0.03206699522413061,-0.013810536828598357,-0.03438539700247115,0.011995897895558449,0.0019467508217886238,-0.03239277773747355,0.007657929740530746,-0.0003545013990869576,0.009771009473503874,-0.02986042914550592,0.0022402847801463463],[-0.024567672362560893,-0.02589291476504641,0.02119580772547569,0.022096542698900632,0.03483481120634568,-0.011309852566017475,0.017009722928001885,0.028682949489864804,-0.011392036604454172,0.024158955637089398,0.025332568776423228,-0.018279331173388518,-0.029046626901961834,0.019237541660129077,-0.015370555105870936,-0.00031091646840668345,0.01567724174962241,-0.033005087031599344,-0.015105425541878579,-0.03401114212253847,0.019884567820773184,-0.01593408470044811,-0.021040472993345872,-0.02154198262598872,-0.022300723991039377,-0.013711987050861978,0.027809326532820235,-0.0342814580661218,0.026922746016109497,0.0018434857837953745,0.03154594559124675,-0.00010034684779070745,-0.022880831937890807,0.02554679967384621,-0.021776339915073765,0.02281354685382843,0.01474993132127468,0.0038616352838207043,-0.03311699961742087,0.03250211921205709,-0.005833382152856867,0.02468693813443555,-0.018784638992315725,-0.025382945690886293,0.00946888227076499,0.003425133178418901,0.030708310812471575,-0.006942534216129459,0.01793965500292003,-0.03324486390816085,-0.0023165155892834813,-0.0009537997540135416,-0.030156224070798213,-0.0033298924445109984,-0.02741527516703865,-0.010808076120971595,-0.001420563453252343,-0.020096561643492123,0.032768635666828215,-0.02846007205427734,0.026407979011787718,-0.013395816698411568,-0.026573559497718016,-0.007694720300319756,-0.03403568426667945,0.024338668836004492,0.0023144904486146986,-0.005056521011213309,-0.017730491230058862,-0.01709415543362324,0.0023397235320056645,-0.02840509770748965,-0.013670449022898925,-0.012712016857899102,0.0177997696164129,0.010842164910666224,0.029633879741922334,0.02586721604291875,-0.031009310341947316,-0.02704143066309073,-0.010582370490408844,-0.027207363228981582,0.026785995552169015,-0.019596437480099687,-0.020029134631424323,-0.032789348926783035,-0.0004185304219600674,0.021868570287023638,-0.005600984491128822,-0.015009037087859136,0.00298484729763408,-0.007364781887715641,-0.01371962004305754,-0.020688411816904777,-0.017121916962137888,-0.023414560472354354,-0.007987282973753817,0.016595496199222067,0.00987591260644266,-0.027305006165516958],[-0.03339575044497012,0.019423925292307655,-0.03505289014444875,-0.03522041941248728,0.00017041171763731384,0.03069143162888102,0.031203625667234735,-0.02139805120744265,-0.015352295717854725,-0.0020716214093626107,0.02967262848882367,-0.001898449345994305,-0.03275269725358171,0.028206858559994795,-9.571259469643112e-7,0.02762122132153111,0.030870840137667364,-0.01861936902572673,0.01830902557431924,0.021739888499665152,0.030177684234010117,0.010195690642906851,-0.003203997776377694,-0.013529013377966295,0.026340820167850974,-0.026210239550664118,-0.01361786776033805,0.00044687092915364143,-0.03072410486856207,-0.03287595189431555,-0.015361763956550164,0.0029585867332706903,0.005657791074511276,0.034172824307435304,0.015926792536698944,-0.005980143876377182,-0.029395579000767495,-0.00018485208888671575,0.01038545702250078,-0.01371338922363033,-0.004589973994623862,0.016579668189981057,0.01609433497434259,-0.015574171874680333,0.01665645814693495,0.02312847998645106,-0.009341286682184754,0.019140909103278324,0.017354800650511013,-0.027189690675473624,0.008308782734943001,0.025243526382936688,-0.01397701357598507,-0.009895974582267703,0.03262416898378124,0.011620125046518274,-0.0029900670312637137,0.00039930598987569007,0.022254367898574424,-0.02060937737719381,0.01606935736141539,0.02779678576046252,-0.023332787052684056,0.0233612156685761,0.021116464675330158,-0.0214175879837662,0.027217369466801204,-0.027648578579598303,0.016084002051968666,0.014351364921422999,-0.013229183114065533,0.02501381149135273,0.030112575309563867,0.00573682519749131,-0.0036799160528634394,-0.033419064691828156,0.01861064280169104,0.024439674831411295,-0.010216905638196314,-0.02247104145915145,0.008377519614183543,0.022076021574395054,0.012708986466556004,-0.004511780745030253,0.001035608645841601,-0.020215936414420373,-0.019374233671236387,0.03321056356851831,-0.020025073427321363,0.01086690368037771,-0.019989331439863606,0.033132446648644995,0.03242245605499902,-0.02368405559171991,-0.00008812612952493572,0.001586509559250845,0.03454263183533272,-0.03499026533007927,-0.03254328312402498,-0.021674116152192415],[-0.007620291455724566,-0.0017809810342197252,-0.017326100217833054,0.02379115401229748,-0.01286831128495036,0.020291479003782274,0.029037623874606688,0.03503332531068867,0.02859843502366489,0.0012601924966722544,-0.014570327220146837,-0.0184259892219009,-0.0200626453236663,-0.03353674291185716,0.0027665407444179006,-0.025668392518228878,0.02119404197178189,0.035150597468789,0.02847788635068451,0.02281195971441199,-0.005803589789867365,0.016170077002911277,0.030826751325940153,0.01730493159340759,-0.005549573384093601,0.002729090591175403,0.0032268684206786104,-0.030948266759151084,-0.017487981062487275,0.019821038404426755,0.01082640656781857,0.0009258178261462974,0.023621677243018793,-0.00715705720548173,0.02740941670426075,-0.02578573109495174,0.024244045420231872,-0.0030398971460482292,-0.014533393015612281,0.007506239029136841,0.030406660545667694,0.02947906586324189,-0.033796574521816884,-0.012929551509665573,0.020831822188595788,-0.01250042850706211,0.02002808969858441,0.030850793117842838,-0.02464481120961345,-0.011420796021470617,0.013871122971545325,-0.025856053087984127,0.02925885091233539,0.01679316430593299,-0.020531368182949556,-0.02542069991358603,-0.01979699219490507,0.03397868480050102,-0.023921892617848342,0.021136349291048163,-0.01856638058501805,-0.030472206870629858,0.0014306586813251359,0.011405676397567004,-0.005789595720913384,0.03332481379664591,0.024692476322742664,0.019668162451586806,0.006136756990682002,-0.011061218132413092,0.004094288939081994,0.014772609461068632,0.014807095713092615,-0.0331559803635196,0.03460692144286852,-0.01745798379583022,0.0033105118718397995,0.03214971072090735,-0.025875354801892403,-0.028902398511777738,-0.02084761594865873,-0.005888078544504575,-0.0051533694550920765,-0.03563536637981643,0.003800497137975737,-0.026110403300257663,0.019865447353949062,0.007143147655394558,0.03417514612742287,-0.010637243932269913,-0.010340639826364078,-0.02075794234421131,0.02378128615550295,-0.03530172282412877,0.032325956026504295,0.022936894255428105,-0.00874543361653097,0.014756327457162577,0.024163319284271755,0.003387225471291888],[0.028811411252492834,-0.009290568379456085,-0.0033272901534081366,0.0033809918295843407,0.010132857411199823,-0.008563229888944758,0.03530411584991983,0.033441796350089925,0.009793298904296692,0.028713098261680604,-0.014593933710865222,-0.00032813008984757734,-0.03192227442559581,0.01922323011288701,0.029251671810620862,-0.030813833577553393,0.035473890379334606,-0.003973061340586093,0.007694687335632675,0.023740906567657406,-0.013893470746705598,-0.0018074579313474208,0.004249487041079449,-0.019661831411463642,-0.014025331887648715,-0.035347626630304024,0.008597281393358878,-0.022458919006041557,0.00023391224583961493,-0.0335602408206437,-0.011389604005041474,0.027181629930759645,-0.021151973373873846,-0.03144924663597166,0.03543669641301804,0.014320169591139725,0.006178284439677553,-0.03243458307491571,0.0025245377504381954,0.008026153205848971,0.023323263416920318,-0.022789493403691262,-0.019081728652368426,-0.016846412600216378,-0.0048549253696016665,-0.0013749603901226002,0.01598623494107215,0.0072875124822510485,0.017151045910294194,-0.006808841067303283,0.010863763120575003,-0.0018600590086048513,-0.00977556553328073,-0.0038109488064278422,0.0007165154891954536,-0.021573160150129223,0.0016156432036312082,-0.02950149457982339,0.03467545837106438,-0.021150131584621035,-0.003052829388506141,-0.020964715405227922,-0.026248413028780997,0.004700911194533457,0.0008418516938894572,0.017279715152650692,-0.023287894659202436,-0.02398553477025425,0.023071153231439025,-0.002980452864365087,-0.0006959614761883338,0.012416625073068928,0.008847531910780526,0.021720588654759336,0.006141721874063866,-0.01922240357064696,-0.0015088856102842018,-0.0034022662379458945,-0.022619701992210993,0.0024064056075781357,-0.01944887214473616,0.020381518893946356,0.015927758272990564,-0.01886630307004296,-0.010925340650095946,0.03234884174147045,-0.0204086648727181,0.032173205519446336,-0.0023170352932500374,-0.003200637798552257,-0.010608453083755465,0.030507939936381064,-0.019722009507561013,-0.00822724045657675,0.012744288222220063,0.010574715511255562,0.014184796886070262,0.00545241642253588,0.004039036991728697,0.023026027515981505],[-0.00436162507155622,0.017262719148727783,-0.028773942179362483,0.005114376515123881,0.005743766974128568,-0.034565292355945694,-0.031198969183694716,0.029883879647172748,0.0328431497644798,-0.01443939278990012,0.021739235266252384,0.03319478526564486,-0.025857327203653108,-0.0034859076309830084,0.015932258256332616,0.010124456039517022,-0.00616897748009908,-0.013224371240112864,0.005330354785991892,-0.007431248602339211,-0.01627246958739724,0.006298669138434007,-0.00449806103261561,-0.0068861413404601645,-0.002025921773932515,-0.026946320192911034,0.023080967292739,-0.022137683094303195,0.03520184382786642,0.00648828534214911,-0.01014447241708396,0.019898481853823854,-0.022328462573021696,0.035682484917775766,0.031972280773785035,-0.02055209780101279,-0.01439761941814319,0.025105368431892396,-0.0245713246069432,-0.02670770038461058,0.02959784551158891,0.02499137086533277,-0.005844552808001808,0.034995864952842744,-0.029455203894066553,0.02174843486278424,0.019564939793755988,-0.020891403401850195,-0.01230770341422175,-0.034104252529817844,-0.026481539699212298,0.032605380857558104,0.022831149167733177,0.033139302909062404,0.021228275898295977,0.01074894556854533,-0.010070948702685828,-0.01277962723406032,-0.008658911004384632,0.02793382595612421,0.029246490077702508,0.010803682371307894,0.02599111776429589,0.02073202905282976,0.027319043412034772,0.005251945264564511,-0.027405903120631563,0.01355107706882828,0.008485164506096314,0.019563039715897377,0.0005798719640363151,-0.025940774133405342,0.03440970974664223,-0.027212986540874153,0.007557041266643405,-0.00988502682219413,-0.006271680695145764,0.016397301339575544,-0.0012046535573743903,0.02692829718723235,-0.03224176807364321,0.03178584504194338,0.005278042589355582,0.012553424750061552,0.026252245922978278,-0.023137354439892368,-0.002048002777425016,-0.009150119603490343,-0.02385385776648764,0.029411363019313755,0.0036707339567153786,0.015004642476087607,-0.008016053143266309,0.030465082853541943,0.005587014912837953,0.022637840846529228,-0.024902792770241294,-0.02725863869697161,-0.030928159129688597,-0.01526243027466613],[-0.022684404009679117,-0.007265989490826622,0.023994373853918654,-0.020555193926143064,0.028571033438517048,0.010438990164944558,0.001815414338632871,0.0005314586496561805,-0.004000175481159053,-0.02805872561602079,0.025679283544424693,-0.014614836568701639,-0.031269410572295576,0.0030645268699326664,0.024814855017153525,-0.014276207008366258,0.014030951347786303,0.002908742393995261,-0.033503396812311056,-0.006742240966506031,0.027799817044349445,0.005098737672528511,0.0176703532373918,-0.021431327834266482,0.010684858543111112,-0.018229213159691005,0.012542804355310182,0.015566718535029729,-0.0313957341821922,0.010774692136799284,-0.002757197377864189,0.00992533678362404,-0.00368295847461163,0.007843975536375215,-0.03466466974560412,-0.030363784170574455,-0.0009193881571105228,0.031934786654007744,-0.010888268302196046,0.0039279252750483926,0.027720391421952817,0.0018510240285994335,0.03436589741863208,0.013681861604548002,-0.011582719460140254,-0.02592653788128906,-0.013681554878336107,-0.011233027307273035,0.032869716611376366,0.0339950500915383,0.019557752336373746,0.021745036563578738,0.008395071229390927,0.00915920657029742,-0.0014423471262556109,-0.00786344373239025,0.012892457304096447,-0.019376315786975972,-0.02569959957449883,-0.0005320286882516819,0.006178684050709914,-0.02169689073556952,-0.003945853101865738,-0.01710951590430645,-0.006664057027750779,-0.02345158497792812,0.019146206045044186,-0.013914466114058383,-0.0148391517015547,0.0068278656919231115,0.009242928711121715,0.02776189608990465,0.02133656225473569,-0.02850304089605898,0.013086330920697465,0.008293238004932597,-0.02883168060750267,-0.031110820000166572,-0.009327648402912222,-0.035621607565005556,-0.011099159077087487,-0.002179560843655621,-0.013341838797623752,0.0015910711643614352,-0.021454569220273542,0.028310582978586945,0.0035173194017129946,0.01371976884096556,-0.009958205550373618,0.025510924582252258,0.01951608692844955,-0.019258592852629656,-0.0030831240028903694,0.02025070535323681,-0.008147101036130273,0.0016389591447378649,0.015448785698473279,-0.008435931377333722,0.0301385375576199,-0.031042701505908626],[0.019847492671833843,-0.027049024305782453,-0.0051483681553971625,0.009704972905448115,-0.014387353345459023,-0.02624118209610623,0.006981436821519053,-0.015571842405652117,0.02579100644329978,-0.019610407599930185,0.0015112199451978287,0.0026942385239528514,-0.015450977019777403,-0.01442628986421173,0.008045898084854067,0.011441567678435023,0.029818677205332936,-0.009468015639751066,-0.010815407745553373,-0.003881006947157777,-0.021435388573252143,0.0010088065919754913,0.016570265491987615,0.017456104454900017,-0.022006526849991048,-0.020766952872512272,0.004775729395853853,0.020850744224120237,-0.008937507861572729,-0.0000040527293429710175,0.013999117618895949,0.0003648121697782092,-0.010772670112602151,0.0030529881177441824,-0.013011768682302458,-0.022029300657466572,0.02130632629864355,0.03298978004381435,-0.026935385854858558,0.014098688278616833,0.0011816764070494395,0.03130247686275514,-0.025881935226747213,0.009928903498766652,-0.013906105188013173,0.01448718869175329,-0.0276497101336605,-0.009137760113187381,0.003773690210940906,-0.009402736674941363,-0.020811123529367117,0.008562116814263216,-0.007424607409274871,-0.013132876811574058,-0.004521525175948639,0.022199407727786627,-0.031128891465670452,-0.013552823753757251,0.019888977897239164,0.024983302931627285,0.013121856024274615,0.018520451164166403,-0.004506690537708744,0.01737408977759045,0.024599218274927285,0.021516205655756314,-0.026624043650650006,-0.007428125453881558,-0.015685749601538932,0.005906287086041579,0.01911038957143944,-0.024009517139802344,0.02092143939813055,0.011888556791376381,-0.03389039760486191,-0.0204073199799761,0.027934140839511585,0.016748642858790557,-0.003934409306917966,-0.012822497450961066,-0.009435667099453949,0.012135843365221442,0.014520310459740619,-0.02498833777839155,-0.0329479092885398,0.008870961968289133,-0.027820076685904173,-0.011086272360547727,-0.03231418782102211,0.017067684028422073,-0.011029816008972139,-0.0020153306312425782,0.0150126083153353,0.029705855935876498,-0.024957264501780464,-0.028136114760006457,-0.017956379853991785,-0.03558411073047678,-0.015749054251041148,0.01094431316644447],[-0.017016722663482624,0.03524625430425412,0.020491008395543034,0.029554719932724852,0.008184221393127085,-0.011160925922563205,0.016454939448952818,-0.033345115598520686,0.03311260245895464,0.031131834766968926,-0.002234635080158361,-0.02196716899631461,0.01229761205591895,0.0162943714117836,0.0002441307891339798,0.02275914833976829,-0.022268348952459473,0.0029938600533086384,0.032998618360113405,0.007852484580683081,-0.03369243571814419,-0.00532410110031457,-0.001760032368526716,0.033544548455102546,-0.02387023145057278,0.005830265365288727,0.02641451825877589,0.02736070171797467,0.025814602006760022,0.010796062947100775,0.0077344737349816185,-0.029613210095589287,-0.02484635160851544,-0.008772572625106334,-0.011986696080637235,-0.010252998202374386,-0.01005685905879115,0.027401930434022916,0.01260314098058901,-0.008352644876954413,-0.029707737172278034,0.013367081225997635,0.021922631787213907,0.009300595949902265,0.033702351414618525,0.0015461906395918563,0.030667652700015632,-0.02309013559432619,-0.03554945907831575,0.022891554783054,0.02649670510815286,0.034546938884189596,-0.010950847741218584,-0.013869133731074873,0.004979938881185963,-0.030944225537444147,-0.009645531799337604,0.005651589674759137,0.010962551969949531,0.007871236299891388,0.016675468708866725,0.0037873688438218875,-0.02025745988098631,0.024086044964385468,-0.004564869849915288,0.035290266164308276,0.016757144809253433,0.03539895105898708,-0.005255453231019427,-0.018139838797345133,0.011919718975621456,0.0008378924151546562,0.03476074147291876,-0.011458366228838255,-0.022693614236423267,0.03564061492480127,0.01050595065360227,0.014917235565871668,-0.0035811494161044964,-0.01702306557274176,0.03298482344677223,-0.03403265855015187,-0.033811208214282074,-0.00983962441499834,-0.022848851470973448,0.023244605320641987,0.012210965370898061,0.026017797026120032,0.002730245233544542,-0.019898580019811995,-0.01723925766910968,-0.03243887975554842,0.02754568170632153,-0.02058943733992882,-0.019432371882390533,-0.01376586392484738,0.0257661546693188,0.0006481367112083352,0.003309018937988735,-0.016258563365047076],[0.0356288135406159,-0.012615356711054706,0.017583586047073288,0.009023743731593642,0.023371955984037514,-0.024127716291242003,-0.027057536020677325,-0.008075292914319491,0.021668829474474932,-0.00905730732393786,-0.024200445148117453,-0.009587251620125078,0.02256122687533259,-0.008867057929322204,-0.030692669723407145,0.018889891584024793,0.00560734458069856,0.02987218105896093,0.03198475536919112,-0.013378078428818949,-0.03152499371826293,0.018737242056275822,0.013136461103923127,0.009466141912477001,0.015165343457322006,0.012470485365339031,0.029389524137234592,-0.003459113577744162,-0.01030616545283737,0.02606949701193186,0.03383335348231832,-0.022301865821804198,-0.00930804159012209,0.020008266223302026,-0.028655465942222576,-0.031039975835504965,-0.009612362562868161,-0.020221992140601556,-0.03094220230169891,0.027792915466276817,-0.025811412358135784,-0.011864943827430252,0.00962257910494771,-0.03147025485735978,-0.033748991738502564,-0.013122366427896224,-0.03156541454877828,-0.024319020117557995,-0.023278207526484636,0.016414047277221108,-0.030706103529252845,-0.00008102484974963877,0.022650670186220048,-0.024172329569259843,-0.032893502050205935,0.009933764762293731,0.011233906107403822,0.02512550249902566,0.009615096342196285,0.023070836888856392,-0.024679293549753123,-0.032920112251614536,-0.02032063996725772,-0.02588716389949806,-0.024487308654173905,-0.017769822689041825,0.03482445651437315,-0.004121554471180034,-0.009631035189608438,0.019918749391186142,0.006494318268031187,-0.0324030251786124,0.015619050500960178,-0.018514874992790652,-0.006840996130130433,0.0018715815629648394,-0.03192200457083398,0.003280852013776824,-0.02083101079400729,-0.028525961705018598,0.01564129305352691,-0.032024345767248316,-0.014969963501133098,0.022668604966796277,-0.03329937134010532,-0.030079842548926136,-0.02557372722450663,-0.013183350789726517,0.021238710736446873,-0.00701634777211501,-0.03145079767866904,-0.0005733603701510701,0.009071912719009442,-0.013108752984058196,0.027641605684286297,0.0010258015337570017,-0.032698575397334485,0.034882196748167935,0.03540595100752424,0.01685676470798371],[0.025537010633261466,-0.0010157795698593952,0.028586732744674638,-0.005263754955677116,-0.012259383534183503,-0.006632969173591071,0.02830855289180086,0.021784044224951307,0.007521638861579041,0.007184164277304662,0.01742002115435419,-0.0013785950699571978,-0.0046512467940200706,0.019992238328661663,0.0038911676657126647,-0.025579880101956422,0.014482240581131747,-0.008822979077277148,0.013986474718001114,0.015322986429481855,-0.017087397738549004,-0.009357593120079643,0.011321158196578685,-0.0012090299774259992,0.016844069680196784,-0.015122811907259158,0.03505930734312033,0.023487962779840627,0.014546617611306595,0.031069202880165087,0.02029312431831809,-0.012698461024088638,0.03464913695206344,0.016659495426801164,-0.032055164820016656,-0.0016725586953057281,0.019483062894693176,-0.029088543839966535,-0.03402584725957981,0.0044834468912234825,-0.0009749715587764358,-0.032955338379286436,-0.006840569266275674,0.01809618897709236,0.027007270290232727,-0.031297054628328116,-0.0228989287795845,0.03447046876720906,-0.001140944727635864,-0.011622612069454906,-0.03278659841636977,0.006554074877852415,-0.028786211556362316,-0.029413133541866168,0.004058444292583481,0.022373783763418507,-0.032363688445062475,-0.033417107661821426,-0.02585410067774567,-0.01982826847615484,-0.02526572231916306,0.03409613395597453,0.031206219340647184,0.025131640059651864,-0.019446297483739203,-0.03375259058253562,0.013481624928585111,-0.025780513451909893,-0.01057019354122628,0.015009017802162296,0.007215760336983746,0.024072608201562946,0.013083891187906628,0.012453018239880384,0.009011011615801479,-0.013042168584658401,-0.006145557988581898,-0.0330654384537306,-0.022620577508199017,0.02707639723411394,0.03561266499509055,0.02561327694063714,-0.029413264632647994,-0.015492891153820602,-0.002737079558989193,-0.0192048790635146,0.028969779959225835,0.017441384887276062,-0.021909923591709554,-0.015371711386911424,0.014721937224004255,0.000151886849178758,-0.030167366636900506,-0.028624973302398014,0.009118986335463333,-0.020517073948955845,-0.025195293287491365,-0.012671264854147378,0.024589647043644827,0.025934821580032935],[0.01631574430802807,0.02503105030177424,0.013904390974505852,-0.012703919620702536,0.01956617438849291,0.006134709487191964,0.028217142912788644,-0.015979204451377602,-0.029597431444990916,0.006619834885693418,-0.03552719202362103,-0.009967651088273495,-0.015719254555456495,-0.022002977404419546,-0.002809617096093868,0.014558572132749152,0.025569328956218093,-0.02755002216338345,0.0028412953301938065,0.011058632200353738,0.013370508957269685,-0.00645529262488458,-0.009014959534691154,0.020575603152294872,0.01632511077957004,-0.033441771756681414,0.02953840532662275,-0.004771548466075338,0.02765174696125152,-0.01853823923412708,-0.010125537547330164,-0.012156939542590367,0.033123972870889695,0.0017582805925965364,0.017452923116434114,-0.020429925743579987,-0.009956516251010124,-0.017440358632691194,-0.03262054273411727,-0.0033623501810510904,0.018591140389022702,-0.022180829337948422,-0.03509599709909691,0.0031587186297851893,0.0342964582887436,0.011451786020676204,-0.018392777275268925,0.018909603766228942,0.00024068231750967205,0.0001424742164084016,0.03308032842674068,-0.00831795665495121,-0.004407842647617194,0.0037085072855038734,0.026318382868852856,0.02791772747176977,0.01779917273792659,0.010045071886061954,-0.017807473589134464,0.006160225642641563,0.00564333592240017,-0.02565750935005835,-0.030438124400625207,-0.03191032258011822,-0.035414833522518674,-0.022838441476637345,0.0218961610829375,0.012544175705804239,-0.03122051516902536,0.0044894880569339105,0.027316901793309638,-0.009894592263447487,-0.009355752493265949,-0.028850494148546815,0.035684822762542825,-0.02166948867567073,-0.012494803028756878,0.006104131610340372,-0.0344093512591228,0.03471899197987198,0.025380390942919606,0.013704656721047797,-0.01110870026216898,0.003819833775302964,0.034153639308235215,-0.015784818275487524,-0.017308184278158525,0.034721431309511726,-0.016500938296683115,0.02907160528079159,0.010626613950937214,-0.01138516649502772,-0.025086951601102147,0.00842556517450383,0.035369723222036825,0.026958171216514018,0.004161635159773229,-0.03173209199533627,-0.01454440083767852,-0.028550497653782158],[0.00012980505979777045,-0.030472581649097406,-0.035172247617837354,-0.03265693632388998,0.027699759500441543,-0.033268149730840434,-0.005859711867815439,0.0013969594933880022,-0.0142566084362257,-0.011547794079153588,0.023375729975974403,-0.020141054660321924,-0.023406914118229594,0.012456210590629568,0.02310965233245731,0.01986086572269337,-0.001547236402405247,-0.03222601018833279,0.0041840616586930725,-0.02865680252801749,-0.03537279707565108,-0.015036696091425482,0.031420575034961394,0.028131256301581736,0.015689551775234532,0.002755378346143685,-0.0026114354001665454,-0.02317889770834181,-0.025833980035012985,-0.007272882525556901,0.030337322898693356,0.01727137994565179,-0.020707507440856785,0.024236039715298245,0.0012257009009861803,-0.03010464425639029,0.024009918917325405,0.02344521636702216,0.02744626865151603,0.016815150681302453,-0.012760168892604533,-0.01022910441079622,0.028837355195909038,0.018675521241040008,-0.006142981617178264,0.014802776516023734,0.019663127654918913,0.008561439986064167,0.029521535492971124,-0.02275145438726505,-0.01276147875876516,0.011854244832360968,-0.0084442022872928,0.03033390941699515,-0.014469501424197456,0.019330921784938008,0.025946229900591037,0.016641552171953605,0.03478615808758805,0.0354500828152628,0.02579253136959407,-0.007859053441849341,0.033318657541647353,0.014924686128869566,0.0019853082409163414,0.0006271975763015792,0.012600272739431923,-0.018530931491547893,0.010668865333382337,0.029989699755796375,-0.005813724722389428,-0.01923909139571273,0.023495420049775766,0.006706827664587981,0.0261091053927715,-0.006031606647090042,-0.000016430445693954484,0.021361932276420484,0.031844267048005616,0.009913074042647785,-0.011239056535275337,-0.007460865752199057,-0.013463189820054039,-0.021573543081171178,-0.032445533285924345,-0.020594895172138198,-0.030140254420431365,0.022051572749782936,-0.03339844678282765,-0.026236617912495215,0.034290159720367946,-0.0022121284900036334,-0.008478533869168789,-0.00001325475322217098,0.007968339716252038,-0.02793806392611327,-0.009656262669364144,-0.02549355116840342,-0.0019868056037372563,-0.03500660973026373],[-0.02469655488072756,0.006532260348758149,0.015580323129320584,0.02561384506075999,-0.0027290501556244133,-0.010535258764106539,0.005981497007236545,-0.009709638814990455,-0.018382930088743685,0.01879757221098591,-0.015084492007252249,0.01810080250139707,-0.017095752107824838,-0.022768599684892133,0.019609000107806446,0.01502337429820454,-0.01614931300764251,-0.02139556806898877,-0.03403723478874216,0.025156534417753316,0.036327132673788363,-0.035164980018202154,-0.0008083532359478648,-0.010200246708159104,0.014318840363962384,0.021046503264900488,-0.026326612678427896,0.014050640140535852,0.009019584360438636,0.012449503504299615,0.036385984244811334,-0.00035435358455880784,-0.027490137191744743,0.03856280136084046,0.016494667535035604,0.026006043753830404,-0.025542949459632126,-0.003178926270806688,-0.008782658908201657,-0.0061917511868062065,0.014618832600947628,0.02795727328964634,-0.019474685974565815,-0.010698537400944536,0.015352097994601754,-0.007004873793852208,0.014018889019269808,-0.01842143635111164,-0.028738766305092558,0.006508101842595222,0.0033972693966594844,-0.002966653574135635,0.007902017417531283,0.018995042155779712,0.02465624973630083,0.018300403516346556,0.018212720634871525,-0.03401010163109153,-0.016191953679676213,0.009494991672217717,0.03633623355967326,-0.019170913513964556,0.0031696196171636126,0.008279039461822247,0.01575150245259913,-0.001131226246496827,-0.007150735188881794,-0.0043540914288487395,-0.02947083262176033,0.027389061315694005,0.02769923487240756,0.017503330453741323,-0.024157687088277705,0.015146520925230458,0.024964793579000447,-0.017923566739432586,-0.03066169241458166,0.022714610254112044,0.021905413313631952,0.015958923809899255,0.013645633292343728,-0.027815853393075848,-0.026425059587848288,0.0288046947268373,0.03447522773548453,-0.003415850115311874,-0.036035312572949965,0.0013568554635667353,0.02024387145148522,0.019463572362928908,-0.011087921061642752,-0.02166860591142464,0.028277833626050967,0.014641191859909981,0.005970045458449702,-0.0314964535087922,-0.01574572022938035,0.020585050939527796,0.03044852417790289,-0.027964295791418087],[-0.004757394648659125,0.03636293679099278,-0.016211339205693932,-0.007539125948111836,0.027523991879029614,0.019941287609841426,0.010370153223411328,-0.030797221968214654,0.03494547216462631,0.02109510560761524,0.0002175431857170983,-0.030239449366721762,-0.0008260004017249373,0.030297663103934856,0.0041309008430578855,0.030903297718607396,-0.006313352981154417,-0.008728773447553604,-0.001742094784193466,-0.02353325761304543,0.013240070687507613,0.00679156362751491,-0.018995123923271594,0.017898370451019805,0.0193140430527767,-0.02138737787805117,-0.02783339970261837,0.02757575110082442,-0.010630179599596381,-0.026783671852309447,0.017858613171960573,0.024912050648379112,0.018964761821167738,0.03805163040326459,0.02196056320224131,-0.03230474632808956,0.02465156851674552,0.029300948028355676,-0.02199054968181069,0.03292218622135266,0.028416977468022672,-0.011198818972318133,0.01986191784721691,-0.011415059872709996,-0.03729856628475521,-0.012570922701232442,-0.009214791231791333,-0.024605762944321288,-0.005137930055032233,-0.01064841922098456,-0.01788260482514835,-0.0008022077733465,-0.004230923681273359,0.034128988626024495,-0.019062045349698672,-0.019259321754972913,-0.019633579410891337,0.0028092355317607767,-0.005676525666920479,0.014460745085481775,-0.0069553939939031965,-0.008077797498671829,-0.031045213168534758,-0.03113168993165917,-0.029662299707202744,-0.01340758841769696,-0.02389774381524332,0.005776156229974884,-0.007034909006563739,0.003885668632778212,-0.00259556577426895,-0.018347656737491554,0.004960573030899013,0.02486828877315027,-0.002594943817563615,0.030621750620591734,0.030491257664017717,-0.02713894637323012,0.030120028067262224,0.03744040686746607,-0.0037821292358494584,0.009214759787227498,0.021570218312299952,-0.008017247516409582,0.03429358407643125,0.022180068676978554,-0.012181417885399438,-0.02893024120944729,-0.009273260401567965,0.008922158717776253,-0.025040952996627213,0.030854198210434818,0.008855920560172217,-0.030461361581980977,-0.019350221499596157,-0.013380082164612967,0.033124901672532826,-0.015446213308097837,-0.003993146227878743,-0.021814488830600554],[0.019138313219621565,-0.009306622190254325,-0.03457993708500023,-0.033327745585619024,0.032473674412805215,-0.020854326779719868,0.006416659196367174,0.010751711874414692,-0.010629741137163513,0.008709585596050364,0.050133275725656616,0.0322176815769859,-0.04126435015216632,-0.00583863151304054,0.017189850090123422,-0.00821449657839595,-0.016865297908643294,0.031495955454364094,0.00936975395583955,0.013556192487748673,0.01728842797096187,0.023886833416837634,-0.011308993241442467,0.03263279445670053,0.029814077228625543,0.01715461610996676,0.02335284663953306,-0.01436628729333638,-0.019120563535012642,-0.012258686798771875,0.03740595714170387,0.006119721762624671,-0.032355699374285146,0.027791423630406133,-0.019981194580734586,-0.0060262323827913345,0.010973521403156212,0.0052934340704661196,0.0366448693767073,-0.004480469708066431,-0.016881424403313302,-0.0038956589332702894,-0.0364385618022161,0.008648536338583743,0.006468109220039756,-0.006663362711936772,0.03985749586466694,0.002491055232400256,0.016477509865483114,-0.02270489419095121,-0.03816677644838142,-0.01710398911758874,-0.014237319345329796,-0.02763226503207341,-0.03202937969508182,0.013483204840879687,-0.029999235811843713,0.005148168202248051,-0.01710055581435612,-0.0048062870073217814,-0.02275253451238981,-0.017580493146266897,0.008105904694112159,-0.01880511092895138,-0.01848866514919506,-0.015613024534099544,-0.03453587416562372,0.03219180641116806,0.0053593097761327445,-0.0005357588421184862,-0.013342414764258499,0.029604062459236965,-0.020244688457918564,0.0016416013240278691,0.0322300734643033,-0.006663590983062289,-0.023588263109552202,-0.023974935880930085,-0.00466746380935346,0.018096984265301274,-0.015455316870945724,-0.03844582632007362,-0.004703358670730646,-0.005716473575125116,-0.0177375464580383,-0.03059805279930844,0.016404644329461173,-0.034374239963543496,0.010629863597691575,-0.004049352843975677,0.016513327698120053,0.004922971307285278,0.011966203550968722,-0.01344049632245862,-0.015768734113887996,0.008433975445118572,0.049909948433649515,-0.006054238012984812,-0.03563895219784711,0.03903378398877694],[0.034678030941477284,0.023578645546922527,0.025879358231902117,0.015848783532375003,0.029266680272871767,-0.018813503695890885,0.018503861881374695,-0.006021214046826429,-0.015785731031760585,-0.024657583605040778,-0.021868294482601393,-0.00229285688939367,0.02393077476874993,0.02955586056261185,0.01618407175828125,0.014535619253255314,0.020443429206227857,0.014603898507317414,-0.020513414090313032,0.004565192754080823,0.02067580066469909,0.007873940940151095,0.022697689630673982,0.018952523997495894,0.024294918783329195,-0.0151066429414101,0.025614702559834727,-0.02584067489560203,-0.005524622643744025,-0.0239382894448724,0.017381599114839393,-0.0027322758360597463,0.019391693780700176,0.0191652714970898,-0.0034129084222798765,0.01313590985610308,0.014763177860434948,0.019101226986040058,-0.013021458031640613,-0.03531245131638779,0.007809714252351829,-0.013948220147637046,-0.036623194502552615,0.02993679345720276,-0.007131608964547002,0.012970079010121946,0.024954631978377877,-0.013370945609345425,-0.0020069391689578786,0.02093617323575662,-0.005837717751307314,0.0031970399872238145,-0.011429410216297594,0.02831657225261138,-0.02259754027662636,0.013720085592572267,0.020782936896159593,0.01128726238257697,0.009224370490437972,-0.027636799867382447,-0.029757999046604533,-0.02717321941595892,0.028763302616269817,-0.010918531118226885,-0.026403969985552417,0.003962847084099907,-0.02247535529277075,0.010041658667973609,-0.007044245454169604,-0.03218521180123146,-0.01221691197966647,0.015167927236870578,-0.028201140856092252,-0.027235211125078748,-0.0006233063039261102,0.03344689367417815,-0.030460774186597397,-0.027057580601710447,-0.005610305350850381,-0.020938661810818604,-0.006398409516414272,-0.018048490172940822,0.034957831245977636,-0.008999447742406718,0.030982460875614945,0.031178078493283017,0.024569035957915486,-0.012310963666675489,0.002336703198724771,0.020144703467676984,0.02740729413767196,-0.0051869683364266965,-0.034173627390012035,0.0019315202086031302,0.003832754121418332,-0.003505389166061075,-0.005259883122666522,-0.02860972770103509,0.002510582675341134,-0.0036773610863851955],[-0.0022690770246703656,0.02642311797118925,-0.035817389913604225,0.02653744020704237,-0.024520436578020437,0.034940127201958174,-0.004249211405320234,-0.023301519770660733,0.0028033663646738873,-0.033146337724957724,-0.012247018884138147,0.0014513615213368925,0.01648794141745374,-0.031525772873682634,-0.00028857802771435815,0.010556558864405178,0.011418306925044613,-0.032627224578615895,0.004892960500841662,0.03288291396749207,-0.018761572553830593,0.023445002862261945,-0.00966482290063227,-0.02823645497830119,0.0012804313100621702,0.008234475167281614,0.00917207528057945,0.02363478241979954,0.01604171692019869,-0.03018967657788144,-0.01767452194611075,-0.024101358970645217,-0.00903233386485442,0.0023535827349002703,-0.027069201281988597,-0.0303226708107048,-0.0035915560093092934,-0.017851075464959756,-0.010757527498812468,0.018434890631326365,0.03345877604175307,-0.010747907654596642,0.03239266891607245,-0.0066903162679182995,-0.028578458299610133,0.00741766821168964,-0.012053628400998854,0.014195290484420026,-0.017620660001485555,0.029400250317628177,0.003184926808929794,0.015441429910849548,-0.034471381438142726,-0.030105234061152564,0.020997489729984255,-0.00211523266863696,-0.015647352037521482,-0.018783545422486687,-0.008662416911927031,-0.01967829920023009,-0.018349638022182597,-0.032334522275339166,0.02385893697020625,-0.009304608074040726,-0.0029638810086766725,-0.014415710907660449,0.008781695149010019,0.03457033214073663,-0.028116238356736767,-0.02259550321960822,0.03409231086048368,0.004987226085962831,0.0041951450159525136,-0.015283198013590717,-0.007349345939939439,0.002618153802049058,0.01760489042478644,0.003243041991695255,-0.019394239547738668,-0.009982184395833038,-0.03389564042831683,-0.003740684091524099,0.003616920822933129,-0.0066172078770444474,-0.01849207848965816,0.0026646746102405882,-0.023072759167990394,-0.01938807342067391,-0.03387885652671471,0.0007606872401532039,0.0247382550261258,-0.033364169224179285,-0.009077689761978964,0.02620366102586324,-0.01425848685049889,0.0051052743665577355,0.0015069993087450417,0.014236406965740061,0.03386707221086314,-0.032163458733328015],[-0.03496976643153519,-0.023011998056740937,0.016176537939280252,-0.010732812358296304,0.007038092592167428,0.010657891193875698,-0.016431632539643533,0.004426224057013795,0.03706270882655751,0.03150329165905494,0.03425509233406349,0.03359408128888156,0.020058555763533534,0.01620731947701062,-0.034884757633765584,0.005867065785436322,-0.03165608486349371,0.026011394337813167,-0.013140604885289049,-0.03379410408578829,-0.012998820198511465,-0.033754819676030286,-0.025482155503827722,0.011248894754897293,-0.005991595488595966,-0.007252482100282233,-0.03526844829046141,-0.019886051404429526,0.008450694484646344,-0.01424341544999323,-0.01896525081925737,-0.005246353086985465,-0.006134031920045534,0.04277679761243678,0.027905564848988162,0.033420270455564886,-0.010857105325481722,0.008378316197468727,0.003151494430812658,-0.017065003748596243,0.0014366134567756644,0.0003299247406443562,-0.015853834089685593,0.023587098363053276,-0.024552948557709682,-0.013958113649530262,-0.00913996697096629,0.02254793366788954,-0.004483401515500783,-0.011638569335489098,0.01768050808195815,0.002887769300880402,-0.025947852363000536,0.0028823931076488334,0.010967126772697814,0.009188375947279151,0.012952114507582222,0.020282046427243478,0.009611341445868156,-0.00321932725672771,-0.02294510838216302,-0.013433429908267425,0.03448209481477353,0.033190407789395,0.011595247616861063,-0.019350688487553003,0.0008976308093104647,0.035171743508066226,0.03054877455104249,-0.01819933571686028,-0.013967137025472543,0.023174576553719833,-0.02467342928620139,-0.01478235877743502,0.03408118289875818,-0.03273674306010234,0.023496736060078485,0.010052389437437572,0.03762963464509212,0.014204276956517735,-0.03470444548708934,0.007863450913288491,-0.012849867572477596,-0.006081779533431463,-0.009285959139328526,0.02486488725140395,-0.035889531808630935,0.02416471175402029,0.03544526093316305,-0.017343468641899906,-0.0006084535916953481,-0.019827254406581705,-0.004897115084433618,-0.013926219204756217,0.010931734752427357,-0.031120875695238113,0.015636433825703837,0.025393977602101575,0.031292166545985885,0.0377943397478261],[0.033935187176234685,0.001099839674446942,-0.029910705427080336,0.019409340245079957,-0.004667530911342844,-0.03431201725960126,-0.010229090940699967,0.024492397727314878,0.0008944009031372055,0.019175789144969247,0.023216717093786445,0.009660495652079833,-0.030268249732652165,0.0176214230026803,0.008511538273817535,0.01158516403536552,-0.005415831023483218,0.029076949069491834,0.005565912958641394,0.013223504331330444,0.012676376595000318,0.018371854862562813,0.022188862718303334,-0.000725814840988017,-0.021435948343335506,-0.009780785771570398,0.030677354373760766,-0.014635387514219852,0.007813758081405997,-0.015753111167231996,0.029558519459883602,0.014212554059100508,-0.03108041523291516,0.020106523976465993,-0.016375764377674438,0.028368722325049917,0.02977190496999221,0.004390738917284666,0.017002631341660954,-0.012262248290751392,0.028219717166798233,-0.03198807864184301,-0.0005480188100146103,-0.01343296853718607,-0.019659432679614723,-0.02297358583817829,0.004900842070651394,-0.007647357542490067,0.018415349570228296,0.013778547430080171,0.006543948703117945,0.01981617747570895,0.03510388970689974,0.014758679996621064,0.016626766444773435,-0.02849421856323946,-0.027924621478394137,0.01997325532094655,-0.011380603420271519,-0.013874793316467056,-0.03290385029543617,0.024805927657285558,0.035113156305701346,-0.01346054130950704,-0.022497467836046375,-0.03255214057258562,-0.005272974186712125,0.011373929170689627,0.014945413368353335,-0.005811899867094173,0.024806180403108818,-0.0011437237705398413,-0.019888420234642903,0.0014180425382423563,0.0035268653167863915,-0.02761714070640288,-0.006101638792762221,0.005603910824665781,-0.009434915282877166,0.03438552863256607,0.027270265524229703,-0.017248202334141555,-0.01287658825275059,0.02715479406066906,0.0026732227155086196,-0.014339096944010473,-0.011007200634629706,0.016817452779958036,-0.002975888791790446,0.004033212835100226,-0.027513888352334655,0.00910230172230865,-0.025105900916662333,-0.02422976122335955,-0.02767098777901083,0.006810171143123479,0.03381993938839752,-0.016820409787430046,0.010347293460225334,0.029740209600756223],[-0.02932776882923953,-0.020545290086649605,-0.03387544960321351,-0.03275855292010661,0.008056466423194327,0.0005743204384225874,-0.02918426825889206,-0.012560747442027457,-0.004979461306870863,0.011947011100221677,-0.001446273911448759,-0.005605483719438957,-0.0063852634172191156,-0.0231761159515282,-0.02338209271439328,0.01047695737512585,0.007354535227690275,0.001367638912447206,0.014699996744002537,-0.004086696705622258,-0.014349700359969846,0.010945642092566633,-0.01450695420289514,0.022762832398765694,-0.02550277287023723,-0.00197376150711705,0.017249390641877665,0.01818552478632882,0.00027149605071420056,0.005250659330906062,0.0009203055765569441,-0.011055914500912915,0.003590521005507556,0.02303908422475596,-0.0366599114474769,-0.012695693163750273,-0.028327273208681888,-0.03015503030296115,-0.0022317546815112856,-0.027593191417208476,0.0006056885792826959,-0.036992909761447944,-0.02764705767896275,0.026284952943677622,0.018836046519421723,-0.0013673074164187635,-0.030414270773586195,-0.007263153687052195,-0.03459866321114825,0.024905026653569334,-0.0069334151200755876,-0.018347429751195722,-0.013468746686533414,-0.018025302303064903,0.03334250417617889,0.03690596482881737,0.0006324650071614889,0.016569579434782888,0.015115030912124508,0.01295612528971709,-0.017885792005692392,0.024759854868445976,-0.013088948914234726,-0.0256728924866229,0.007865110006361416,0.02900866504994195,0.023622019277594667,0.013103499813056182,-0.013237748692357987,-0.027568968601276958,0.0030894148539786326,0.014598843699108932,-0.009864524587900868,0.005389068189765167,-0.02508255367110295,0.0009684586391375287,0.00612801054405033,0.030483914410527783,-0.02092930309509804,-0.02371494633388346,-0.006673557174471848,-0.024740710250482613,0.03422428557462966,-0.0005106529355974276,-0.007377290689377038,0.011245075627287136,0.021260160104258047,-0.014858117512823158,-0.009233499101520978,-0.022631104321823945,0.010815148193399822,-0.03078229232948126,0.02169566305847993,-0.03330798127316895,-0.014403316233525393,0.006447169863215329,0.031231024522106885,0.011820429058296899,0.03209398011039044,0.02838103224476913],[-0.016664036366950772,-0.03187797541221916,-0.03305863214260599,0.011653896870808832,0.02436942758245881,0.03169093360028711,-0.01848525885668733,-0.02994460062846088,0.010943672343844605,-0.0032744570533456696,-0.003114283838026535,-0.013759721121115622,0.007549010276216891,0.0044619418577168495,-0.025659282142936012,0.023775745554784358,0.010668331119947201,0.0031739205617378036,-0.028363980829870277,0.02020584629686394,0.008873606251754958,0.020333922002608702,0.019744341382747804,-0.0023406299915347444,0.022702190488514,0.024155210497223075,-0.014697356227207943,-0.025794449168089158,-0.018477227105436672,0.010671698700158445,-0.011186920921149297,-0.01895889879493397,0.035668575182740726,-0.009037084679152233,-0.006479380486264434,0.013395101087639036,0.022255780316115765,-0.011575980969429986,-0.025399194156476717,0.03170300449832328,-0.005169082768009337,0.026692248924909404,-0.0241586805637539,0.016402667299704295,0.01026610777735311,-0.006391502324242352,-0.016263122701340293,-0.014460683186577745,0.03498348596487937,0.021081947250488908,-0.008718118553877711,0.035416642061276295,0.014141485747542077,-0.032129788973844844,0.03248263495483594,0.012593514392744561,-0.017002646336033562,-0.02160676445220098,-0.011196310127045323,0.03248074508046754,-0.024733641958548058,-0.002122835242019321,-0.023352240066218555,0.024784720484077545,-0.016970761386224487,-0.0003156676274683307,-0.031697158747115706,-0.027402344604558346,-0.007551760672553464,-0.010702145814283378,0.031311367055725625,-0.02680777862450601,-0.014579289674958399,-0.017626381117096152,0.019540727581467552,0.01521524261139666,0.03136951451964903,0.011334445816259019,0.024744346570790943,-0.005621627808098181,0.014856567213547509,0.023777194684917805,-0.025405306230618426,0.0021758114328708517,0.02732889442937552,-0.02853742269316927,0.005197996097961437,-0.009606330649766454,0.003387745838545478,-0.005527598405432252,0.00616831491669522,-0.017066278837594467,-0.02695778322582414,0.014004694877935207,0.024633708304488935,-0.016280290309611766,0.026847238271250483,-0.02887344044491588,0.02693363031416426,-0.02982161161505208],[-0.017360339791414086,-0.002060948253245251,-0.029284361159186496,0.00045639406719498275,0.012954145207839772,-0.009868785474020838,-0.002695211661873679,-0.022680495585270438,-0.014882294927454237,-0.01436402790520319,0.033099805467404216,0.03403637549632952,-0.0023666525557338534,0.001797971129720167,0.024901102172362664,0.031197331713931645,-0.015767035082718095,-0.027823055465115785,0.024328234078351805,-0.0028287900386584687,-0.01680816740353724,0.01534348132655116,-0.03681485771407261,0.027185135289286816,-0.0007327809329630961,0.01664436848936783,0.01203933480519028,-0.02866815702604825,0.012939575165893395,-0.023088399939003277,-0.01492598971054259,0.025433066822858178,-0.021809397260293625,-0.016929369166639507,-0.030756475471580735,0.03599554745442465,-0.011213455526244672,0.03385820242701476,0.008498919770918795,-0.03226610681428117,-0.005529331763649796,-0.03439549057957293,-0.018499960843165995,0.03175556516234764,0.03135430623531996,-0.01656848622837563,-0.0252713744924766,-0.018092620541279063,0.0014598651646350186,-0.03802282382175656,-0.029590775595399597,0.031079482439251124,-0.0032466390921372227,-0.03536801410868453,0.013030738001652775,-0.019040562164438956,-0.005082528153556319,0.003997646701565798,0.01590155370289179,0.020681789618849627,0.0014098903971714336,-0.020839062926847805,0.00976756683634687,0.013340654601532847,-0.01825044600210231,0.011826188606991386,0.0031497942660489273,-0.031389745641811524,-0.0138486320400644,-0.011041660467681309,-0.013457580202654513,-0.02447635495789126,0.03343805925725115,-0.03484723685947654,-0.012364633764352017,0.027439285656202888,-0.02651630582272419,-0.011554589137851366,-0.0019734731276336154,0.021950699389249748,-0.012939924300239354,0.0217295513793519,0.01875607860525443,-0.021631679144975127,0.007279566442881124,-0.031545637537440975,0.013469305422736949,0.00630399977509565,0.03240171109035896,0.006087221775828077,0.023065083183681143,0.027744641575540765,0.014544031444467078,0.004376985762487751,0.005371304060351882,0.02607958998054937,0.03836540915053779,-0.033742485428244685,-0.025879191489131727,-0.03322540264494408],[0.017356259689253018,-0.007139254397441354,0.028865385668311712,-0.009356297416691245,-0.015385975941693355,0.012231785183288161,0.0009747045863977477,-0.02901021774482556,0.038304396936642934,-0.03236869770562335,-0.013337859292964101,0.020319858305160785,-0.035372675661327534,-0.024726746597844126,-0.010929868338391803,0.0016539292782532641,0.012143315475510312,0.01438167706598001,-0.01411623032761765,0.009807470065004265,0.004606102890673754,-0.010236349721302199,0.0012137333960192133,0.0213975440307211,0.03708680547030393,0.005733543527877125,-0.002233716518487655,0.005573027146589622,-0.022031392250780626,0.021012977612732252,-0.006859335513042665,0.003081028766364839,0.019346344249978293,-0.03093999832633103,0.0027210829839234255,-0.036541272700541035,0.007991700574015883,-0.01006367926179568,-0.002355189419128024,0.0110785753685579,-0.02553420833689506,0.013621058076842274,-0.021807354181931547,0.01064873129649402,-0.035013048844060146,0.0014965710104290378,-0.0309254462590093,-0.010301117658699626,0.028022279852005484,-0.029636692936403065,-0.016750225835029373,0.005398272653853122,0.025501952287971256,-0.02096637089648996,-0.006577265268938908,0.007456144312356416,-0.02538662262135236,0.012065009848360274,-0.020811195240438417,-0.006405684359960531,-0.011139334634332506,-0.01020134354134528,-0.011802293712719819,0.02334337553243668,0.020949689637605108,-0.03437627255036242,0.016835146672829912,-0.023062197639758482,0.0039613029415262405,-0.011377325105860814,0.028706935288513157,-0.010876659188427156,-0.026842816356085403,0.03156227270114357,0.014256773776907357,-0.029150030070252925,-0.0014166021395511368,0.022329301864353352,-0.018081202214704883,-0.007033663014479797,-0.025182066586723187,-0.013417214276390317,-0.016549728995009755,0.028139330842471874,-0.010046530295405745,-0.022861190255103553,-0.024025552124401044,-0.024587902338668196,0.01326618975851123,0.016980818339310998,0.004514879774027425,-0.018566875717498453,-0.00018373330130787947,-0.010341345568586725,-0.020287528247198497,0.021433113294427583,0.031603346206836934,-0.013889411167307792,0.005899626304785297,-0.0208592658474098],[0.010702453318520863,0.0164217616735644,-0.032806899628936834,-0.006768846743814622,-0.00025603734823061207,-0.03633493167743373,-0.005615038543749937,0.027685119433470184,-0.01620470576499103,-0.007710125497152647,0.009152453599773989,0.022646927733929706,-0.0060927569612754,-0.015540832653903422,-0.021639318814722495,0.0170877816320289,-0.031328985975785616,-0.028961533149722357,-0.032746306678367726,0.011539686068887889,-0.020726861733384016,-0.0001593047159662302,-0.010525966631779743,-0.03279465378446765,0.005292869951558418,-0.029432028639050558,-0.013160030004049698,0.02720853856130122,-0.019657899722754956,-0.0344993839663515,-0.030163510094236436,0.007668467091527347,-0.0002612167296516546,0.025160157442563294,-0.0013243677948752558,0.005626189776572594,0.014388410616418766,-0.026608896942214463,-0.032059429319135066,-0.00564735688935447,-0.016917320108108157,0.01658671451342452,-0.03438560302612663,0.0143145462126749,0.0018250724587155717,-0.007672585039192154,0.012684236808104854,-0.021647826799830357,-0.0035569178487094765,-0.022510920191153423,0.022386345137496422,-0.0016741848070761978,0.01179743612038248,-0.024848549413944543,-0.028678823094781418,0.021072176315300353,0.03375508227646495,-0.0101439496217741,-0.0077485566365946765,-0.025628428839926092,0.011645697259760368,-0.022983064174313363,0.018283779744254297,-0.008032029098460658,0.013618583762641669,-0.03255618111934698,-0.02621986086786447,-0.008043584954291208,-0.03293111516211774,0.022067955736999226,0.022433678338178147,0.016956583433213955,0.024008571164696558,0.032387649884186964,-0.008348443086780028,-0.024723999138481695,0.02819966373886719,0.012354953017949002,-0.011043346834955768,0.034380877621250173,-0.01365015818943059,0.025979658714016248,0.025999645824273505,0.01597856504529717,0.0035487144736859604,-0.0316049186833665,0.026624427595490933,0.019563904135182178,0.020369797494564634,-0.006369175231843239,-0.01128838883340119,0.03113118830361681,0.021955803480255817,-0.02061029874434211,-0.014457998164673943,0.00689026494163681,-0.003045711199492617,-0.01637041393278359,-0.029719831879185518,-0.01135512595383014],[0.015477946756422839,-0.015795544048974514,-0.0206198895481187,-0.010658367559478604,-0.029154824789814213,0.0057963342943247315,-0.03101540938587747,0.02051546655924331,-0.01175344112654978,-0.01414361756143957,0.016679329413658198,0.028458200899068007,-0.0313963516829668,-0.017404722703694666,-0.004196512014609578,0.0007243043889456441,0.011762326949772157,0.0010363363757095612,-0.012953911110227291,0.00791258358386888,0.010030173367164132,-0.011923233500722713,-0.035401637127854435,-0.011650451548390627,0.016725960937341588,0.012314642173505228,-0.019021670724155948,-0.005911947499043904,0.01871168485191892,0.029959164933312854,-0.03093185405545081,0.011280397389264177,-0.01570628559557618,-0.01670860387140545,-0.01453489518877573,0.03202463394802201,0.006632254157587574,0.024865249348435113,-0.0219234525961095,0.022644552430417023,-0.01771014218464037,-0.03235118770112845,-0.01442044582166598,0.021638502766548023,0.009492302245078459,-0.013722571303426228,-0.027969440676194255,-0.03330809828278612,-0.0057359379824560765,-0.019253162781414097,0.0012941675400489846,-0.0002052097646969591,-0.013396073386023782,0.017710036008677404,0.010525208289659513,0.02656114789171909,-0.00010567026487987291,-0.025140321284715265,0.009812277868814383,0.035994907607432486,-0.003700735494938817,0.017021541251505453,0.013108017359104863,-0.033369718185046235,0.010472074252066737,0.026286034406077238,-0.025179058581074287,-0.008159638567728588,0.010326517455391182,0.008514393226617173,0.013855260612929689,0.013779766805284647,0.026539938399227928,0.03095770336205081,-0.029561621325330086,-0.01068454808454881,-0.01070079249338996,-0.010967405146527123,0.0279167318910937,-0.011786501567308129,-0.008732517761219317,-0.022100974543220166,0.02981691489177149,0.005944853661002489,0.027277555938773273,-0.016830199828122706,-0.02466861056665286,